tree
version=v3
num_class=1
num_tree_per_iteration=1
label_index=0
max_feature_idx=46
objective=binary sigmoid:1
feature_names=srcPort destPort bytesOut bytesIn pktsIn pktsOut tlsIssuerDn_null tlsSubject_C_cnt tlsSubject_ST_cnt tlsSubject_L_cnt tlsSubject_O_cnt tlsSubject_OU_cnt tlsSubject_CN_cnt tlsSubject_cnt tlsIssuerDn_cnt tlsSni_cnt srcAddress_cnt destAddress_cnt tlsVersion_cnt destPort_cnt bytesOut_cnt bytesIn_cnt pktsIn_cnt pktsOut_cnt bytesOut_pktsIn bytesIn_pktsOut bytesIn_bytesOut pktsIn_pktsOut tlsVersion_num vec_add_w2v_1 vec_add_w2v_2 vec_add_w2v_3 vec_add_w2v_4 vec_add_w2v_5 vec_add_w2v_6 vec_add_w2v_7 vec_add_w2v_8 tlsSubject_num tlsIssuerDn_num srcAddress_mean srcAddress_std srcAddress_max srcAddress_min destAddress_mean destAddress_std destAddress_max destAddress_min
feature_infos=[5:65535] [20:64780] [62:797323266] [310:360644320] [3:238881] [1:526713] [0:1] [3:20402] [3:23015] [3:25529] [3:20603] [3:28094] [3:14806] [3:2055] [3:3684] [3:433] [3:138] [3:138] [3:32523] [3:37260] [3:279] [3:363] [3:2630] [3:2753] [1.0877192982456141:27181.017857142859] [2.4214949137549757:25656] [0.0022480729395580028:346.70270270270271] [0.039628482972136225:60] [1:3] [-0.64770543575286865:0.28574886918067932] [-0.78400695323944092:0.23770889639854431] [-0.23685339093208313:0.71100395917892456] [0.11590141803026199:0.93095993995666504] [-0.12311489135026932:0.77403813600540161] [-0.62682372331619263:0.28120881319046021] [-0.50808143615722656:0.38414296507835388] [-0.48820772767066956:0.47870063781738281] [1:17] [1:8] [47.25:145.5] [55.154328932550705:106.41281642734582] [172:254] [0:16] [6.25:149.75] [2.6809513236909019:97.238109812974045] [10:212] [0:10]
tree_sizes=3320 3367 3364 3380 3382 3390 3411 3394 3400 3420 3393 3412 3394 3390 3405 3408 3396 3426 3426 3405 3425 3424 3404 3416 3404 3394 3400 3425 3426 3405 3431 3403 3406 3404 3417 3402 3410 3406 3404 3400 3429 3406 3407 3432 3417 3416 3404 3419 3408 3412 3415 3424 3418 3428 3407 3418 3417 3432 3428 3426 3433 3437 3420 3412 3431 3435 3429 3422 3426 3432 3425 3420 3421 3434 3415 3407 3420 3438 3443 3420 3425 3437 3433 3437 3419 3419 3427 3444 3427 3431 3445 3449 3426 3435 3432 3448 3416 3418 3429 3445 3421 3438 3444 3429 3429 3454 3443 3432 3446 3425 3428 3435 3440 3441 3438 3427 3431 3445 3432 3442 3429 3438 3447 3433 3438 3450 3441 3459 3445 3436 3452 3444 3451 3466 3448 3436 3460 3445 3448 3452 3443 3457 3445 3457 3435 3434 3473 3449 3453 3456 3452 3437 3447 3439 3443 3443 3450 3420 3468 3436 3457 3444 3458 3447 3468 3469 3456 3438 3462 3444 3454 3454 3473 3480 3441 3458 3454 3446 3456 3461 3439 3467 3442 3473 3448 3445 3443 3439 3453 3479 3470 3455 3435 3466 3451 3465 3448 3471 3442 3435 3454 3455 3456 3498 3465 3457 3455 3452 3456 3455 3440 3455 3466 3469 3466 3448 3466 3470 3459 3448 3469 3469 3461 3467 3469 3476 3449 3419 3469 3466 3459 3471 3469 3462 3472 3487 3471 3473 3482 3467 3476 3465 3478 3470 3482 3472 3481 3473 3465 3464 3486 3478 3472 3496 3459 3481 3497 3498 3464 3500 3485 3478 3472 3472 3475 3480 3470 3493 3518 3482 3486 3471 3457 3504 3479 3489 3486 3488 3497 3510 3487 3472 3493 3470 3500 3467 3488 3530 3495 3519 3491 3474 3484 3493 3494 3488 3494 3473 3505 3499 3496 3508 3478 3494 3498 3500 3496 3502 3502 3498 3487 3492 3489 3494 3511 3475 3495 3487 3498 3502 3499 3494 3503 3500 3499 3492 3496 3506 3490 3491 3509 3493 3494 3491 3498 3504 3511 3461 3502 3483 3511 3503 3478 3511 3509 3517 3481 3494 3502 3483 3496 3512 3490 3496 3506 3489 3506 3489 3492 3514 3499 3514 3518 3482 3501 3488 3496 3500 3496 3487 3509 3499 3507 3510 3504 3485 3509 3474 3535 3492 3509 3507 3506 3498 3500 3496 3502 3517 3521 3491 3518 3519 3498 3508 3488 3514 3505 3506 3491 3488 3509 3516 3477 3497 3509 3531 3522 3502 3505 3500 3512 3519 3511 3503 3503 3512 3500 3524 3524 3518 3521 3515 3512 3521 3519 3513 3517 3512 3514 3516 3524 3523 3529 3500 3503 3506 3500 3498 3519 3516 3500 3518 3521 3514 3502 3519 3507 3520 3515 3510 3502 3496 3505 3507 3506 3509 3492 3522 3514 3510 3523 3498 3525 3506 3530 3525 3512 3508 3524 3532 3521 3506 3521 3520 3519 3498 3504 3524 3491 3511 3543 3507 3527 3508 3521 3520 3526 3513 3515 3513 3525 3511 3532 3524 3524 3518 3529 3527 3507 3534 3530 3540 3533 3515 3535 3533 3500 3545 3525 3526 3521 3540 3536 3529 3533 3551 3512 3537 3531 3529 3536 3525 3543 3534 3527 3548 3534 3519 3532 3530 3539 3510 3534 3537 3534 3543 3521 3531 3537 3543 3535 3530 3534 3537 3544 3541 3534 3537 3540 3559 3537 3539 3551 3533 3565 3546 3535 3534 3532

Tree=0
num_leaves=31
num_cat=0
split_feature=28 9 19 0 3 27 3 27 22 0 0 12 10 12 0 0 14 31 14 24 6 14 12 0 14 31 0 22 3 14
split_gain=15922.2 1477.18 1179.61 948.753 895.406 769.584 588.774 418.781 307.481 303.649 401.667 272.779 298.038 264.863 302.369 397.641 226.263 171.208 170.212 158.802 145.009 141.898 384.719 135.553 129 119.495 103.251 95.6884 80.7264 105.028
threshold=1.0500000000000003 222.50000000000003 394.50000000000006 48725.000000000007 1888.5000000000002 0.99849187935034822 799.50000000000011 1.2845860342988433 1951.5000000000002 49162.500000000007 53175.000000000007 173.50000000000003 576.00000000000011 1.0000000180025095e-35 50318.500000000007 48725.000000000007 2869.5000000000005 0.41776382923126226 279.50000000000006 1123.5914368650219 1.0000000180025095e-35 131.00000000000003 111.00000000000001 1452.0000000000002 379.00000000000006 0.43054021894931799 49198.500000000007 1951.5000000000002 1822.5000000000002 406.00000000000006
decision_type=8 10 8 2 2 2 2 2 10 2 2 10 8 10 2 2 10 2 10 2 2 8 10 2 10 2 2 10 2 8
left_child=3 4 5 23 9 11 26 16 19 -2 -11 12 -3 14 15 -8 20 -7 -10 -6 -5 22 -15 -1 -17 -19 -4 -28 29 -23
right_child=1 2 6 7 8 17 13 -9 18 10 -12 -13 -14 21 -16 24 -18 25 -20 -21 -22 28 -24 -25 -26 -27 27 -29 -30 -31
leaf_value=-1.2907001732357657 -1.5085135636386389 -1.5072112905505839 -1.5032393305044198 -1.3683649009202641 -1.500822188922575 -1.5032730065975102 -1.5149383731948851 -1.4508274999721023 -1.2612707572996029 -1.2291424285507357 -1.4331659375360182 -1.4728405049914106 -1.2081002399490417 -1.490258357841868 -1.5074551360745483 -1.2483338340874301 -1.5029365421230561 -1.2408266492126609 -1.4843973647589312 -1.3681308605589682 -1.1998376981123364 -1.4180237015943535 -1.2334176311932004 -1.5150241753310969 -1.4440151803661929 -1.4857576486077755 -1.250546505003947 -1.4445389365337158 -1.5157605557035185 -1.5013843199838925
leaf_weight=6.4355947673320761 15.016387790441511 8.7340214699506742 5.9759094268083564 15.782530024647711 169.93034754693508 87.03375780582428 30.798917815089226 18.234185174107552 25.282693728804588 100.82431802153587 32.177973836660385 14.863159343600271 69.872171759605408 120.1311023235321 93.469352573156357 37.847426369786263 5.8226809799671164 9.9598490446805972 11.798590406775473 24.056866154074669 585.79235227406025 38.460340157151222 14.556702449917791 31.565060049295425 11.032448172569273 7.8146507889032355 27.734348878264427 8.4275645762681943 2866.1380981653929 695.3506917655468
leaf_count=42 98 57 39 103 1109 568 201 119 165 658 210 97 456 784 610 247 38 65 77 157 3823 251 95 206 72 51 181 55 18705 4538
internal_value=-1.45705 -1.49061 -1.49925 -1.22871 -1.39635 -1.38077 -1.50523 -1.21402 -1.4581 -1.30124 -1.27742 -1.27806 -1.24175 -1.50726 -1.44691 -1.37639 -1.20696 -1.47401 -1.33003 -1.48363 -1.20395 -1.51006 -1.45963 -1.47062 -1.29025 -1.34052 -1.32333 -1.29273 -1.51194 -1.49692
internal_weight=0 4527.29 4148.2 663.632 379.087 198.278 3949.92 625.632 231.068 148.019 133.002 93.4694 78.6062 3907.79 173.148 79.6788 607.398 104.808 37.0813 193.987 601.575 3734.64 134.688 38.0007 48.8799 17.7745 42.1378 36.1619 3599.95 733.811
internal_count=33877 29546 27072 4331 2474 1294 25778 4083 1508 966 868 610 513 25503 1130 520 3964 684 242 1266 3926 24373 879 248 319 116 275 236 23494 4789
shrinkage=1


Tree=1
num_leaves=31
num_cat=0
split_feature=28 7 19 27 0 4 7 10 27 27 12 7 0 4 12 16 0 0 0 12 38 2 0 0 5 9 17 0 27 27
split_gain=12770.5 2522.21 1082.21 730.954 648.953 369.025 874.688 365.566 311.955 280.132 234.707 248.349 220.96 210.139 141.573 136.101 131.404 141.865 119.561 107.598 192.586 106.667 104.239 71.9717 70.6046 66.8166 90.4372 45.6206 44.2874 40.5699
threshold=1.0500000000000003 4722.5000000000009 394.50000000000006 0.99849187935034822 48725.000000000007 12.500000000000002 8904.5000000000018 889.00000000000011 1.7156334231805932 1.2845860342988433 13.500000000000002 15417.500000000002 49162.500000000007 5.5000000000000009 173.50000000000003 55.500000000000007 52625.500000000007 48725.000000000007 1452.0000000000002 1.0000000180025095e-35 2.5000000000000004 976.50000000000011 51720.500000000007 49622.500000000007 5.5000000000000009 46.000000000000007 6.5000000000000009 58690.500000000007 0.94455423803249905 0.24330987331459061
decision_type=8 10 8 2 2 2 10 10 2 2 10 10 2 2 10 10 2 2 2 10 2 2 2 2 2 8 10 2 2 2
left_child=4 8 3 12 18 6 7 27 -2 21 11 -8 -3 24 -14 -5 17 -13 -1 20 28 -6 -17 -11 -12 26 -21 -4 -7 -23
right_child=1 2 5 15 9 19 10 -9 -10 23 13 16 14 -15 -16 22 -18 -19 -20 25 -22 29 -24 -25 -26 -27 -28 -29 -30 -31
leaf_value=0.14791808667311343 0.19772319327786625 -0.051944031997968848 0.2005800935327447 -0.049249399646494642 0.019114372079307402 0.18540198777750874 -0.05776025330501753 -0.046922203517755265 -0.049941058182039054 0.15612853056805645 0.14173577586244404 -0.049017753999067916 0.19660684800296616 -0.04597364461547622 0.0012877622295983627 -0.047065657206677138 -0.016689677906555327 0.16895275400513429 -0.057228961958732671 -0.031320726552169817 -0.032701378764232063 0.038518170690493306 0.18774663392901278 -0.048143627586724802 -0.045354115216799294 -0.057681458940370148 0.14241331012056743 0.0019856362225305186 -0.01080996008127201 0.20780724789917301
leaf_weight=7.1061072349548331 127.70418031513691 10.793328538537024 59.921765699982643 91.995099812746048 8.0861084163188917 11.732354283332823 43.866698682308197 20.513278186321259 13.303101435303686 3.8455504924058941 18.581914097070698 8.0601148754358274 92.460324317216873 885.36822083592415 10.317286431789396 6.6976415365934399 19.756293103098869 41.902028486132622 30.431353271007538 31.876561909914017 132.71609157323837 4.5770951360464087 10.015693694353102 14.45926985144615 5.6081798672676078 2774.8743319660425 7.6228933036327353 3.0756315737962714 3.3696171492338172 689.80087906122208
leaf_count=42 756 71 354 616 50 68 289 137 89 25 111 54 529 5941 68 45 131 260 206 210 879 26 58 94 37 18754 47 20 22 3888
internal_value=0 -0.0326328 -0.0395003 0.0675061 0.189159 -0.0453763 -0.0206896 0.133012 0.173986 0.199687 -0.03347 0.033844 0.155081 -0.041932 0.177399 -0.025135 0.0914847 0.133256 -0.0128753 -0.0545789 -0.0127985 0.204705 0.0986754 0.00592215 0.0982101 -0.0567626 0.00745527 0.191244 0.145478 0.206805
internal_weight=0 4432.13 4291.13 222.279 758.306 4068.85 1106.65 83.5107 141.007 720.769 1023.14 113.585 113.571 909.558 102.778 108.708 69.7184 49.9621 37.5375 2962.19 147.818 702.464 16.7133 18.3048 24.1901 2814.37 39.4995 62.9974 15.102 694.378
internal_count=33877 29546 28701 1387 4331 27314 7334 511 845 4083 6823 734 668 6089 597 719 445 314 248 19980 969 3964 103 119 148 19011 257 374 90 3914
shrinkage=0.05


Tree=2
num_leaves=31
num_cat=0
split_feature=28 7 19 3 27 0 0 0 4 27 12 14 27 0 14 13 27 16 0 12 9 0 0 2 14 20 0 16 4 37
split_gain=10641.1 2158.49 989.786 690.522 594.137 480.012 251.871 823.529 512.09 238.866 229.932 228.466 202.174 174.27 145.032 133.146 126.372 123.129 106.541 105.445 99.2535 86.328 85.9644 78.5582 74.6043 66.1589 63.9759 61.3931 58.232 52.3703
threshold=1.0500000000000003 4722.5000000000009 394.50000000000006 799.50000000000011 0.99849187935034822 48725.000000000007 50432.500000000007 49162.500000000007 13.500000000000002 1.7156334231805932 10.500000000000002 406.00000000000006 1.2845860342988433 49162.500000000007 2869.5000000000005 16.500000000000004 0.90987686664920109 55.500000000000007 1452.0000000000002 173.50000000000003 55.500000000000007 51720.500000000007 49162.500000000007 976.50000000000011 613.50000000000011 16.500000000000004 49622.500000000007 13.500000000000002 7.5000000000000009 5.5000000000000009
decision_type=8 10 8 2 2 2 2 2 2 2 10 8 2 2 10 10 2 10 2 10 10 2 2 2 10 10 2 10 2 2
left_child=5 9 4 22 13 18 7 -5 11 -2 16 -9 14 -3 23 25 24 -6 -1 29 -12 -19 -4 -7 -10 -13 -14 -22 -24 -15
right_child=1 2 3 6 17 12 -8 8 10 -11 20 15 26 19 -16 -17 -18 21 -20 -21 27 -23 28 -25 -26 -27 -28 -29 -30 -31
leaf_value=0.13321378771697265 0.16899036991415023 -0.05118373370410173 -0.045745371079263353 -0.059916980261227659 -0.048348684644026758 0.018178210878266789 -0.055998525245161246 0.16596690985118073 0.17665575652564203 -0.049151244574600433 0.15178803762718349 0.094827724174703185 0.14166354876728612 0.18158219829780922 -0.048551786455238298 -0.039348207492404648 -0.010711759801743399 -0.046344497233900536 -0.056523675099237961 0.0012329723684440165 -0.048519250291021221 0.16533652549384625 0.16627555239131683 0.17874334837240011 0.0037331346933667238 -0.037492761191802775 -0.047297074052625246 0.056737371241025174 0.023603519509249826 0.054297393671551002
leaf_weight=7.7001910507678977 141.87019005417824 10.444542974233626 5.8547895848751059 802.08427056670189 89.133719503879547 8.1779919564723951 2604.1702582538128 61.764789223670959 23.809497386217117 12.883831620216368 4.8347804546356192 74.443066447973251 4.2202088981866863 91.065151482820511 6.4131444990634909 31.36063152551651 26.112883642315865 6.4979678392410305 29.323563456535339 10.325617611408232 231.09403321146965 11.046250462532042 43.484188959002495 763.62785114347935 8.340695455670355 9.69658415019512 14.028928577899931 13.094375297427176 9.3527234941720945 11.173115044832228
leaf_count=42 756 71 39 5595 616 50 18160 343 139 89 28 491 25 467 38 214 175 45 206 68 1621 58 235 3876 56 67 94 91 60 62
internal_value=0 -0.0317708 -0.0385865 -0.0444608 0.0619349 0.163104 -0.0470505 -0.0288806 0.0225294 0.150434 -0.0165505 0.0897026 0.171266 0.135931 0.175114 0.0467889 0.0713017 -0.0243196 -0.0122572 0.153883 -0.0375093 0.0902153 0.123107 0.177093 0.134641 0.0790621 0.00607707 -0.0424599 0.142803 0.168981
internal_weight=0 4333.94 4179.18 3949.5 229.686 833.492 3890.81 1286.64 484.551 154.754 307.286 177.265 796.468 123.008 778.219 115.5 58.2631 106.678 37.0238 112.564 249.023 17.5442 58.6917 771.806 32.1502 84.1397 18.2491 244.188 52.8369 102.238
internal_count=33877 29546 28701 27314 1387 4331 26980 8820 3225 845 2110 1115 4083 668 3964 772 370 719 248 597 1740 103 334 3926 195 558 119 1712 295 529
shrinkage=0.05


Tree=3
num_leaves=31
num_cat=0
split_feature=7 14 12 14 18 3 3 3 14 27 17 4 12 13 27 17 44 14 17 43 14 38 15 7 15 15 16 7 13 12
split_gain=7767.02 1861.44 1727.36 804.492 699.906 472.924 347.466 235.417 335.219 234.499 157.334 145.945 113.872 109.143 104.835 163.887 95.0406 73.2479 67.7282 205.913 59.5373 57.4305 52.225 50.0699 48.9644 47.4182 41.8399 38.4878 37.4683 35.133
threshold=4722.5000000000009 131.00000000000003 1.0000000180025095e-35 168.00000000000003 18954.000000000004 799.50000000000011 1635.5000000000002 1805.5000000000002 406.00000000000006 1.7156334231805932 58.000000000000007 13.500000000000002 111.00000000000001 13.500000000000002 1.1530100334448161 4.5000000000000009 57.435561703092993 28.500000000000004 15.500000000000002 42.125000000000007 406.00000000000006 6.5000000000000009 60.500000000000007 8904.5000000000018 137.50000000000003 58.500000000000007 23.500000000000004 15417.500000000002 40.500000000000007 40.500000000000007
decision_type=10 8 10 10 10 2 2 2 8 2 8 2 10 10 2 10 2 10 10 2 10 2 10 10 8 10 8 8 10 10
left_child=9 4 3 -3 -2 22 17 8 10 -1 -7 20 21 14 15 23 25 27 -9 26 -5 -8 -4 -10 -12 -17 -20 -6 -19 -23
right_child=1 2 5 11 6 7 12 18 13 -11 24 -13 -14 -15 -16 16 -18 28 19 -21 -22 29 -24 -25 -26 -27 -28 -29 -30 -31
leaf_value=0.15952454994102527 0.15425114360852743 0.15614928544145598 0.10950357690937379 0.11455912528164987 -0.02284557366498308 0.14462926599777068 -0.034329452488288031 -0.055592473543194722 0.10181640881389067 -0.045903849879722326 -0.022438927102439735 -0.036066781637017369 0.13608887227177277 -0.057122399269719473 -0.046254296961822115 0.13181436239980404 0.00059959176809177943 0.14531963083971589 0.012095228931317894 -0.046991706033075314 0.010338812728825442 0.1144649468063233 -0.039663038434936598 -0.029712749955918952 0.076773184664057317 -0.038931053366424259 0.174059811526484 0.10079239351444634 0.019459561456202378 -0.040595553003158244
leaf_weight=676.69658449292183 164.24105176329613 156.61623984575272 52.547472059726715 26.156362757086754 14.892452463507654 36.21402733027935 159.11993663012981 2717.6473562568426 5.662897676229476 13.373889863491057 35.710121750831604 107.19862154126167 9.610654801130293 307.11536476016045 177.15851376950741 36.679987877607346 31.605047643184662 56.192042887210846 5.91740454733372 87.871485769748688 27.547229737043381 9.2328430861234647 5.5637263655662528 152.20348535478115 16.605912804603577 3.6578700244426718 12.618186250329016 8.237972289323805 7.3322785198688498 4.1765065491199485
leaf_count=3217 779 754 287 141 96 192 1106 19669 33 95 240 741 48 2187 1255 225 217 288 43 634 175 52 35 1063 92 26 68 43 46 30
internal_value=0 -0.02467 -0.035332 0.076241 0.0735821 -0.0449824 0.0235159 -0.0472662 -0.0232886 0.155422 0.0674818 -0.00250083 -0.0158361 -0.034699 -0.0175808 0.00473173 0.0662465 0.104721 -0.0540594 -0.0146025 0.06339 -0.0257615 0.0943775 -0.0237799 0.0107199 0.115223 0.128567 0.0257056 0.13183 0.0671688
internal_weight=0 4435.33 4002.3 317.518 433.036 3684.78 268.795 3626.67 802.613 690.07 88.5301 160.902 182.14 714.083 406.968 229.809 71.9429 86.6547 2824.05 106.407 53.7036 172.529 58.1112 157.866 52.316 40.3379 18.5356 23.1304 63.5243 13.4093
internal_count=33877 30565 28077 1811 2488 26266 1709 25944 5530 3312 524 1057 1236 5006 2819 1564 468 473 20414 745 316 1188 322 1096 332 251 111 139 334 82
shrinkage=0.05


Tree=4
num_leaves=31
num_cat=0
split_feature=7 14 12 14 18 3 3 19 1 15 27 3 13 4 14 12 7 9 16 27 25 14 40 14 15 25 15 7 19 44
split_gain=6688.67 1688.64 1578.27 664.608 573.643 430.028 299.995 243.757 391.33 204.913 191.787 140.663 145.3 131.237 118.045 101.086 76.5691 71.011 66.7996 102.235 81.9484 58.6292 52.481 49.813 45.9344 43.6618 39.6051 38.2483 39.3281 35.1408
threshold=4722.5000000000009 131.00000000000003 1.0000000180025095e-35 168.00000000000003 18954.000000000004 799.50000000000011 1635.5000000000002 365.00000000000006 1285.5000000000002 34.500000000000007 1.7156334231805932 1822.5000000000002 25.500000000000004 13.500000000000002 406.00000000000006 111.00000000000001 8904.5000000000018 336.00000000000006 4.5000000000000009 1.1582156611039796 146.33974358974362 28.500000000000004 74.861121343776489 406.00000000000006 58.500000000000007 67.055072463768127 58.500000000000007 15417.500000000002 286.00000000000006 65.622976152357765
decision_type=10 8 10 10 10 2 2 8 2 8 2 2 10 2 8 10 10 8 10 2 2 10 2 10 8 2 10 10 8 2
left_child=10 4 3 -3 -2 24 21 8 9 -7 -1 12 14 23 -9 25 17 -16 -18 20 -20 -6 26 -5 -4 -8 29 -27 -29 -22
right_child=1 2 5 13 6 7 15 11 -10 -11 -12 -13 -14 -15 16 -17 18 -19 19 -21 22 -23 -24 -25 -26 27 -28 28 -30 -31
leaf_value=0.14286032424433068 0.1386203676302665 0.14000288009493556 0.11178017945179108 0.10388620200070575 0.024524711053448205 -0.043576883134676545 0.047884107712772891 0.079691803660263918 -0.058145289152496352 0.13799963951855415 -0.045120069680088554 -0.054805108233442194 -0.056863339373653482 -0.035112146486147265 0.15531569656319211 0.12439630099051505 -0.040060655090107727 -0.0448385135451215 -0.006811157956072008 -0.042463099586205269 0.15282174155252595 0.11875119590520532 -0.030022496066324952 0.0098000243514071855 0.013501101136654932 -0.045309345257243588 -0.029333165324061706 0.11905580940501106 -0.01295615154620227 -0.010833431127037066
leaf_weight=716.93470916152 173.58272069692612 165.91089043021202 43.929919257760048 27.567693248391151 23.29815848171711 19.784225285053253 16.724690362811089 31.054368793964386 90.980665430426598 58.872041016817093 12.970909029245375 2617.0489130169153 292.2445335239172 104.72546169161797 9.7910915315151179 10.161037296056746 231.40808878839016 5.9328736066818246 46.166002213954926 68.391028106212616 25.27663649618626 67.132819682359695 6.702282950282096 27.71419683098793 16.855079218745232 124.03044110536575 3.5021866410970679 5.3108626306056976 23.369721189141277 3.439477175474166
leaf_count=3217 779 754 222 141 139 141 107 183 660 287 95 19696 2149 741 51 48 1671 43 316 501 152 334 45 175 100 893 25 26 162 24
internal_value=0 -0.0239869 -0.0345147 0.0705161 0.0682438 -0.0441337 0.0223168 -0.0464316 0.0119126 0.0923801 0.139406 -0.0493993 -0.0297594 -0.00237326 -0.0112319 -0.0151944 -0.018641 0.083257 -0.0232128 0.00237839 0.0385686 0.0955311 0.0900983 0.0587075 0.0858265 -0.0249192 0.115381 -0.0334084 0.0176563 0.133791
internal_weight=0 4340.91 3897.3 325.918 443.61 3571.38 270.028 3510.59 169.637 78.6563 729.906 3340.96 723.909 160.007 431.664 179.597 400.61 15.724 384.886 153.478 85.0866 90.431 38.9206 55.2819 60.785 169.436 32.2183 152.711 28.6806 28.7161
internal_count=33877 30565 28077 1811 2488 26266 1709 25944 1088 428 3312 24856 5160 1057 3011 1236 2828 94 2734 1063 562 473 246 316 322 1188 201 1081 188 176
shrinkage=0.05


Tree=5
num_leaves=31
num_cat=0
split_feature=28 7 19 1 4 7 0 12 12 7 4 27 27 12 27 12 14 14 0 0 0 0 9 17 0 2 27 7 0 0
split_gain=7008.87 1462.44 803.46 404.523 337.73 602.546 265.58 198.095 176.151 176.351 149.661 130.728 127.791 126.984 108.778 96.3823 124.693 90.3678 79.2944 78.6417 86.1987 68.1735 65.513 68.7713 57.3751 49.5522 42.2921 39.8851 51.8947 159.984
threshold=1.0500000000000003 4722.5000000000009 394.50000000000006 1285.5000000000002 12.500000000000002 8904.5000000000018 48725.000000000007 1.0000000180025095e-35 13.500000000000002 15417.500000000002 5.5000000000000009 1.7156334231805932 1.1541289592760182 242.50000000000003 1.4174242424242427 1.0000000180025095e-35 1.0000000180025095e-35 2869.5000000000005 1452.0000000000002 52625.500000000007 48725.000000000007 56910.500000000007 46.000000000000007 6.5000000000000009 49162.500000000007 976.50000000000011 0.99849187935034822 15417.500000000002 53005.500000000007 49162.500000000007
decision_type=8 10 8 2 2 10 2 10 10 10 2 2 2 10 2 10 10 10 2 2 2 2 8 10 2 2 2 10 2 2
left_child=6 11 3 12 5 13 18 -5 9 -7 26 -2 24 21 17 16 -6 25 -1 20 -11 -4 23 -17 -3 -8 -10 -12 29 -29
right_child=1 2 4 7 15 8 14 -9 10 19 27 -13 -14 -15 -16 22 -18 -19 -20 -21 -22 -23 -24 -25 -26 -27 -28 28 -30 -31
leaf_value=0.102075277607245 0.11881185198595511 -0.041135318178166159 0.13341807921484528 0.10924312584043812 0.10027272974223465 -0.056516302770970209 0.010633420093648621 -0.05703843427637937 -0.043908420237164208 -0.048284779531596961 -0.058807119717839668 -0.046994545198363741 -0.032682285366143843 -0.050275527015436819 -0.016602260268368908 -0.027092383159857798 -0.030437528207045973 -0.047166796545888477 -0.05520823592320992 -0.016463069584658093 0.12007110631267758 -0.02454734467375325 -0.055019041224243642 0.12085247604448955 0.13088065579235644 0.12961739894644761 0.099903210259884814 -0.058324695263399555 -0.051480070331597939 0.015481009442968369
leaf_weight=9.0881136804819089 171.4114640802145 4.1800924837589255 78.449183508753777 20.790149956941605 19.403915837407112 40.685491859912872 9.2127280980348569 82.427669003605843 5.2101637125015285 7.7510929256677619 255.81012852489948 11.731811478734015 13.627614036202429 11.323325380682943 12.914649963378904 28.930933877825737 122.3503625690937 6.4482869803905478 27.051567494869232 19.548760205507278 51.533224567770958 6.8431779444217673 2398.0870201736689 8.5479934215545637 118.05111427605152 906.56349802017212 22.700515314936638 139.12984298169613 242.30596402287483 151.68150019645691
leaf_count=42 756 29 377 94 90 289 57 614 37 54 1951 89 102 87 88 210 879 42 206 131 260 47 18754 47 548 3896 111 1066 1838 1086
internal_value=0 -0.0295143 -0.0360998 0.0523545 -0.0419831 -0.017781 0.119973 -0.0221061 -0.0301051 0.0262493 -0.0383948 0.107798 0.108425 0.0998468 0.125103 -0.0516618 -0.0113992 0.127119 -0.0123772 0.0693059 0.0972021 0.120472 -0.0539939 0.0110631 0.12443 0.128446 0.0719166 -0.0424693 -0.0344394 -0.0199863
internal_weight=0 4032.51 3849.37 239.077 3610.29 1032.97 971.279 103.218 936.357 119.519 816.838 183.143 135.859 96.6157 935.139 2577.32 141.754 922.225 36.1397 78.8331 59.2843 85.2924 2435.57 37.4789 122.231 915.776 27.9107 788.927 533.117 290.811
internal_count=33877 29546 28701 1387 27314 7334 4331 708 6823 734 6089 845 679 511 4083 19980 969 3995 248 445 314 424 19011 257 577 3953 148 5941 3990 2152
shrinkage=0.05


Tree=6
num_leaves=31
num_cat=0
split_feature=7 14 12 14 9 3 14 3 7 26 27 4 17 19 13 23 17 19 26 44 27 7 27 9 16 14 38 19 13 11
split_gain=5181.81 1413.7 1335.01 487.969 374.265 373.082 275.854 228.938 183.797 150.855 138.197 109.271 98.3729 123.094 90.9276 93.2528 124.29 73.6493 95.4967 61.3429 54.2994 48.7919 48.592 47.9194 42.2913 38.3686 35.7433 35.0951 34.2579 33.0949
threshold=4722.5000000000009 131.00000000000003 1.0000000180025095e-35 168.00000000000003 13907.500000000002 1669.5000000000002 406.00000000000006 799.50000000000011 8904.5000000000018 0.37219754393670934 1.7156334231805932 13.500000000000002 3.5000000000000004 19325.000000000004 15.500000000000002 1448.5000000000002 4.5000000000000009 286.00000000000006 2.2133717641688557 56.124303960401903 0.92912946428571441 8904.5000000000018 1.1530100334448161 38.000000000000007 10.500000000000002 379.00000000000006 6.5000000000000009 198.50000000000003 45.500000000000007 53.000000000000007
decision_type=10 8 10 10 10 2 8 2 10 2 2 2 10 10 10 10 10 8 2 2 2 10 2 10 10 10 2 10 10 8
left_child=10 4 3 -3 8 6 20 28 9 -2 29 25 13 -6 15 -9 21 18 27 -18 -4 -17 -20 -11 -21 -5 -23 -7 -8 -1
right_child=1 2 5 11 12 17 7 14 -10 23 -12 -13 -14 -15 -16 16 19 -19 22 24 -22 26 -24 -25 -26 -27 -28 -29 -30 -31
leaf_value=0.07266917110765729 0.094967526552816817 0.11788671142795067 0.095022402696349748 0.090064662305364585 0.11815594979107716 -0.045078346649491924 0.089651212038708225 -0.047922544785977544 -0.058756680830288101 0.074333638661286117 -0.043591657256322559 -0.033642249713626449 0.11666316332786127 -0.0015866958594195836 -0.05531114548163768 0.093111929892147852 0.10519761771191993 -0.052721667140370493 0.12072706776206701 0.071087985468550802 -0.00012452286352645692 -0.032147844589677475 -0.04190557882690684 -0.044082019002252615 -0.041560082969308569 0.0089009208961609142 0.095171047726652636 0.089441958324761123 -0.02069954181289901 0.12276117413379838
leaf_weight=45.315545216202736 61.210816204547882 178.23588202893734 64.851361066102982 28.998946964740753 35.841964334249496 62.198998004198074 47.009226858615875 126.60286784917116 69.505397193133831 8.7806920707225782 12.19084447622299 100.66551260650158 189.93884952366352 49.464257434010506 230.72777802497149 7.0435998588800421 35.251227900385857 2562.1586030349135 16.173871159553531 12.874670758843424 19.324235662817955 131.20361512154341 5.0132206082344046 40.607099652290344 16.996367648243904 28.37645035982132 3.8483479171991339 3.4046908020973197 7.4335103780031195 724.74341677129269
leaf_count=195 315 754 320 139 155 473 233 967 513 46 95 741 824 327 1835 36 196 20700 73 88 119 985 40 308 119 177 24 15 43 3022
internal_value=0 -0.022799 -0.0330657 0.0616531 0.0601433 -0.0425988 -0.0101878 -0.0217939 0.00397968 0.0437495 0.117355 -0.00244694 0.0965997 0.0502781 -0.0312988 -0.0144716 0.00622849 -0.0511881 -0.00574827 0.0623736 0.0736835 -0.0200114 0.0819501 -0.0209552 0.00840637 0.051575 -0.027184 -0.0356575 0.0743845 0.120009
internal_weight=0 4143.74 3688.39 336.277 455.349 3352.12 703.167 618.991 180.104 110.599 782.25 158.041 275.245 85.3062 564.548 333.821 207.218 2648.95 86.7908 65.1223 84.1756 142.096 21.1871 49.3878 29.871 57.3754 135.052 65.6037 54.4427 770.059
internal_count=33877 30565 28077 1811 2488 26266 4965 4526 1182 669 3312 1057 1306 482 4250 2415 1448 21301 601 403 439 1045 113 354 207 316 1009 488 276 3217
shrinkage=0.05


Tree=7
num_leaves=31
num_cat=0
split_feature=28 3 14 9 12 14 17 3 15 0 0 15 25 19 19 14 27 44 9 17 0 0 0 0 0 26 23 24 4 14
split_gain=5600.66 879.381 829.425 307.156 274.966 298.762 282.814 202.489 198.236 188.238 158.511 143.435 120.079 116.595 106.031 96.5872 92.9458 68.3334 66.6057 125.088 58.5948 57.9891 57.5181 141.815 122.363 63.3233 79.8976 56.9141 51.0937 40.2499
threshold=1.0500000000000003 1822.5000000000002 406.00000000000006 126.00000000000001 5.5000000000000009 6.5000000000000009 15.500000000000002 799.50000000000011 74.500000000000014 48725.000000000007 53005.500000000007 71.500000000000014 92.382783882783897 111.50000000000001 286.00000000000006 2869.5000000000005 2.1213235294117649 69.045048699735091 222.50000000000003 6.5000000000000009 52172.500000000007 49298.500000000007 53079.500000000007 49162.500000000007 49658.500000000007 0.42540177026158338 1666.5000000000002 83.759615384615401 13.500000000000002 379.00000000000006
decision_type=8 2 8 10 10 10 10 2 10 2 2 8 2 10 8 10 2 2 8 10 2 2 2 2 2 2 10 2 2 10
left_child=8 2 9 -4 5 20 18 21 15 -2 -11 17 -12 -13 -7 16 27 -8 19 -6 -3 -5 23 -9 -25 -26 -27 -1 29 -16
right_child=1 4 3 7 6 14 11 22 -10 10 12 13 -14 -15 28 -17 -18 -19 -20 -21 -22 -23 -24 24 25 26 -28 -29 -30 -31
leaf_value=-0.016863842049682522 -0.056656903199494284 0.10957644450644553 0.088110941421989081 -0.049699995919759717 -0.040358072128333145 0.099317924975655877 0.10684599092357983 -0.056420670208466417 -0.054374528695223058 0.11166765211674348 0.098103713620925209 0.10224427645902674 -0.030060616998015717 -0.048092827903673765 0.085236458657072023 -0.048874770083539597 -0.047818018964190273 -0.04582506297516914 -0.054695252992929468 0.079431290998956086 -0.042649091822174391 0.090536822624674676 -0.050754702305336109 0.088343470628240411 -0.037300961500779738 -0.03576972180383161 0.082175614573156919 0.1109098214309386 -0.041547735769341843 -0.029931073908526729
leaf_weight=8.2968694269657117 22.236640460789204 59.514975100755692 60.746979482471943 7.5215734243392935 122.22643968462944 14.343976207077501 45.510944277048111 147.88503475487232 18.293793395161629 214.55292838066816 29.804171726107597 13.954599559307097 41.36966796964407 66.256215371191502 13.587551668286325 8.8063679784536344 8.4065675064921361 7.5021681264042845 2190.9078702628613 24.5069490224123 5.9942620843648902 41.937604114413261 305.42889552563429 36.622870184481144 89.5855712890625 24.36130914837122 30.147246196866035 969.98464357852936 198.7415829449892 13.275919415056704
leaf_count=54 152 259 292 47 946 71 239 1205 140 944 136 64 265 543 74 65 65 63 18455 131 38 200 2451 229 698 186 204 4007 1557 97
internal_value=0 -0.028198 0.0107125 -0.0178656 -0.0429418 0.00180167 -0.0484702 -0.0275142 0.10386 0.0794454 0.0903578 0.0221081 0.0248229 -0.020087 -0.0241609 0.106871 0.108357 0.0843602 -0.0525079 -0.0195522 0.0947966 0.0681074 -0.0351641 -0.0204535 0.00927462 -0.0117558 0.0300624 0.109794 -0.0328154 0.0301905
internal_weight=0 3828.52 1052.2 744.237 2776.32 305.458 2470.87 683.49 1013.79 307.963 285.727 133.224 71.1738 80.2108 239.949 995.494 986.688 53.0131 2337.64 146.733 65.5092 49.4592 634.031 328.602 180.717 144.094 54.5086 978.282 225.605 26.8635
internal_count=33877 29546 7009 5512 22537 2096 20441 5220 4331 1497 1345 909 401 607 1799 4191 4126 302 19532 1077 297 247 4973 2522 1317 1088 390 4061 1728 171
shrinkage=0.05


Tree=8
num_leaves=31
num_cat=0
split_feature=28 7 19 4 7 1 0 12 15 10 12 7 4 12 0 0 22 0 24 9 0 0 15 0 17 7 0 0 15 17
split_gain=5038.48 1103.98 659.245 309.918 464.771 299.115 178.785 152.115 148.204 146.077 139.746 141.378 119.378 88.4521 108.419 156.701 87.9178 63.1253 62.1693 61.2054 56.5663 61.8676 53.0037 152.311 51.9404 40.8398 50.4336 147.148 90.763 71.6632
threshold=1.0500000000000003 4722.5000000000009 394.50000000000006 12.500000000000002 8904.5000000000018 1285.5000000000002 48725.000000000007 1.0000000180025095e-35 34.500000000000007 889.00000000000011 13.500000000000002 15417.500000000002 5.5000000000000009 1.0000000180025095e-35 49824.500000000007 49162.500000000007 1508.0000000000002 1452.0000000000002 603.25000000000011 46.000000000000007 52903.500000000007 48725.000000000007 6.5000000000000009 50581.500000000007 6.5000000000000009 15417.500000000002 53005.500000000007 49162.500000000007 77.500000000000014 33.500000000000007
decision_type=8 10 8 2 10 2 2 10 8 10 10 10 2 10 2 2 10 2 2 8 2 2 10 2 10 10 2 2 10 8
left_child=6 16 5 4 9 8 17 -7 -3 -4 11 -6 -12 14 15 -5 18 -1 -2 24 21 -13 -8 -24 -15 -14 27 -27 29 -29
right_child=1 2 3 13 10 7 22 -9 -10 -11 12 20 25 19 -16 -17 -18 -19 -20 -21 -22 -23 23 -25 -26 26 -28 28 -30 -31
leaf_value=0.084154421624869843 -0.024256392287335768 -0.031119699243822498 0.11053841137669179 -0.051366151191014925 -0.05585388786202871 0.087999503310265334 0.1053203420844373 -0.055694510809374945 0.11175610737069777 -0.043438446246375891 0.060025763494501838 -0.047278701608748419 -0.057531370856241507 -0.024696784034839485 -0.048894404615913351 0.10827798900062482 0.10566798544306488 -0.054275035018437161 0.093761362926542843 -0.053293254396232892 -0.018513113144581112 0.096280994729481179 0.10129158249764009 -0.036983694280972187 0.10085059062429645 -0.056958182982760223 -0.049513766439408489 0.076704010461494096 -0.055355657900988391 -0.00086604905860384641
leaf_weight=9.8536912947893125 26.387150324881077 20.355601087212563 84.673743441700935 25.507947698235512 38.520851567387581 22.28192450106144 893.71885967254639 75.033743269741535 122.62126535177231 17.597151674330235 29.357322379946709 7.3664813190698615 229.8077338039875 27.335435263812542 77.356959894299507 33.463028311729431 151.3126574754715 25.156769812107086 16.592746391892433 2142.5159574002028 18.229942761361599 57.573018088936806 70.676137112081051 26.232200793921947 9.4841673672199232 124.52919469773769 219.25676533579826 55.639100037515163 32.690124750137329 61.499489858746529
leaf_count=42 156 152 374 199 289 94 3631 614 527 137 148 54 1951 210 602 168 620 206 69 18754 124 267 294 158 47 1066 1838 371 260 455
internal_value=0 -0.0275572 -0.0339535 -0.0397927 -0.0161285 0.0457213 0.0974841 -0.021684 0.0912662 0.0837195 -0.0279703 0.0214661 -0.0359976 -0.0497517 -0.0105056 0.039804 0.0879043 -0.0128719 0.0234485 -0.0521949 0.0577484 0.0790701 0.101402 0.0638708 0.011172 -0.0400491 -0.0317107 -0.0172277 0.0161093 0.0366477
internal_weight=0 3726.99 3532.7 3292.4 976.741 240.293 1025.64 97.3157 142.977 102.271 874.47 121.69 752.78 2315.66 136.328 58.971 194.293 35.0105 42.9799 2179.34 83.1694 64.9395 990.627 96.9083 36.8196 723.422 493.615 274.358 149.829 117.139
internal_count=33877 29546 28701 27314 7334 1387 4331 708 679 511 6823 734 6089 19980 969 367 845 248 225 19011 445 321 4083 452 257 5941 3990 2152 1086 826
shrinkage=0.05


Tree=9
num_leaves=31
num_cat=0
split_feature=28 7 19 3 1 12 22 15 12 15 16 15 14 27 14 14 7 14 27 17 27 3 14 38 24 17 23 15 22 17
split_gain=4561.16 1009.2 612.88 387.852 264.393 201.959 166.519 156.822 140.489 129.767 122.423 214.717 105.564 80.5922 78.9694 77.9296 90.1601 76.2018 75.9534 59.3385 52.1687 50.7871 52.9088 46.7247 46.3843 37.9943 48.8776 39.3372 33.9821 27.2759
threshold=1.0500000000000003 4722.5000000000009 394.50000000000006 799.50000000000011 1285.5000000000002 13.500000000000002 1797.0000000000002 74.500000000000014 1.0000000180025095e-35 34.500000000000007 16.500000000000004 71.500000000000014 1.0000000180025095e-35 1.7156334231805932 2869.5000000000005 379.00000000000006 8904.5000000000018 168.00000000000003 1.4174242424242427 6.5000000000000009 0.96174749163879614 1785.5000000000002 406.00000000000006 5.5000000000000009 83.759615384615401 11.500000000000002 1278.5000000000002 67.000000000000014 1951.5000000000002 4.5000000000000009
decision_type=8 10 8 2 2 10 10 10 10 8 10 8 10 2 10 10 10 10 2 10 2 2 10 2 2 8 10 10 10 10
left_child=7 13 4 28 9 6 12 14 -6 -3 21 17 -5 -2 18 -8 -17 -12 24 -14 -21 22 25 -18 -1 26 -7 29 -4 -28
right_child=1 2 3 5 8 10 15 -9 -10 -11 11 -13 19 -15 -16 16 23 -19 -20 20 -22 -23 -24 -25 -26 -27 27 -29 -30 -31
leaf_value=-0.022530963831667652 0.090453690079051838 -0.030270653069817934 0.089136039441488554 0.074123224904507221 0.083080974384475106 -0.03987631532338444 0.065258510825510901 -0.05318553664141859 -0.055137802132720994 0.10430883413891448 0.093138056648712095 -0.051711511810596272 -0.043254960755245819 -0.044772593183045252 -0.048197583937843139 0.10588605018532973 -0.048497846648818718 -0.039630097543464603 -0.019038301231718013 0.11532660049295547 -0.045852824028974518 -0.053822183857057372 -0.053508804487518616 0.067823736951159216 0.098504245232598056 -0.036293261099275477 0.0072615794913383717 -0.050504729911688723 -0.0004066380897911685 0.074182092984725778
leaf_weight=7.2995795682072631 185.55991074442863 19.946834802627563 59.805586323142052 20.411807119846344 22.53242701292038 43.082315154373646 77.123718053102493 17.060503914952278 72.096399538218975 124.88633577525616 49.942278146743774 94.189283013343811 319.11716170608997 10.547347158193586 8.4679648056626302 12.75769270211458 53.869284652173519 12.426546186208723 13.556119613349436 9.7037301734089869 7.3075193613767615 1946.9627920910716 227.03269289433956 8.4063724130392057 984.67266543954611 160.86570376902819 29.438494078814983 12.081356965005396 12.766165882349013 30.64308638125658
leaf_count=48 756 152 261 87 94 352 401 140 614 527 283 828 2719 89 65 61 421 109 97 62 61 17749 2026 53 3981 1276 218 96 73 178
internal_value=0 -0.026971 -0.0332966 -0.0390951 0.0435832 -0.0417706 -0.0128908 0.0921222 -0.0211876 0.0856143 -0.0473923 -0.00446534 -0.0315326 0.0828022 0.0946669 0.0306336 -0.00572618 0.0662755 0.0959633 -0.0383491 0.0485489 -0.0501294 -0.0356834 -0.0311742 0.09757 -0.0207471 0.00120204 0.0261404 0.073796 0.042683
internal_weight=0 3623.5 3427.4 3187.93 239.462 3115.36 508.697 1031.06 94.6288 144.833 2606.66 156.558 356.54 196.107 1014 152.157 75.0333 62.3688 1005.53 336.128 17.0112 2450.11 503.144 62.2757 991.972 276.111 115.245 72.1629 72.5718 60.0816
internal_count=33877 29546 28701 27314 1387 26980 3865 4331 708 679 23115 1220 2929 845 4191 936 535 392 4126 2842 123 21895 4146 474 4029 2120 844 492 334 396
shrinkage=0.05


Tree=10
num_leaves=31
num_cat=0
split_feature=7 12 17 14 27 7 4 36 0 0 0 9 15 33 44 4 7 27 15 0 0 0 2 0 38 27 0 36 14 12
split_gain=3440.56 1043.29 729.73 674.46 393.872 235.657 175.551 137.222 126.521 235.818 125.659 116.569 115.979 96.6437 118.923 91.4733 102.484 87.3467 86.8713 75.2238 84.8458 71.5603 101.452 53.1512 50.121 36.7684 35.0259 34.2467 32.3096 51.0597
threshold=4722.5000000000009 14.500000000000002 15.500000000000002 379.00000000000006 1.0314144736842108 8904.5000000000018 9.5000000000000018 -0.011426488868892191 52322.500000000007 49162.500000000007 48725.000000000007 55.500000000000007 26.500000000000004 0.32739458978176122 71.597616929283177 12.500000000000002 8904.5000000000018 1.7156334231805932 78.500000000000014 50190.500000000007 48725.000000000007 50373.500000000007 15250.000000000002 50113.500000000007 5.5000000000000009 0.99849187935034822 49198.500000000007 0.012103807181119921 196.00000000000003 96.500000000000014
decision_type=10 10 10 10 2 10 2 2 2 2 2 10 8 2 2 2 10 2 10 2 2 2 2 2 2 2 2 2 8 10
left_child=17 3 6 4 10 -4 8 13 9 -3 -2 26 27 14 -7 16 -5 -1 23 20 -6 -12 25 -11 -18 -23 -8 -9 29 -13
right_child=1 2 5 15 19 7 11 12 -10 18 21 28 -14 -15 -16 -17 24 -19 -20 -21 -22 22 -24 -25 -26 -27 -28 -29 -30 -31
leaf_value=0.094482730612629101 -0.054136696650042671 -0.055826296411164357 0.099891767863434872 0.10436014075825917 -0.053597154619330158 0.11811078794515695 -0.044481939234604667 -0.043392476587917443 -0.044315660988786337 0.1016690903561049 0.10436580145347987 -0.04050243030448572 -0.053831974563814902 -0.0288658925344654 -0.049080491036999511 -0.045732717843517443 -0.036998221201120278 -0.041226279122179646 -0.051671653461666682 -0.050540203462434131 0.076489851278161658 0.084237809190417595 -0.030808273116073287 0.031943026933752047 0.076759006357330836 -0.012597851012033348 0.079627545981882084 0.096454511684043245 -0.052385472376222986 0.040150705279510139
leaf_weight=801.57180497050285 14.954671971499918 74.29713524132967 99.654945760965347 21.178638502955437 18.365549176931381 50.688106596469879 6.1025569885969189 4.3219824731349972 166.21052742749453 59.923226542770863 255.60147698968649 101.87972367554903 92.671206004917622 24.791741199791431 12.128724403679369 241.93773318827152 54.417165443301201 10.9914463609457 15.375795900821684 72.813886269927025 31.210672222077847 126.5833401158452 24.765749074518681 53.633210211992264 9.7591198012232763 10.088420100510119 21.064106144011021 18.283822290599346 2036.5980531349778 22.49394703656435
leaf_count=3217 113 658 401 91 151 229 49 28 1415 308 1069 858 826 208 111 2138 404 95 130 600 164 566 185 335 52 64 106 84 19085 137
internal_value=0 -0.0208386 -0.0354922 0.0266698 0.0601909 0.0377504 -0.044179 0.00655011 -0.0122195 0.0142063 0.0825395 -0.0495588 -0.0291123 0.0530778 0.085311 -0.0301304 0.0141287 0.0925503 0.0547988 -0.0187504 0.0280894 0.0876755 0.0602963 0.06986 -0.0179024 0.0770113 0.0506099 0.0683635 -0.0508638 -0.0255111
internal_weight=0 3741.8 2860.12 881.676 554.384 302.541 2557.58 202.886 369.44 203.229 431.994 2188.14 115.277 87.6086 62.8168 327.293 85.3549 812.563 128.932 122.39 49.5762 417.039 161.438 113.556 64.1763 136.672 27.1667 22.6058 2160.97 124.374
internal_count=33877 30565 24968 5597 2912 1887 23081 1486 2846 1431 1997 20235 938 548 340 2685 547 3312 773 915 315 1884 815 643 456 630 155 112 20080 995
shrinkage=0.05


Tree=11
num_leaves=31
num_cat=0
split_feature=28 7 19 3 27 12 4 15 17 7 14 45 22 14 16 27 16 7 7 24 11 12 14 17 2 4 39 15 34 37
split_gain=3799.75 840.604 537.569 340.164 219.92 187.311 153.303 127.67 115.356 247.099 93.6689 77.2762 70.2697 64.6915 64.1358 63.2911 62.5613 59.8527 117.166 50.8592 49.2643 51.2594 47.8234 42.2263 42.1241 39.4851 33.9892 29.0088 29.0028 27.291
threshold=1.0500000000000003 4722.5000000000009 394.50000000000006 799.50000000000011 0.99849187935034822 13.500000000000002 13.500000000000002 74.500000000000014 7.5000000000000009 8904.5000000000018 1.0000000180025095e-35 68.500000000000014 1508.0000000000002 2869.5000000000005 16.500000000000004 2.1213235294117649 55.500000000000007 8904.5000000000018 15417.500000000002 603.25000000000011 640.50000000000011 173.50000000000003 379.00000000000006 6.5000000000000009 729.50000000000011 11.500000000000002 68.125000000000014 60.500000000000007 -0.20655737817287442 1.5000000000000002
decision_type=8 10 8 2 2 10 2 10 10 10 10 2 10 10 10 2 10 10 10 2 8 10 10 10 2 2 2 10 2 2
left_child=7 12 4 27 20 6 17 13 25 -10 -8 14 19 15 -11 24 -6 -5 -19 -2 -3 -22 -20 -12 -1 -7 -25 -4 -18 -24
right_child=1 2 3 5 16 8 10 -9 9 11 23 -13 -14 -15 -16 -17 28 18 22 -21 21 -23 29 26 -26 -27 -28 -29 -30 -31
leaf_value=-0.023689898058534345 -0.027110272826100582 -0.020825206130254671 0.075374920212803745 0.085532299796581682 -0.042782333421639535 -0.036596474642327841 0.068779647416924508 -0.051951553124977151 0.095546564446016946 -0.041014409470051992 -0.042669935788193732 -0.040589954409576356 0.089370543459657725 -0.046917961077857749 0.16873375543074093 -0.046224673933290612 -0.040028071511783732 -0.055177048965969547 0.070403956177235646 0.07878571900492802 0.09587484693672875 -0.0091578916012063603 -0.032691330885227562 0.14081112888567493 0.089122401379227223 -0.05387649223438138 -0.01222629992192135 -0.038556836718515515 0.087635515543579817 0.065955564708496908
leaf_weight=7.5873648673295966 26.108419552445412 10.917202696204184 68.914692983031273 32.698228612542152 70.146758452057838 436.33900115638971 19.863811701536179 15.827539399266241 39.930085025727749 5.2934461310505849 295.81549870967865 262.20544497668743 154.3602531850338 7.9234445169568053 6.4303410649299622 7.6852464303374282 4.7605613395571718 42.498956866562366 57.153846301138401 17.134988680481911 122.39786890149117 12.446681216359137 23.438510656356815 3.7100583016872397 986.85716517269611 1675.9375682622194 9.1780297905206663 4.8681085780262938 14.437913924455643 7.6912707090377799
leaf_count=51 156 73 304 156 616 3890 83 140 186 52 2687 2428 620 65 37 65 45 351 269 69 499 96 173 21 4010 16522 79 30 58 46
internal_value=0 -0.0258795 -0.0320217 -0.0377456 0.0405245 -0.040439 -0.0122496 0.0837283 -0.0461414 -0.0177119 -0.0318743 -0.0347942 0.0737438 0.0859529 0.081854 0.0870948 -0.0209827 0.0271013 0.0114241 0.0164784 0.0779994 0.0861878 0.0439973 -0.038752 0.0882159 -0.0503449 0.044826 0.0670387 0.0551895 -0.00580823
internal_weight=0 3424.68 3227.07 2991.97 235.107 2918.18 492.048 1025.88 2426.14 313.859 328.567 273.929 197.604 1010.05 11.7238 1002.13 89.3452 163.481 130.783 43.2434 145.762 134.845 88.2836 308.704 994.445 2112.28 12.8881 73.7828 19.1985 31.1298
internal_count=33877 29546 28701 27314 1387 26980 3865 4331 23115 2703 2870 2517 845 4191 89 4126 719 995 839 225 668 595 488 2787 4061 20412 100 334 103 219
shrinkage=0.05


Tree=12
num_leaves=31
num_cat=0
split_feature=28 7 19 3 0 0 13 1 0 0 12 3 15 15 22 25 17 0 0 15 15 0 22 0 15 17 17 24 37 9
split_gain=3474.18 774.15 500.636 314.07 241.025 668.373 271.466 203.728 140.501 122.924 112.872 100.884 96.2944 71.8724 63.1843 65.7769 55.2684 46.4638 41.5401 39.5159 38.5167 112.414 32.4206 50.6672 46.4888 40.8402 30.4521 42.5199 30.8838 26.0562
threshold=1.0500000000000003 4722.5000000000009 394.50000000000006 799.50000000000011 50432.500000000007 49162.500000000007 41.500000000000007 1285.5000000000002 49557.500000000007 48725.000000000007 1.0000000180025095e-35 1919.5000000000002 34.500000000000007 78.500000000000014 1508.0000000000002 156.45993589743594 3.5000000000000004 1452.0000000000002 49162.500000000007 58.500000000000007 6.5000000000000009 50581.500000000007 1951.5000000000002 53005.500000000007 58.500000000000007 25.500000000000004 33.500000000000007 158.09841269841272 3.5000000000000004 231.50000000000003
decision_type=8 10 8 2 2 2 10 2 2 2 10 2 8 10 10 2 10 2 2 8 10 2 10 2 8 8 8 2 2 10
left_child=9 14 7 18 5 -5 8 12 13 17 -9 -10 -3 26 15 -2 -13 -1 -4 -18 -11 -22 -6 24 25 -24 -7 -28 -29 -8
right_child=1 2 3 4 22 6 29 10 11 20 -12 16 -14 -15 -16 -17 19 -19 -20 -21 21 -23 23 -25 -26 -27 27 28 -30 -31
leaf_value=0.065998456671272493 0.075061839387524948 -0.028330188439493448 -0.048355914776386483 -0.055683055283952343 -0.053999833796936361 0.12603799379310865 0.034814395456033785 0.071661286491396387 0.062383068970160396 0.086622159280782207 -0.053915398579989685 -0.035519552926406753 0.090559320558761369 -0.04628826325601048 0.085146290405980263 -0.04341124501641639 0.08435261478206213 -0.053093173954078567 0.074355585024389534 -0.04439242945679691 0.082853612457146411 -0.037515738930649911 0.058088320050194209 -0.048908852166439656 -0.043444095819300685 -0.019272791280357811 -0.023540388251235122 0.099539744501165928 0.029468589651330548 -0.053523440150610516
leaf_weight=10.334529310464857 21.243644088506699 18.697641618549824 6.2838221937417975 557.24820472300053 1438.283738695085 46.252079360187054 7.8376571089029303 22.47448918223381 70.590260542929173 889.4635875672102 65.306852258741856 76.627771057188511 126.02834165096283 8.9935489296913129 154.02283228933811 21.762514986097813 17.95524121075869 22.611919298768044 68.32041984796524 7.0240051150321952 71.027013763785362 25.077061302959919 31.121874824166298 282.12087485939264 53.528591215610504 33.657275386154652 9.4805733859539014 69.933695733547211 22.886423468589783 88.593542747199535
leaf_count=42 86 152 39 5595 14540 260 60 94 405 3631 614 720 527 89 620 139 136 206 295 66 294 158 203 2664 477 276 81 354 165 889
internal_value=0 -0.0253346 -0.0313991 -0.0370683 -0.0397571 -0.0197201 0.0273439 0.0389446 0.0488762 0.080119 -0.0208841 0.0173267 0.0750228 0.0827101 0.070331 0.0158456 -0.0145757 -0.0140977 0.0630271 0.0475432 0.0832907 0.0513204 -0.0504406 -0.0374517 -0.0097717 0.0185204 0.091031 0.0730903 0.0832485 -0.0457821
internal_weight=0 3326.28 3129.25 2896.74 2822.14 983.423 426.175 232.507 329.744 1018.51 87.7813 172.197 144.726 157.546 197.029 43.0062 101.607 32.9464 74.6042 24.9792 985.568 96.1041 1838.71 400.429 118.308 64.7792 148.553 102.301 92.8201 96.4312
internal_count=33877 29546 28701 27314 26980 8820 3225 1387 2276 4331 708 1327 679 949 845 225 922 248 334 202 4083 452 18160 3620 956 479 860 600 519 949
shrinkage=0.05


Tree=13
num_leaves=31
num_cat=0
split_feature=28 7 19 3 0 0 13 1 0 0 19 4 15 15 27 27 0 27 24 0 27 0 3 0 7 7 27 27 15 4
split_gain=3189.02 714.678 466.903 290.686 233.201 628.528 245.197 183.723 122.554 111.001 94.7612 90.0271 86.7341 63.2116 54.1472 50.5374 43.3485 41.776 39.1383 37.493 35.3624 30.5306 27.8497 50.6647 37.4016 27.3041 35.129 37.7441 26.135 25.5093
threshold=1.0500000000000003 4722.5000000000009 394.50000000000006 799.50000000000011 50432.500000000007 49162.500000000007 41.500000000000007 1285.5000000000002 49557.500000000007 48725.000000000007 365.00000000000006 16.500000000000004 34.500000000000007 78.500000000000014 1.7156334231805932 1.2845860342988433 1452.0000000000002 1.9309523809523812 1229.5007763975157 49162.500000000007 1.1530100334448161 49622.500000000007 1858.5000000000002 53079.500000000007 8904.5000000000018 15417.500000000002 1.1530100334448161 1.1056618819776716 78.500000000000014 7.5000000000000009
decision_type=8 10 8 2 2 2 10 2 2 2 10 2 8 10 2 2 2 2 2 2 2 2 2 2 10 10 2 2 10 2
left_child=9 14 7 19 5 -5 8 12 13 16 -9 20 -3 17 -2 -11 -1 -7 -13 -4 28 -17 23 24 -6 -26 27 -27 -10 -21
right_child=1 2 3 4 22 6 -8 10 11 15 -12 18 -14 -15 -16 21 -18 -19 -20 29 -22 -23 -24 -25 25 26 -28 -29 -30 -31
leaf_value=0.063088584466052908 0.073246512705654035 -0.027529658101027716 -0.04754950055953417 -0.055300772826293365 0.066771109430643169 0.090310980025873289 -0.045146579304511401 -0.046096064259454492 0.069436852734722943 0.081550254628908192 0.08225157234053844 -0.047521919569658427 0.086168044474186481 -0.045743050445804373 -0.042562571809410699 0.076693165074204595 -0.052561386134928716 -0.029235216140798926 0.03737999178124482 0.083244854929259982 -0.0052160145027738119 -0.04545037635928037 -0.053317134108596537 -0.049046836868447019 -0.053894638452570878 0.00077338403889273735 -0.04759939266152597 0.10923729308968647 -0.040064013018827255 0.0017329033530595419
leaf_weight=10.362068250775335 186.35933335125446 18.346485175192356 6.1092320159077635 533.65593207627535 12.292303413152693 145.16041120886803 92.978097170591354 68.99762812256813 73.083128646016121 957.13265461474657 16.112419009208679 53.219067819416523 125.93087178468704 8.6775692477822286 9.4141320586204511 5.9510513991117504 21.74097540974617 6.7938851192593566 16.348065838217735 57.461991041898727 25.449536263942719 12.352604106068609 1374.2665181830525 280.84382566064596 35.123397648334503 33.916587240993977 23.011328473687172 8.5168907865881902 4.6116204410791388 11.548687994480131
leaf_count=42 756 152 39 5595 62 800 949 642 422 3964 66 526 527 89 89 25 206 60 135 235 202 94 14552 2708 340 247 199 52 42 60
internal_value=0 -0.0248374 -0.0308264 -0.0364419 -0.0391252 -0.0192294 0.025971 0.0375149 0.0459585 0.0769727 -0.0204676 0.0164111 0.0715314 0.0771355 0.0673035 0.0799796 -0.0137217 0.0846557 -0.0270832 0.0594891 0.0457036 -0.00209519 -0.0498943 -0.0377376 -0.00923163 -0.0196422 -0.000206243 0.0264803 0.062095 0.0700371
internal_weight=0 3228.23 3032.46 2803.07 2727.95 959.977 426.321 229.387 333.343 1007.54 85.11 172.711 144.277 160.632 195.773 975.436 32.103 151.954 69.5671 75.1199 103.144 18.3037 1767.97 393.704 112.861 100.568 65.4448 42.4335 77.6947 69.0107
internal_count=33877 29546 28701 27314 26980 8820 3225 1387 2276 4331 708 1327 679 949 845 4083 248 860 661 334 666 119 18160 3608 900 838 498 299 464 295
shrinkage=0.05


Tree=14
num_leaves=31
num_cat=0
split_feature=28 7 19 3 0 0 1 15 0 12 12 0 0 15 0 17 17 7 22 25 45 14 0 2 10 16 14 15 15 16
split_gain=2932.82 659.652 435.885 278.047 242.658 340.903 166.219 127.825 100.593 100.308 94.3666 95.7991 98.8417 78.5104 78.3254 69.0361 62.1619 169.721 55.8677 57.8848 42.2583 41.1876 40.4919 35.9345 33.3611 33.075 32.7652 28.3946 25.3166 23.346
threshold=1.0500000000000003 4722.5000000000009 394.50000000000006 1822.5000000000002 53005.500000000007 48725.000000000007 1285.5000000000002 78.500000000000014 48725.000000000007 1.0000000180025095e-35 1.0000000180025095e-35 49824.500000000007 48725.000000000007 34.500000000000007 50373.500000000007 25.500000000000004 6.5000000000000009 8904.5000000000018 1508.0000000000002 156.45993589743594 65.500000000000014 2869.5000000000005 1452.0000000000002 976.50000000000011 247.50000000000003 16.500000000000004 2869.5000000000005 65.500000000000014 64.500000000000014 75.000000000000014
decision_type=8 10 8 2 2 2 2 10 2 10 10 2 2 8 2 8 10 10 10 2 2 10 2 2 10 10 10 8 10 8
left_child=8 18 6 4 5 -4 13 14 22 -8 11 12 -5 -3 26 27 -12 24 19 -2 25 23 -1 -10 -18 -19 29 -16 -25 -7
right_child=1 2 3 10 -6 7 9 -9 21 -11 16 -13 -14 -15 15 -17 17 20 -20 -21 -22 -23 -24 28 -26 -27 -28 -29 -30 -31
leaf_value=0.060414153385243009 0.068216049604683304 -0.026744409671670574 -0.055642215468374868 -0.051620019631147068 -0.045818607757411769 0.089260509386903497 0.067011715434714597 -0.053544132590612185 -0.0070882241765439754 -0.053028935920945632 -0.051704587414397964 -0.045443344593583061 0.082067315221292778 0.082269341951791419 0.074607742382486353 -0.019270808297446453 0.11276026499648271 -0.021867685840468592 0.078425707622011065 -0.04349669497994238 -0.044562944075881648 -0.044408872173386564 -0.052046505336650742 0.079450027438266527 -0.020284792043977675 0.1422204674696276 -0.03697384645006635 -0.013403775598868238 -0.029806086465472031 0.045867826154098665
leaf_weight=10.368033960461618 21.263810738921165 18.00833997130394 124.71392439305782 18.495808817446232 274.87594090402126 116.32203867286444 22.219325304031372 30.451810523867607 11.993012018501757 60.520450547337532 1634.1879397332668 63.455941773951054 42.258819721639156 125.41034469008446 44.67139907926321 57.640259809792042 22.534318305552009 5.7284176722168905 151.94133254885674 21.222427196800709 199.42573090642691 5.749309964478015 20.899371288716793 941.1565450578928 5.1512157544493666 3.6631075143814087 5.4816483110189429 10.718782678246496 4.385437309741973 52.141997717320919
leaf_count=42 86 152 1278 177 2683 538 94 296 70 614 18074 592 198 527 240 453 109 63 620 139 2126 43 206 3942 50 21 50 78 28 288
internal_value=0 -0.02436 -0.0302735 -0.0358378 -0.00910107 0.0138295 0.0361785 0.0413016 0.0741111 -0.0199719 -0.0454289 -0.00317191 0.0410202 0.0684015 0.0516669 0.0187972 -0.0482283 -0.0239757 0.0643994 0.0129673 -0.039559 0.0769723 -0.0133653 0.0777922 0.0883068 0.0558667 0.0725692 0.0577027 0.0788815 0.0765256
internal_weight=0 3132.51 2938.08 2711.92 717.018 442.142 226.158 317.428 994.552 82.7398 1994.9 124.211 60.7546 143.419 286.976 113.03 1870.69 236.503 194.428 42.4862 208.817 963.284 31.2674 957.535 27.6855 9.39153 173.946 55.3902 945.542 168.464
internal_count=33877 29546 28701 27314 5904 3221 1387 1943 4331 708 21410 967 375 679 1647 771 20443 2369 845 225 2210 4083 248 4040 159 84 876 318 3970 826
shrinkage=0.05


Tree=15
num_leaves=31
num_cat=0
split_feature=28 7 3 14 12 3 0 17 44 0 15 0 7 0 19 13 0 0 14 27 22 25 0 14 15 0 14 0 0 20
split_gain=2702.52 610.694 411.21 310.265 192.146 128.566 124.015 104.656 108.262 103.239 91.7044 81.7583 72.0012 62.1795 63.1638 61.7135 54.9808 104.261 52.4201 52.1048 51.0283 53.2028 49.0206 47.6392 35.5012 35.0475 34.2168 31.2961 29.2354 27.4689
threshold=1.0500000000000003 4722.5000000000009 1765.5000000000002 406.00000000000006 1.0000000180025095e-35 799.50000000000011 50274.500000000007 15.500000000000002 37.754138809665541 48725.000000000007 74.500000000000014 48725.000000000007 8904.5000000000018 53005.500000000007 394.50000000000006 9.5000000000000018 53079.500000000007 49162.500000000007 1218.5000000000002 1.2947860962566848 1508.0000000000002 169.57738095238099 50432.500000000007 2869.5000000000005 57.000000000000007 49298.500000000007 66.500000000000014 52322.500000000007 49162.500000000007 19.500000000000004
decision_type=8 10 2 8 10 2 2 10 2 2 10 2 10 2 10 10 2 2 8 2 10 2 2 10 8 2 8 2 2 10
left_child=10 20 3 11 6 25 9 26 -9 -4 19 -3 18 -13 -15 16 17 -14 -7 23 21 -2 29 -1 -10 -5 27 28 -6 -19
right_child=1 2 4 5 7 12 -8 8 24 -11 -12 13 15 14 -16 -17 -18 22 -20 -21 -22 -23 -24 -25 -26 -27 -28 -29 -30 -31
leaf_value=0.076033330566380897 0.064047091893538008 -0.051850159979549129 -0.051540321262195737 -0.04702559827398449 -0.04394709859249054 -0.042273597714070632 -0.041269396573419735 0.076804150949217942 0.03194069667989885 0.07533389433418565 -0.050400472798912188 0.076421759193197367 -0.053210222767485715 0.072205884827742053 -0.031295073600140264 -0.053368219564979183 -0.041139111900513413 0.071388884233080027 0.096350764277421466 -0.0077118434908849155 0.075407030031140312 -0.043643500037766951 -0.0056967056671362168 -0.045480076969579376 -0.05290804388240479 0.064497164426327608 -0.049540441101275624 -0.045966521771951298 0.067871390079522018 -0.041570750285061631
leaf_weight=939.13912612199783 21.762054100632668 16.344712622463703 18.87166790664196 6.6467535942792884 6.9421336948871639 8.9660864695906657 62.869806528091431 32.386340960860252 14.797346875071524 72.882586218416691 13.880180068314074 148.71037321537733 53.222372114658356 24.146425552666187 31.983202047646046 189.59399866312742 124.75288599729538 53.661165922880173 17.867467954754829 19.043985351920128 150.2449304163456 20.264972284436226 49.367101266980171 6.9108927547931662 48.70334830135107 51.483880862593651 1768.4983735382557 22.033775761723518 16.367197938263416 4.6641032621264449
leaf_count=4001 89 144 186 47 69 91 595 185 113 337 140 640 565 108 240 2091 1251 292 76 130 620 136 383 60 528 225 20173 219 107 36
internal_value=0 -0.0238939 -0.0297317 0.00116211 -0.0414156 -0.0186409 0.0120564 -0.0457531 0.00505601 0.0486961 0.0715513 0.0510375 -0.0268269 0.0596692 0.0141824 -0.0313748 -0.0165085 0.00285756 0.0503119 0.0734059 0.0619261 0.0124962 0.0310316 0.0750516 -0.0327645 0.0506055 -0.0484417 -0.00530431 0.0337277 0.0612771
internal_weight=0 3038.04 2845.76 781.411 2064.35 560.226 154.624 1909.73 95.887 91.7543 978.974 221.185 502.095 204.84 56.1296 475.262 285.668 160.915 26.8336 965.094 192.272 42.027 107.692 946.05 63.5007 58.1306 1813.84 45.3431 23.3093 58.3253
internal_count=33877 29546 28701 6189 22512 5057 1118 21394 826 523 4331 1132 4785 988 348 4618 2527 1276 167 4191 845 225 711 4061 641 272 20568 395 176 328
shrinkage=0.05


Tree=16
num_leaves=31
num_cat=0
split_feature=28 7 3 14 12 3 0 0 16 43 0 0 7 0 25 7 27 14 15 27 27 27 24 15 0 0 14 0 14 0
split_gain=2492.97 565.802 389.978 288.797 183.273 118.658 112.963 93.5063 91.8996 94.7299 88.3588 74.4784 65.74 60.0516 61.0162 55.7294 55.3216 49.0896 48.9194 48.8297 43.1383 41.6694 40.7267 36.21 35.7699 33.3889 32.0752 31.8735 31.4957 27.5216
threshold=1.0500000000000003 4722.5000000000009 1785.5000000000002 406.00000000000006 1.0000000180025095e-35 799.50000000000011 50274.500000000007 48725.000000000007 16.500000000000004 42.125000000000007 48725.000000000007 48725.000000000007 8904.5000000000018 53005.500000000007 92.382783882783897 15417.500000000002 1.1530100334448161 1218.5000000000002 57.000000000000007 1.1246621621621624 1.2845860342988433 1.7156334231805932 183.51666666666668 43.500000000000007 1452.0000000000002 57191.500000000007 2869.5000000000005 49298.500000000007 66.500000000000014 49622.500000000007
decision_type=8 10 2 8 10 2 2 2 10 2 2 2 10 2 2 10 2 8 8 2 2 2 2 10 2 2 10 2 8 2
left_child=10 21 3 11 6 27 7 -4 28 -10 24 -3 17 -13 -15 -14 19 -7 23 -17 26 -2 25 -11 -1 -21 -12 -5 -6 -22
right_child=1 2 4 5 8 12 -8 -9 9 18 20 13 15 14 -16 16 -18 -19 -20 22 29 -23 -24 -25 -26 -27 -28 -29 -30 -31
leaf_value=0.055097504463640326 0.064800466949738372 -0.051276227802224017 -0.050994164677274217 -0.046310497169138598 -0.0060930221158973369 -0.042054198842257688 -0.040252848946209001 0.0720249253930446 0.073780294843153099 -0.035012350525232043 0.074120654271728717 0.073184105697391269 -0.054500862437538801 0.065003329579245803 -0.035695149010051989 -0.01278990544405369 -0.042434991231966014 0.09186509889607658 -0.053718229185196587 0.10729878965555238 0.07060513023688815 -0.04079066981000349 -0.031930213994411073 0.082694793032379671 -0.051652576098375681 -0.036971771848470433 -0.041802975826184911 0.061045376635475906 -0.049240520887735777 -0.045306612691251101
leaf_weight=10.302034929394724 181.21338184177876 15.739028237760065 17.964447095990181 6.4478600248694411 44.009104505181313 8.9813838526606578 60.328672088682652 72.201428785920143 28.999546110630035 10.347451806068422 909.00297871232033 149.79386968910694 160.66258009523153 26.572257377207279 29.898676685988903 145.31994669139385 132.54763802140951 17.899429060518742 55.841222427785397 20.907353572547439 6.011561498045924 8.549770236015318 9.3562131971120817 12.460167728364466 19.923675060272217 3.8185388520359984 4.8182848319411269 51.780146986246109 1676.1215178519487 12.209420733153818
leaf_count=42 756 144 184 47 389 94 589 333 153 108 3926 647 1826 124 235 1272 1367 76 628 128 25 89 86 81 206 39 38 225 19926 94
internal_value=0 -0.0234296 -0.0291862 0.000764006 -0.0409797 -0.0184391 0.0119176 0.0469402 -0.0453434 -0.00051533 0.0691783 0.0487401 -0.0263464 0.056791 0.012291 -0.0307172 -0.0181989 0.0473065 -0.0290601 -2.20774e-05 0.0719036 0.0596673 0.052109 0.0307755 -0.0141068 0.083919 0.0734195 0.0480143 -0.048145 -0.00386348
internal_weight=0 2947.76 2758 779.725 1978.27 557.721 150.495 90.1659 1827.78 107.648 962.268 222.004 499.493 206.265 56.4709 472.612 311.95 26.8808 78.6488 179.402 932.042 189.763 34.0821 22.8076 30.2257 24.7259 913.821 58.228 1720.13 18.221
internal_count=33877 29546 28701 6310 22391 5160 1106 517 21285 970 4331 1150 4888 1006 359 4718 2892 170 817 1525 4083 845 253 189 248 167 3964 272 20315 119
shrinkage=0.05


Tree=17
num_leaves=31
num_cat=0
split_feature=28 7 3 14 12 3 17 44 14 15 13 15 14 22 3 25 7 22 25 9 7 24 14 24 2 15 22 7 37 13
split_gain=2304.71 523.718 373.123 262.778 173.853 107.916 92.5327 93.8416 89.4997 79.6816 65.9614 51.6163 111.612 49.6528 46.2868 45.1817 42.0829 41.824 45.3994 31.3813 31.0839 29.4685 27.8762 26.9073 37.9755 37.9023 30.9868 26.7481 26.3926 24.5701
threshold=1.0500000000000003 1498.0000000000002 1785.5000000000002 406.00000000000006 1.0000000180025095e-35 799.50000000000011 15.500000000000002 37.754138809665541 1.0000000180025095e-35 74.500000000000014 15.500000000000002 55.500000000000007 379.00000000000006 1797.0000000000002 1043.5000000000002 117.34166666666668 8904.5000000000018 1508.0000000000002 156.45993589743594 46.000000000000007 8904.5000000000018 411.65151515151518 406.00000000000006 106.44771241830067 3279.5000000000005 58.500000000000007 2465.5000000000005 8904.5000000000018 3.5000000000000004 5.5000000000000009
decision_type=8 10 2 8 10 2 10 2 10 10 10 8 8 10 2 2 10 10 2 8 10 2 10 2 2 10 10 8 2 8
left_child=9 17 3 15 8 -5 19 -8 -4 11 13 12 -1 -7 -15 -3 -16 18 -2 21 -9 -6 -10 -18 25 26 -25 -23 -17 -21
right_child=1 2 4 5 6 10 7 20 22 -11 -12 -13 -14 14 16 28 23 -19 -20 29 -22 27 -24 24 -26 -27 -28 -29 -30 -31
leaf_value=0.072547006070783945 0.060715217938413814 0.062367019142145243 0.068720043736246059 0.045624367977882316 -0.04652318959581625 -0.039397774107278564 0.069503926981377126 0.068899488085844104 0.0092979787412207707 -0.049833434019189216 -0.049616369601468993 0.072900721512142219 -0.036219796211520321 0.070144698906945607 0.069377379448889762 0.04326224878303303 -0.046483867268187089 0.070378008697966066 -0.042224412067863669 -0.019360706979958234 -0.044839492194020822 0.087373289951979502 -0.042078360474279271 0.015275378021332432 -0.02284084268770923 -0.047431370206944039 0.10220012199323879 -0.039428106509595058 -0.015990294432901182 -0.049723784819705352
leaf_weight=63.369538083672523 20.197825998067856 148.29026198387146 44.986610278487206 58.234001509845257 13.53034955263138 103.71239517629147 32.747794389724731 4.9359101206064215 56.378255106508732 13.026609614491461 176.76560912281275 831.5646098703146 35.361976496875286 20.663391023874283 15.162811972200869 35.34683758020401 42.090331487357616 145.21257899701595 18.786702491343021 73.137521170079708 54.20674005150795 10.685670003294941 46.715779535472393 25.419836960732937 79.712847419083118 10.510797977447508 16.212658919394016 4.7784947454929361 36.251052416861057 1566.3604381680489
leaf_count=276 83 705 196 272 136 1042 185 21 447 140 2102 3688 227 133 68 179 427 616 130 787 617 70 463 191 723 110 103 51 266 19423
internal_value=0 -0.0229664 -0.0285886 0.000833559 -0.0404228 -0.0176845 -0.0447963 0.0039696 0.0114728 0.0670752 -0.0253594 0.0688157 0.0336451 -0.0114538 0.0026034 0.0467678 -0.00543348 0.0581672 0.0114687 -0.0474836 -0.0334039 0.00382662 -0.0143403 -0.0126692 -0.00134182 0.031154 0.0522589 0.0481629 0.0136425 -0.0483945
internal_weight=0 2861.03 2676.84 768.373 1908.46 548.485 1760.38 91.8904 148.081 943.323 490.251 930.296 98.7315 313.485 209.773 219.888 189.109 184.197 38.9845 1668.49 59.1427 28.9945 103.094 173.946 131.856 52.1433 41.6325 15.4642 71.5979 1639.5
internal_count=33877 29546 28717 6321 22396 5171 21290 823 1106 4331 4899 4191 503 2797 1755 1150 1622 829 213 20467 638 257 910 1554 1127 404 294 121 445 20210
shrinkage=0.05


Tree=18
num_leaves=31
num_cat=0
split_feature=28 3 14 12 17 9 14 13 15 3 43 15 14 27 26 12 13 17 27 17 14 35 9 12 15 14 27 15 13 32
split_gain=2132.46 488.848 319.113 167.086 186.281 150.938 121.048 105.106 73.8285 70.8764 58.2513 48.0627 103.108 44.9963 44.1326 44.0917 64.3255 42.0178 41.0827 36.5254 59.5506 33.3373 29.9217 29.7081 28.7165 27.1883 41.5692 25.8396 24.2957 24.0875
threshold=1.0500000000000003 1919.5000000000002 406.00000000000006 5.5000000000000009 15.500000000000002 126.00000000000001 13.500000000000002 9.5000000000000018 74.500000000000014 799.50000000000011 85.125000000000014 55.500000000000007 379.00000000000006 1.1530100334448161 6.3643168190102548 96.500000000000014 59.500000000000007 1.0000000180025095e-35 1.1246621621621624 6.5000000000000009 231.00000000000003 -0.25081929564476008 38.000000000000007 33.500000000000007 64.500000000000014 406.00000000000006 1.1056618819776716 71.500000000000014 7.5000000000000009 0.49503557384014135
decision_type=8 2 8 10 10 10 10 10 10 2 2 8 8 2 2 8 8 10 2 10 8 2 10 10 8 10 2 10 10 2
left_child=8 2 15 6 19 -4 -3 9 11 -7 21 12 -1 18 25 16 17 -2 28 -5 24 -6 -18 29 -21 26 -8 -23 -11 -22
right_child=1 3 5 4 10 7 14 -9 -10 13 -12 -13 -14 -15 -16 -17 22 -19 -20 20 23 27 -24 -25 -26 -27 -28 -29 -30 -31
leaf_value=0.070364722683757194 0.0098796146286715732 0.056767485142713382 0.058985407675488322 -0.050693306731840505 -0.044876356331284506 0.052653590006065856 0.028581392466349966 -0.050035317093902125 -0.049292665769599182 -0.014158175276294274 -0.038147973732646639 0.070816545911421183 -0.035019417587251432 -0.036976639213019372 0.075582345652906655 0.067967470083255085 0.045363285633405262 0.063945815444958559 0.048179242536788618 0.088855155225710622 -0.033175505680394811 0.064563754379157332 -0.061798842273547754 -0.046611493848617014 -0.029796716506838641 -0.046516587580219454 -0.04394750437488975 -0.039932918565775702 0.075594122775639969 0.069963397437288646
leaf_weight=62.160790205001831 59.213123485445976 68.037043906748295 61.749219350516796 1332.3533783778548 7.8877994194626799 43.562785513699055 40.353159248828888 210.91425178945065 12.545202143490313 151.88503519445658 28.273789569735527 813.74714148044586 34.82774456590414 126.109478905797 9.169660270214079 139.52602608501911 7.1931316703557995 92.836712941527367 35.664564684033394 13.843915775418283 9.5842035561800021 61.589209817349911 22.89995488524437 108.97463550418615 6.3221272975206366 85.621842227876186 35.064600825309753 5.1958119273185721 5.9550051242113105 9.3237130269408208
leaf_count=276 369 343 315 17238 86 198 315 2553 140 1386 325 3688 227 1343 46 634 39 448 249 81 111 351 187 1384 58 950 366 61 36 74
internal_value=0 -0.0224837 0.00643337 -0.0376741 -0.0435413 -0.0141002 0.00135612 -0.0221388 0.0651439 -0.00575267 0.0211498 0.0668248 0.0325792 -0.0139913 -0.0211953 0.0468583 0.0301256 0.0432923 0.00121363 -0.0480623 -0.024025 0.0440114 -0.0349533 -0.0366851 0.0523251 -0.0275654 -0.00540424 0.0555093 -0.00986849 0.019511
internal_weight=0 2779.1 957.509 1821.59 1583.35 635.84 238.246 574.091 923.281 363.177 102.947 910.736 96.9885 319.614 170.209 321.669 182.143 152.05 193.505 1480.4 148.049 74.6728 30.0931 127.883 20.166 161.04 75.4178 66.785 157.84 18.9079
internal_count=33877 29546 7757 21789 19769 6080 2020 5765 4331 3212 823 4191 503 3014 1677 1677 1043 817 1671 18946 1708 498 226 1569 139 1631 681 412 1422 185
shrinkage=0.05


Tree=19
num_leaves=31
num_cat=0
split_feature=28 14 4 9 0 19 4 0 0 15 0 0 19 17 1 25 17 5 0 0 0 15 20 0 15 14 6 0 26 0
split_gain=1975.24 436.003 286.908 162.321 140.609 102.922 112.592 99.912 76.298 70.5722 80.537 111.998 69.876 83.4848 62.6291 59.006 56.5745 56.4944 38.9973 111.964 97.0804 45.3769 38.2366 36.5431 32.6154 96.1451 32.0396 29.9037 29.8368 31.9747
threshold=1.0500000000000003 379.00000000000006 14.500000000000002 95.000000000000014 48725.000000000007 394.50000000000006 9.5000000000000018 53005.500000000007 48725.000000000007 77.500000000000014 53079.500000000007 49162.500000000007 286.00000000000006 7.5000000000000009 4438.0000000000009 183.62430426716142 55.000000000000007 12.500000000000002 50532.500000000007 49162.500000000007 49360.500000000007 9.5000000000000018 20.500000000000004 49162.500000000007 6.5000000000000009 324.50000000000006 1.0000000180025095e-35 1452.0000000000002 0.10266512863027209 50190.500000000007
decision_type=8 8 2 10 2 8 2 2 2 10 2 2 10 10 2 2 8 2 2 2 2 10 10 2 10 8 2 2 2 2
left_child=8 2 4 15 -2 16 9 -6 27 10 11 -7 14 28 -4 -3 -5 -9 19 -8 21 -21 26 -18 -10 -26 -13 -1 29 -14
right_child=1 3 12 5 7 6 18 17 24 -11 -12 22 13 -15 -16 -17 23 -19 -20 20 -22 -23 -24 -25 25 -27 -28 -29 -30 -31
leaf_value=0.048046004695845981 -0.054980320359059698 0.053330434295536522 0.083198391483348053 -0.0367662405879546 0.066394181635112876 -0.052724587077987689 -0.05377368898649431 -0.032955343493626381 0.069281372650633027 -0.053995850669299988 -0.03665808159185964 0.070431515151279767 0.047161486036692096 0.056104759860160607 -0.047587797821448445 -0.030715003659086939 -0.047526105093326602 0.045213758823764674 -0.051109733125083226 0.078303712684366145 -0.025571804611581234 -0.020772587173338575 -0.044666548239031087 0.055368593920058766 0.070375977053016209 -0.039577711329312426 0.0073652328036042996 -0.0513331967265091 -0.048746656188141772 -0.040556542598697919
leaf_weight=10.042741715908052 32.909542955458164 69.073500163853168 24.571351423859596 35.387007422745228 258.20324119925499 35.576167479157448 297.5950885117054 45.993259809911251 785.35507355630398 74.735474430024624 87.522925868630409 80.413597464561462 17.148720033466816 22.442982129752636 12.366157799959181 28.041365005075932 8.5910544991493207 42.615581423044205 989.53039368987083 38.503495134413242 167.20147938281298 15.172367535531519 9.0978098809719068 54.872172735631466 60.647411704063416 27.573708645999432 27.31842964142561 18.725832559168339 205.23719055205584 20.709967255592346
leaf_count=42 357 390 110 372 1183 420 4039 396 3631 919 963 438 134 159 151 282 95 245 13258 239 1897 183 81 300 276 176 188 206 2502 245
internal_value=0 -0.0220034 0.0125265 -0.0336736 0.0413711 -0.0368646 -0.0395583 0.0507769 0.0633632 -0.0122577 0.00108224 0.0229496 -0.0237183 -0.0327007 0.0392177 0.0289327 0.0126029 0.00480752 -0.0452311 -0.0338582 -0.00678368 0.050558 0.046493 0.0404132 0.0659993 0.0358942 0.054865 -0.0157732 -0.0412903 -0.000450483
internal_weight=0 2700.83 682.198 2018.63 379.722 1921.52 1822.67 346.812 902.345 314.664 239.929 152.406 302.476 265.539 36.9375 97.1149 98.8502 88.6088 1508 518.472 220.877 53.6759 116.83 63.4632 873.576 88.2211 107.732 28.7686 243.096 37.8587
internal_count=33877 29546 5482 24064 2181 23392 22625 1824 4331 3009 2090 1127 3301 3040 261 672 767 641 19616 6358 2319 422 707 395 4083 452 626 248 2881 379
shrinkage=0.05


Tree=20
num_leaves=31
num_cat=0
split_feature=28 14 4 12 4 27 17 15 14 17 1 37 43 9 12 13 9 17 27 27 9 9 31 19 17 19 12 15 16 20
split_gain=1833.75 408.549 263.426 157.72 126.513 115.479 86.5641 82.2705 80.4034 76.1381 70.6671 66.9838 58.9176 46.6642 44.3466 60.4585 47.8065 47.1848 43.414 43.0389 40.704 35.9942 35.2647 34.3818 56.5218 33.3015 32.2636 25.5139 58.4293 25.4185
threshold=1.0500000000000003 379.00000000000006 14.500000000000002 1.0000000180025095e-35 9.5000000000000018 0.99849187935034822 12.500000000000002 58.500000000000007 379.00000000000006 4.5000000000000009 4438.0000000000009 6.5000000000000009 59.125000000000007 120.00000000000001 96.500000000000014 59.500000000000007 38.000000000000007 1.0000000180025095e-35 1.2845860342988433 1.0004081632653063 235.50000000000003 38.000000000000007 0.37490552663803106 286.00000000000006 5.5000000000000009 286.00000000000006 5.5000000000000009 22.500000000000004 25.500000000000004 9.5000000000000018
decision_type=8 8 2 10 2 2 10 8 10 10 2 2 2 8 8 8 10 10 2 2 10 10 2 10 10 8 10 10 10 10
left_child=11 2 10 8 7 23 13 9 -3 -5 14 18 22 19 15 17 -17 -2 27 -6 -14 -13 -8 -4 26 -10 -25 -1 -29 -9
right_child=1 3 5 4 6 -7 12 29 25 -11 -12 21 20 -15 -16 16 -18 -19 -20 -21 -22 -23 -24 24 -26 -27 -28 28 -30 -31
leaf_value=0.06811444197299879 0.005867089086388921 0.05891148399315254 0.065702870720436651 -0.0095721275782279687 0.040448830479229474 -0.046974813700205384 -0.0016587639062885949 -0.012079406675163345 0.066943041545394641 0.059086526611295459 -0.052971754524568551 0.061506283118738285 0.065850862477617803 -0.048458398009652792 0.064602610656370615 0.066630321863317424 -0.061424574775935686 0.061351549367567509 -0.012329867256484855 -0.042344311030611578 -0.043526371511169962 -0.046521540249264005 0.093180402457477871 0.02187702011309332 0.080435778265621108 -0.030260060658397977 -0.046983647309332216 -0.047965403159702241 0.067027041188407119 -0.051935775036821945
leaf_weight=787.31643722951412 60.69238918274641 63.488291643559933 25.775899715721607 113.88907250016928 28.060819610953331 185.53925786167383 17.966442435979843 73.025918275117874 8.2768112719058973 60.180633313953876 17.864269621670246 9.7007929682731646 8.1778064519166929 1321.7492326050997 157.18136119097471 7.9530892819166175 26.739330269396305 104.11297169327736 17.479884207248688 30.860471814870834 54.775470718741417 20.764902733266354 19.388719730079174 27.134979993104935 15.928728051483629 63.017925173044205 39.760458596050739 15.22496474534273 29.676101110875607 90.802477031946182
leaf_count=3731 422 289 135 1036 200 2350 172 695 36 382 218 45 36 18331 753 38 240 510 125 361 684 192 94 223 87 622 506 97 141 1126
internal_value=0 -0.0215697 0.0121368 -0.0331071 -0.0369738 -0.0231892 -0.0432666 -0.00930074 0.0188512 0.0145666 0.0398551 0.0617587 0.00155292 -0.0465203 0.0447738 0.0286648 -0.0300368 0.0412338 0.0643663 -0.00288124 -0.0277278 -0.0104537 0.0498001 0.0175623 0.0013845 -0.0174567 -0.0192273 0.0660029 0.027653 -0.0345299
internal_weight=0 2622.34 668.683 1953.66 1818.88 294.139 1480.98 337.898 134.783 174.07 374.543 880.163 100.308 1380.67 356.679 199.498 34.6924 164.805 849.697 58.9213 62.9533 30.4657 37.3552 108.6 82.8242 71.2947 66.8954 832.218 44.9011 163.828
internal_count=33877 29546 5482 24064 23117 3301 19878 3239 947 1418 2181 4331 986 18892 1963 1210 278 932 4094 561 720 237 266 951 816 658 729 3969 238 1821
shrinkage=0.05


Tree=21
num_leaves=31
num_cat=0
split_feature=28 3 14 12 17 9 14 13 27 37 3 36 22 3 27 15 12 13 17 14 17 9 30 18 27 13 9 15 15 14
split_gain=1702.34 420.077 243.054 148.816 165.318 122.499 97.6869 97.6442 92.835 62.2104 58.4344 50.6111 43.2403 41.4671 40.8988 36.9779 36.7557 52.207 35.8802 49.46 33.7621 33.6211 30.3021 28.8484 34.2911 28.0259 25.7762 23.7176 23.6374 54.8325
threshold=1.0500000000000003 1919.5000000000002 406.00000000000006 5.5000000000000009 15.500000000000002 126.00000000000001 379.00000000000006 9.5000000000000018 1.1118055555555559 6.5000000000000009 799.50000000000011 -0.011426488868892191 1797.0000000000002 1043.5000000000002 1.2845860342988433 55.500000000000007 96.500000000000014 59.500000000000007 6.5000000000000009 231.00000000000003 1.0000000180025095e-35 38.000000000000007 -0.38838396966457361 4660.5000000000009 1.1771241830065362 15.500000000000002 38.000000000000007 58.500000000000007 22.500000000000004 131.00000000000003
decision_type=8 2 8 10 10 10 10 10 2 2 2 2 10 2 2 8 8 8 10 8 10 10 2 8 2 8 10 10 10 8
left_child=9 2 16 6 18 -4 8 10 -3 14 -7 22 -12 -14 28 -13 17 20 -5 -20 -2 -11 -6 -15 27 -21 -19 -25 -1 -30
right_child=1 3 5 4 11 7 -8 -9 -10 21 12 15 13 23 -16 -17 -18 26 19 25 -22 -23 -24 24 -26 -27 -28 -29 29 -31
leaf_value=0.066485560347407158 0.0083339640134997613 0.051673129572578663 0.053781536658692612 -0.049610584759949235 -0.042052791922184397 0.048939158664744936 -0.040910289998206256 -0.048807604320845945 -0.036891284171405046 0.060105243022333235 -0.038205152989391478 0.042051763558390444 0.068067607706957522 -0.043519279886378368 -0.011835101154268765 -0.051142152099418449 0.06172129229720949 0.04115097010601191 0.046995381779101897 0.052253455761826807 0.057129193223141431 -0.045300729899825545 0.065459837867874168 0.029864501092948137 -0.030344861790313562 -0.041089518759472823 -0.060272077944136249 -0.043313120863960358 0.063246704166642062 -0.051694374405390001
leaf_weight=766.84469989687204 58.724673062562943 102.07542610913515 60.614604704082012 1183.3678472042084 6.1597551777958861 42.993961244821548 82.992074556648731 189.47507598251104 39.694407530128956 9.4827253669500369 102.42353656888008 14.495608143508433 18.95759854465723 38.366934433579445 17.386149801313877 28.67290074378252 133.09082674980164 6.9824314266443279 20.211004354059696 6.9870893880724898 90.5445786267519 20.323529034852982 47.583783097565174 86.612299717962742 46.337781451642513 108.77447635680437 21.214266315102577 10.865264922380446 30.22257025539875 13.53487592935562
leaf_count=3731 369 601 315 17238 76 198 1000 2553 419 45 1154 87 117 437 125 375 634 39 139 69 448 192 285 671 512 1500 187 123 147 91
internal_value=0 -0.0211067 0.0061902 -0.0361864 -0.0421769 -0.0124838 0.00159944 -0.0201491 0.0267076 0.0602486 -0.00429035 0.020499 -0.0121003 0.00143801 0.0627991 -0.0193721 0.0419172 0.0265429 -0.0468048 -0.0220207 0.0382964 -0.0100955 0.0520707 -0.0061592 0.00426789 -0.0346638 -0.0340943 0.021001 0.0644251 0.0269881
internal_weight=0 2548.22 907.204 1641.01 1416.25 596.647 224.762 536.032 141.77 857.795 346.557 96.912 303.563 201.14 827.988 43.1685 310.557 177.466 1319.34 135.973 149.269 29.8063 53.7435 182.182 143.815 115.762 28.1967 97.4776 810.602 43.7574
internal_count=33877 29546 7757 21789 19769 6080 2020 5765 1020 4331 3212 823 3014 1860 4094 462 1677 1043 18946 1708 817 237 361 1743 1306 1569 226 794 3969 238
shrinkage=0.05


Tree=22
num_leaves=31
num_cat=0
split_feature=28 3 0 0 12 17 0 0 19 0 0 25 15 17 36 17 12 15 27 19 0 0 15 30 0 0 3 0 27 27
split_gain=1581.85 396.008 217.243 369.064 142.218 156.727 113.695 130.575 105.518 79.9717 66.4715 49.9724 49.8748 49.8441 46.0776 35.5983 47.888 34.7105 34.0442 32.2329 31.2042 32.7648 30.9932 28.1851 25.0511 24.9532 23.3656 22.6416 21.4733 21.1534
threshold=1.0500000000000003 1919.5000000000002 53005.500000000007 48725.000000000007 5.5000000000000009 15.500000000000002 50318.500000000007 48725.000000000007 286.00000000000006 50318.500000000007 48725.000000000007 119.78759398496241 78.500000000000014 58.000000000000007 -0.011426488868892191 6.5000000000000009 40.500000000000007 55.500000000000007 1.2845860342988433 286.00000000000006 52546.500000000007 49274.500000000007 162.50000000000003 -0.32986901700496668 49177.500000000007 1452.0000000000002 725.50000000000011 49622.500000000007 2.0081967213114758 0.28029255121438362
decision_type=8 2 2 2 10 10 2 2 8 2 2 2 10 8 2 10 10 8 2 8 2 2 8 2 2 2 2 2 2 2
left_child=10 2 3 -2 6 15 7 -3 11 12 25 -4 -5 22 23 -6 20 -16 29 -8 21 -17 -11 -7 -25 -1 -10 -20 -9 -12
right_child=1 4 8 9 5 14 19 28 26 13 18 -13 -14 -15 17 16 -18 -19 27 -21 -22 -23 -24 24 -26 -27 -28 -29 -30 -31
leaf_value=0.042130647041061606 -0.053732827411993249 -0.052534132320484761 0.07118160589044574 0.062732185326203269 -0.049201662834966804 -0.022455749936810505 0.051723376246260902 0.070776283589700575 0.040461074896821325 0.05187526118939334 -0.019658860730655779 -0.037940384576333488 -0.046842566645129674 -0.01507862648334907 0.040035859090427069 -0.039402055163649134 -0.037567493716224969 -0.050780085376104338 0.060986647010520145 -0.044340484444388185 -0.045011652847101145 0.091835516338121356 -0.020488471166194431 -0.036997531508373115 0.078726588814553203 -0.050813831704836721 -0.043733057967218145 -0.045235679686368234 -0.03794222902294668 0.063716395700616921
leaf_weight=9.6495076119899768 120.93805961310863 30.038282811641693 33.200805701315403 291.03064201027155 1134.7909101843834 9.9712824150919896 7.922095775604248 83.756826512515545 7.0288355946540824 79.973852731287479 6.8431334495544425 13.460992537438868 9.3872651830315572 72.991039887070656 14.563137657940386 5.045778922736651 102.5980930775404 27.477986790239811 5.9592551290988949 96.089144669473171 7.9604661837220183 17.279964715242386 16.914632320404053 4.0955765396356574 39.334956116974354 17.44195880740881 247.64057156443596 11.621930629014967 3.5957832783460608 783.60831569135189
leaf_count=42 1569 371 151 1469 17238 106 40 433 30 476 30 136 108 644 87 65 1436 375 25 1145 98 109 158 50 205 206 3016 94 31 3934
internal_value=0 -0.0206562 0.00597404 0.0235612 -0.0356458 -0.0416747 0.00151303 0.0349619 -0.0284612 0.0435809 0.0588376 0.0394366 0.0590211 0.0159072 0.0197658 -0.0463243 -0.0213876 -0.0189317 0.0614191 -0.0361859 0.0323553 0.061374 0.0390832 0.0498145 0.0666653 -0.0170881 -0.0411121 -0.00667932 0.0655519 0.0629468
internal_weight=0 2477.09 892.567 591.235 1584.52 1363.12 221.402 117.391 301.331 470.297 835.124 46.6618 300.418 169.88 95.4429 1267.68 132.884 42.0411 808.033 104.011 30.2862 22.3257 96.8885 53.4018 43.4305 27.0915 254.669 17.5812 87.3526 790.451
internal_count=33877 29546 7757 4424 21789 19769 2020 835 3333 2855 4331 287 1577 1278 823 18946 1708 462 4083 1185 272 174 634 361 255 248 3046 119 464 3964
shrinkage=0.05


Tree=23
num_leaves=31
num_cat=0
split_feature=7 12 17 27 14 3 0 0 7 36 7 0 14 0 0 36 14 42 0 33 13 12 7 0 24 10 36 19 17 27
split_gain=1292.92 471.578 349.593 274.518 151.136 131.234 91.2559 136.887 84.7195 75.3015 68.6565 67.2914 66.3458 46.9491 106.649 45.2788 43.0363 41.8292 36.3819 36.3418 34.7616 76.273 33.2665 32.3607 42.2228 31.4299 24.5282 24.4828 22.2597 29.7037
threshold=4722.5000000000009 14.500000000000002 15.500000000000002 1.0004081632653063 379.00000000000006 1765.5000000000002 53079.500000000007 49162.500000000007 8904.5000000000018 -0.011426488868892191 8904.5000000000018 48725.000000000007 406.00000000000006 49557.500000000007 48725.000000000007 -0.15629701316356656 73.500000000000014 15.500000000000002 50113.500000000007 0.32739458978176122 22.500000000000004 17.500000000000004 15417.500000000002 50318.500000000007 582.50000000000011 889.00000000000011 -0.11989837884902953 365.00000000000006 9.5000000000000018 1.2668838219326821
decision_type=10 10 10 2 10 2 2 2 10 2 10 2 10 2 2 2 8 2 2 2 10 10 10 2 2 10 2 8 8 2
left_child=20 3 5 4 11 6 7 -3 -4 15 25 -2 18 14 -5 -10 -7 -11 -9 -17 21 -1 -12 -13 -25 -6 -21 -24 29 -20
right_child=1 2 8 13 10 16 -8 12 9 17 22 23 -14 -15 -16 19 -18 -19 28 26 -22 -23 27 24 -26 -27 -28 -29 -30 -31
leaf_value=0.054549826429134501 -0.053989917431879947 -0.053091086577864446 0.068528509550116731 -0.052848631522582172 0.085614658565868654 0.013053569876408525 -0.043057015707630139 0.063126092816645732 -0.045971775590988216 0.060446796848575651 -0.054446823259821281 0.071419663753738746 -0.028780428144214568 -0.048045799424658704 0.06542190710800265 0.077860746343119291 -0.04792278760372487 -0.040767895265747679 0.060261587312713909 0.083175376933763867 0.067654708796176716 -0.056147508055962338 0.081641441501095868 0.055329922627613215 -0.0078844118772314151 -0.030111945931585074 -0.047334870163391309 -0.012110851344305168 -0.0091263886924103036 -0.04477404857783282
leaf_weight=81.252235949039459 12.131509602069853 77.712783757597208 79.966098010540009 39.144932117313147 21.863853413611654 28.897309549152851 174.82497505098581 77.497704446315765 10.92184694111347 10.043169736862181 51.250607512891293 215.95217675715685 45.077309835702181 129.28344308584929 33.514333244413137 48.470540732145309 1155.1416360996664 71.53951270878315 33.560774311423302 3.0306354314088813 545.1939475685358 17.423350259661674 6.2282638251781464 100.46765050292015 34.974994983524084 6.644148312509059 10.846318282186983 43.362294990569353 43.844656266272068 6.7579328790307036
leaf_count=415 113 1074 401 530 114 261 2191 382 151 54 615 1065 494 1592 188 261 18130 884 178 14 2801 96 26 549 264 78 122 463 308 63
internal_value=0 -0.016458 -0.0294697 0.0186969 0.0387713 -0.0376219 -0.0148494 0.00266663 0.0274173 0.00558424 -0.00756862 0.0552111 0.0239338 -0.030198 0.00199523 0.0417963 -0.0464151 -0.0271597 0.0388046 0.0581222 0.0626614 0.0342767 -0.0270022 0.0592654 0.0391291 0.0584372 -0.0119452 0.00237236 0.0154639 0.0413723
internal_weight=0 2572.95 1878.13 694.818 492.875 1643.32 459.276 284.451 234.818 154.852 129.349 363.526 206.738 201.943 72.6593 73.2693 1184.04 81.5827 161.661 62.3475 643.87 98.6756 100.841 351.395 135.443 28.508 13.877 49.5906 84.1634 40.3187
internal_count=33877 30565 24968 5597 3287 23081 4690 2499 1887 1486 1296 1991 1425 2310 718 548 18391 938 931 397 3312 511 1104 1878 813 192 136 489 549 241
shrinkage=0.05


Tree=24
num_leaves=31
num_cat=0
split_feature=28 3 7 7 0 0 14 37 0 0 16 0 0 36 3 27 7 7 16 44 12 0 0 19 19 12 27 20 27 6
split_gain=1373.59 355.808 263.028 197.063 127.868 320.987 126.761 118.547 70.6633 155.54 70.3156 58.4521 58.0357 47.309 41.1707 37.7847 31.6339 130.652 30.9551 30.3468 29.3544 51.8805 28.7514 28.0573 34.7934 27.2082 23.245 22.9592 22.6791 22.11
threshold=1.0500000000000003 1919.5000000000002 8904.5000000000018 15417.500000000002 50373.500000000007 49162.500000000007 513.50000000000011 1.5000000000000002 48725.000000000007 50532.500000000007 16.500000000000004 48725.000000000007 49557.500000000007 -0.011426488868892191 799.50000000000011 1.0314144736842108 8904.5000000000018 15417.500000000002 4.5000000000000009 57.972784487294028 75.000000000000014 50432.500000000007 56910.500000000007 286.00000000000006 198.50000000000003 26.500000000000004 1.9309523809523812 20.500000000000004 0.88943862372267501 1.0000000180025095e-35
decision_type=8 2 10 10 2 2 10 2 2 2 10 2 2 2 2 2 8 8 10 2 10 2 2 8 10 10 2 10 2 2
left_child=11 2 22 -4 5 -3 12 8 -5 27 23 29 26 19 -11 18 -13 -18 -14 -12 -19 -22 -2 24 -6 -8 -7 -10 -24 -1
right_child=1 4 3 7 10 6 25 -9 9 14 13 16 15 -15 -16 -17 17 20 -20 -21 21 -23 28 -25 -26 -27 -28 -29 -30 -31
leaf_value=0.03412886710487003 0.059425382990691826 -0.052916105281730734 -0.054343326742801318 -0.052992230926982256 -0.034852794040398392 0.076908311680656816 0.0094367283203906499 0.062406016483994936 0.055367109186423437 0.044781348972664364 0.069145879279631728 0.065382205710604838 0.0092469451384357988 -0.041367190404147325 -0.028918237586676832 -0.027422934256950544 -0.079967168687576334 0.061524237297763101 0.10668986481137865 -0.035862249622019282 0.075770628054468547 -0.053342813776479828 0.046264880785588415 -0.050770731644035116 0.076058697727851621 -0.048075816031647949 -0.02389335541191219 -0.034567044949556577 -0.045576216765662717 -0.053616419094798806
leaf_weight=10.7569884583354 193.04414312914014 266.41109466552734 180.44032938405871 60.895817298442125 21.089063491672277 102.54192938283086 33.411417223513126 77.966250956058502 111.84660177305341 19.310692474246025 26.079781424254179 547.05712501704693 21.648373037576675 27.098596069961786 183.88243839517236 30.955729342997074 18.300556793808937 170.32732240855694 11.500671010464428 7.719800326973199 12.213325507938864 15.20651852339506 11.390289664268495 864.29818655177951 8.1927806735038775 49.2276163212955 5.1742010936141005 6.2666548714041701 11.497779965400694 14.785047795623541
leaf_count=62 969 4314 2495 847 270 632 322 411 599 87 146 2932 235 382 2121 399 104 900 85 99 52 95 60 14022 34 786 63 58 110 186
internal_value=0 -0.0198794 0.00574742 -0.0103648 -0.0347451 -0.0147414 0.0253272 0.00704055 -0.00451964 0.00493814 -0.0456077 0.0563741 0.0496145 0.00618937 -0.0215459 0.0114261 0.0588633 0.0419084 0.0472007 0.0444985 0.0538752 0.0054082 0.0532041 -0.0491436 -0.00094204 -0.0251496 0.071719 0.0500994 0.000173674 -0.0168678
internal_weight=0 2331.89 856.541 640.609 1475.35 520.871 254.46 460.168 382.202 321.306 954.478 788.647 171.821 60.8982 203.193 64.1048 763.105 216.048 33.149 33.7996 197.747 27.4198 215.932 893.58 29.2818 82.639 107.716 118.113 22.8881 25.542
internal_count=33877 29546 7757 6618 21789 6836 2522 4123 3712 2865 14953 4331 1414 627 2208 719 4083 1151 320 245 1047 147 1139 14326 304 1108 695 657 170 248
shrinkage=0.05


Tree=25
num_leaves=31
num_cat=0
split_feature=28 0 0 0 3 19 15 19 0 17 15 14 15 7 17 3 27 7 10 27 7 27 12 0 27 3 7 14 9 0
split_gain=1281.21 336.618 509.879 282.878 170.97 139.256 85.9974 62.7145 54.8596 45.2001 44.4316 43.5867 43.0589 41.1701 40.9128 36.7215 31.4447 30.4401 123.447 30.1509 29.8925 28.49 27.7221 47.9093 26.7271 24.1628 23.7541 23.4945 22.343 21.1434
threshold=1.0500000000000003 53005.500000000007 49162.500000000007 49757.500000000007 1822.5000000000002 286.00000000000006 77.500000000000014 286.00000000000006 48725.000000000007 6.5000000000000009 57.000000000000007 406.00000000000006 339.50000000000006 87.000000000000014 58.000000000000007 2166.5000000000005 1.1246621621621624 8904.5000000000018 2054.0000000000005 1.0544242873009997 8904.5000000000018 2.3754194630872489 75.000000000000014 50432.500000000007 0.94455423803249905 725.50000000000011 15417.500000000002 379.00000000000006 34.500000000000007 1452.0000000000002
decision_type=8 2 2 2 2 8 10 8 2 10 8 10 8 10 8 2 2 8 8 2 10 2 10 2 2 2 10 10 10 2
left_child=8 2 -2 6 14 12 11 -6 29 28 19 21 -3 24 -5 -13 -14 -10 -19 -11 -16 -4 27 -24 -7 -15 -22 -20 -9 -1
right_child=1 5 3 4 7 13 -8 9 17 10 -12 15 16 25 20 -17 -18 18 22 -21 26 -23 23 -25 -26 -27 -28 -29 -30 -31
leaf_value=0.038461185858375019 -0.052591947452659098 -0.047794242634543994 0.070611764924115625 0.044013108630461047 0.053550643102360018 0.059493780512617202 -0.048943365249377757 0.026785215109597971 0.064250102192132147 0.092180354629101582 -0.042064129678642162 0.05208806653205942 0.061040237383980657 0.037179880177313163 0.047063785888155379 -0.016947505627477693 -0.032065276762090027 -0.079329877217254305 0.063522390737460174 -0.023895669969809786 -0.05263742421428922 -0.03181547431372149 0.07261154204282981 -0.052106534654882769 -0.049119749525962542 -0.049309227360750385 0.0049659743732695218 -0.037665432381905728 -0.045610115643153683 -0.049589791617133089
leaf_weight=9.265980392694475 364.40376738458872 14.336354214698074 250.29707072302699 138.32840164005756 19.769866961985826 13.5527540743351 18.390578087419271 9.8895368874073011 529.3463825955987 15.908320389688017 18.59139209613204 45.209082018584013 47.109431467950344 6.7916073501110068 27.689848907291889 31.227773319929838 9.7935887761414033 17.719950884580612 160.96276085078716 7.1245913729071608 22.649732928723097 5.9043506495654574 12.194815427064897 14.845618054270743 7.082097962498664 876.70163556188345 64.273016281425953 4.701615296304225 246.0169277228415 15.691875316202639
leaf_count=42 5911 207 1387 835 135 64 282 74 2932 126 271 266 238 29 139 374 116 102 874 87 278 73 52 95 55 14175 457 28 3967 206
internal_value=0 -0.0195081 -0.00269037 0.0171191 -0.00464142 -0.0416254 0.0522948 -0.0290047 0.0552776 -0.0348112 0.0129881 0.058151 0.0251054 -0.0469272 0.0259088 0.0241711 0.0444712 0.0577361 0.0408988 0.0572349 0.00367823 0.0680231 0.0526556 0.00526647 0.0211701 -0.0485619 -0.0108902 0.0602356 -0.0426264 -0.0164714
internal_weight=0 2261.04 1285.67 921.27 570.242 975.367 351.029 317.301 764.729 297.531 41.6243 332.638 71.2394 904.128 252.941 76.4369 56.903 739.771 210.425 23.0329 114.613 256.201 192.705 27.0404 20.6349 883.493 86.9227 165.664 255.906 24.9579
internal_count=33877 29546 14662 8751 6369 14884 2382 4660 4331 4525 484 2100 561 14323 1709 640 354 4083 1151 213 874 1460 1049 147 119 14204 735 902 4041 248
shrinkage=0.05


Tree=26
num_leaves=31
num_cat=0
split_feature=28 0 0 0 15 19 3 1 14 0 13 27 7 4 17 19 0 7 10 17 15 27 14 27 6 0 28 7 3 14
split_gain=1196.3 319.647 479.332 264.536 134.455 131.627 105.222 92.867 61.9676 51.3839 46.9595 39.3524 39.1484 36.2567 34.1522 32.696 30.6903 29.1308 115.245 28.9436 29.6112 26.587 26.0732 25.0149 24.6621 42.6394 24.1023 23.6011 23.1074 20.6802
threshold=1.0500000000000003 53005.500000000007 49162.500000000007 50318.500000000007 77.500000000000014 286.00000000000006 1785.5000000000002 1285.5000000000002 406.00000000000006 48725.000000000007 68.500000000000014 2.1833946400420392 87.000000000000014 13.500000000000002 58.000000000000007 365.00000000000006 49424.500000000007 8904.5000000000018 2054.0000000000005 7.5000000000000009 57.000000000000007 1.2668838219326821 379.00000000000006 0.94455423803249905 1.0000000180025095e-35 50432.500000000007 1.2500000000000002 8904.5000000000018 725.50000000000011 1218.5000000000002
decision_type=8 2 2 2 10 8 2 2 10 2 10 2 10 2 8 8 2 8 8 10 8 2 10 2 2 2 10 10 2 10
left_child=9 2 -2 4 8 7 14 -3 11 -1 13 16 23 -10 21 -8 -4 -11 -19 -17 -21 -5 24 -7 25 -20 -18 -16 -14 -15
right_child=1 5 3 6 -6 12 15 -9 10 17 -12 -13 28 29 27 19 26 18 22 20 -22 -23 -24 -25 -26 -27 -28 -29 -30 -31
leaf_value=-0.016143779660176879 -0.052311104329112658 0.065790538374844998 0.074930600020882837 0.045121779414023427 -0.051334330559187694 0.057998174015538667 0.031569337877767681 -0.051612210202202774 0.0578791717951486 0.063195388357235205 -0.047270607524747203 -0.036140194201321654 0.035616159237386487 -0.037696838990375806 0.04260327898976745 -0.048574829428394986 0.049100850412396008 -0.077206272172330517 0.070645773579502288 0.05254066803424793 -0.044068391534027834 -0.045720890594430963 -0.040205083486466071 -0.047960437464570842 0.062423854820741746 -0.050352734851398899 -0.021614173706887823 -0.027364848107044561 -0.048921467311699059 0.026165566543321778
leaf_weight=24.239207867532969 348.4562122784555 45.227442368865013 169.35748454928398 80.920494575053453 36.379957590252161 13.266002327203752 15.035146255046127 24.385100312530994 52.091990403831005 511.75194928050041 22.585181977599859 9.9008649066090566 6.8222939968109122 20.578791067004204 13.885920763015745 186.07040320336819 177.78036450222135 17.361118867993355 12.046150758862497 14.255784906446936 13.514245897531508 7.3152350671589366 6.1031461060047141 6.9425380527973166 155.77260519564152 13.156154081225393 11.820561297237871 48.781196057796478 840.40383156388998 26.91420916095376
leaf_count=248 5911 235 918 496 581 64 115 326 282 2932 348 131 29 268 71 3175 1074 102 51 132 216 72 44 55 874 80 131 488 14175 253
internal_value=0 -0.0191419 -0.00263584 0.0165178 0.039369 -0.0412073 -0.0152562 0.0243718 0.0462701 0.0542818 0.0150926 0.0564593 -0.046514 0.0298883 0.0170225 -0.0365015 0.0591995 0.0567037 0.0399989 -0.0415357 0.00572394 0.036744 0.0515773 0.0205557 0.0550782 0.00842382 0.0445126 -0.011023 -0.0481585 -0.00191123
internal_weight=0 2192.69 1255.64 907.188 527.409 937.047 379.778 69.6125 491.029 740.43 122.17 368.859 867.435 99.585 150.903 228.876 358.958 716.191 204.439 213.84 27.77 88.2357 187.078 20.2085 180.975 25.2023 189.601 62.6671 847.226 47.493
internal_count=33877 29546 14662 8751 3986 14884 4765 561 3405 4331 1151 2254 14323 803 1127 3638 2123 4083 1151 3523 348 568 1049 119 1005 131 1205 559 14204 521
shrinkage=0.05


Tree=27
num_leaves=31
num_cat=0
split_feature=28 3 14 12 17 9 13 14 14 27 43 15 14 20 3 12 13 22 18 27 12 15 10 14 17 15 9 11 8 21
split_gain=1117.3 301.93 155.485 113.283 133.127 85.3853 81.3284 75.6713 68.7707 63.1861 47.6963 47.3153 80.1301 42.8591 35.1756 27.2986 40.3351 27.1846 29.6535 29.4102 27.0318 26.9757 26.7757 48.818 23.7542 23.0329 21.2168 20.9768 20.4796 19.2041
threshold=1.0500000000000003 1919.5000000000002 406.00000000000006 5.5000000000000009 6.5000000000000009 126.00000000000001 9.5000000000000018 231.00000000000003 379.00000000000006 1.1118055555555559 40.875000000000007 6.5000000000000009 131.00000000000003 20.500000000000004 799.50000000000011 96.500000000000014 59.500000000000007 1797.0000000000002 4660.5000000000009 1.1771241830065362 33.500000000000007 71.500000000000014 812.50000000000011 196.00000000000003 1.0000000180025095e-35 58.500000000000007 38.000000000000007 8.5000000000000018 2903.0000000000005 37.500000000000007
decision_type=8 2 8 10 10 10 10 8 10 2 2 10 8 10 2 8 8 10 8 2 10 8 10 10 10 10 10 10 10 10
left_child=11 2 15 8 27 -4 13 21 9 -3 -9 22 -13 14 -7 16 24 -16 -19 25 -12 -6 23 -1 -2 28 -18 -5 -20 -26
right_child=1 3 5 4 7 6 -8 10 -10 -11 20 12 -14 -15 17 -17 26 18 19 -21 -22 -23 -24 -25 29 -27 -28 -29 -30 -31
leaf_value=0.045772221060374603 0.0065003711311013845 0.044791116319002254 0.047643001983691174 0.046814510942181725 0.068694446192231737 0.047095993712453259 -0.046879205743170435 0.042135929939973185 -0.037686513132157727 -0.03394024215260371 0.025886108175135064 0.059357249282852423 -0.037395809888662077 -0.050827644052506997 -0.029746043092383181 0.053984798506752446 0.036375674442972621 -0.035221712562441991 -0.03955887379994405 -0.020791488497684862 -0.040200538045403841 -0.029417482537128038 0.061644928701528025 -0.061230350952526408 0.055479856429132349 -0.040421093654215048 -0.060228856286355298 -0.047993430663450999 0.044327920010090276 -0.033826917052641181
leaf_weight=60.168564289808273 54.462141197174788 92.262655731290579 54.346561521291733 4.3777194246649733 38.623678892850876 38.785768777132034 155.22493049129844 24.624356053769588 68.961253710091114 33.262866504490376 16.489029232412577 46.948360487818718 36.221092138439417 38.556001510471106 66.635851919651031 115.81449556350708 6.3274141177535084 31.159824676811695 6.3890941329300395 35.965864595025778 112.61925149708986 7.28368967026472 562.5071696639061 11.059079855680464 76.989894144237041 8.7416993938386423 18.533588018268347 925.10476328060031 88.493276569992304 5.2150576114654532
leaf_count=339 369 601 315 49 215 183 2553 203 1000 419 172 270 343 546 827 634 39 403 72 423 1861 80 3319 60 408 117 187 17189 641 40
internal_value=0 -0.0187959 0.00541471 -0.0334451 -0.039506 -0.0106027 -0.0175118 -0.00242901 0.00178647 0.0237231 -0.0193107 0.0533049 0.0173317 -0.0028231 0.00419602 0.0355538 0.0218403 -0.0031482 0.00745594 0.0173456 -0.0314942 0.0525497 0.0579565 0.02794 0.0324901 0.0307252 -0.0347641 -0.0474473 0.0379792 0.0491454
internal_weight=0 2125.25 801.641 1323.61 1129.12 524.299 469.952 199.64 194.487 125.526 153.733 716.904 83.1695 314.727 276.171 277.343 161.528 237.386 170.75 139.59 129.108 45.9074 633.735 71.2276 136.667 103.624 24.861 929.482 94.8824 82.205
internal_count=33877 29546 7757 21789 19769 6080 5765 2531 2020 1020 2236 4331 613 3212 2666 1677 1043 2483 1656 1253 2033 295 3718 399 817 830 226 17238 713 448
shrinkage=0.05


Tree=28
num_leaves=31
num_cat=0
split_feature=28 3 14 17 9 13 19 15 15 14 20 9 27 44 15 27 3 15 24 4 22 18 44 11 14 17 21 16 19 24
