tree
version=v3
num_class=1
num_tree_per_iteration=1
label_index=0
max_feature_idx=46
objective=binary sigmoid:1
feature_names=srcPort destPort bytesOut bytesIn pktsIn pktsOut tlsIssuerDn_null tlsSubject_C_cnt tlsSubject_ST_cnt tlsSubject_L_cnt tlsSubject_O_cnt tlsSubject_OU_cnt tlsSubject_CN_cnt tlsSubject_cnt tlsIssuerDn_cnt tlsSni_cnt srcAddress_cnt destAddress_cnt tlsVersion_cnt destPort_cnt bytesOut_cnt bytesIn_cnt pktsIn_cnt pktsOut_cnt bytesOut_pktsIn bytesIn_pktsOut bytesIn_bytesOut pktsIn_pktsOut tlsVersion_num vec_add_w2v_1 vec_add_w2v_2 vec_add_w2v_3 vec_add_w2v_4 vec_add_w2v_5 vec_add_w2v_6 vec_add_w2v_7 vec_add_w2v_8 tlsSubject_num tlsIssuerDn_num srcAddress_mean srcAddress_std srcAddress_max srcAddress_min destAddress_mean destAddress_std destAddress_max destAddress_min
feature_infos=[5:65535] [20:64780] [62:797323266] [310:360644320] [3:321668] [1:526713] [0:1] [3:20402] [3:23015] [3:25529] [3:20603] [3:28094] [3:14806] [3:2055] [3:3684] [3:433] [3:138] [3:138] [3:32523] [3:37260] [3:279] [3:363] [3:2630] [3:2753] [1.0877192982456141:27181.017857142859] [2.4214949137549757:25656] [0.0022480729395580028:346.70270270270271] [0.039628482972136225:60] [1:3] [-0.64770543575286865:0.28681665658950806] [-0.78400695323944092:0.23770889639854431] [-0.23685339093208313:0.71100395917892456] [0.11590141803026199:0.93095993995666504] [-0.14976069331169128:0.82910436391830444] [-0.68868273496627808:0.28120881319046021] [-0.52362531423568726:0.38414296507835388] [-0.48820772767066956:0.47870063781738281] [1:17] [1:8] [47.25:145] [55.154328932550705:106.41281642734582] [172:254] [0:16] [5:149.75] [2.6809513236909019:97.238109812974045] [10:212] [0:10]
tree_sizes=3315 3361 3357 3385 3394 3369 3407 3399 3388 3421 3399 3420 3394 3385 3416 3414 3404 3429 3436 3404 3427 3427 3394 3404 3390 3402 3396 3423 3433 3406 3407 3399 3413 3399 3412 3405 3400 3404 3408 3407 3433 3408 3402 3428 3409 3405 3409 3416 3410 3408 3411 3425 3427 3428 3408 3409 3415 3433 3428 3435 3420 3446 3428 3420 3428 3425 3423 3422 3410 3433 3428 3441 3441 3435 3417 3427 3410 3423 3440 3419 3415 3444 3422 3424 3424 3429 3418 3430 3432 3429 3428 3445 3428 3425 3427 3447 3428 3431 3427 3411 3430 3422 3431 3433 3433 3451 3443 3419 3452 3447 3431 3450 3430 3442 3432 3419 3432 3440 3438 3441 3451 3432 3439 3442 3449 3447 3430 3430 3434 3449 3439 3440 3439 3444 3439 3446 3462 3451 3427 3458 3445 3435 3443 3463 3440 3448 3473 3446 3455 3460 3459 3448 3449 3443 3462 3438 3447 3451 3451 3463 3439 3455 3443 3443 3445 3460 3477 3453 3463 3443 3460 3462 3439 3461 3447 3452 3454 3458 3460 3476 3442 3446 3451 3458 3459 3457 3459 3469 3454 3474 3442 3457 3448 3465 3474 3452 3437 3446 3449 3446 3446 3482 3435 3438 3456 3469 3441 3454 3451 3458 3446 3461 3463 3436 3453 3456 3467 3459 3462 3458 3466 3479 3466 3450 3472 3440 3465 3446 3458 3453 3452 3442 3462 3467 3441 3445 3455 3457 3463 3452 3489 3446 3472 3475 3459 3456 3480 3468 3484 3480 3475 3465 3468 3469 3470 3488 3484 3472 3463 3501 3499 3471 3472 3471 3490 3493 3483 3464 3497 3489 3488 3489 3477 3492 3469 3489 3474 3485 3469 3473 3490 3449 3482 3489 3483 3491 3487 3483 3499 3483 3476 3476 3489 3513 3476 3523 3521 3482 3515 3484 3506 3489 3484 3500 3483 3501 3493 3483 3497 3494 3481 3497 3513 3485 3489 3491 3497 3491 3503 3477 3502 3484 3478 3496 3503 3491 3503 3490 3518 3491 3518 3492 3505 3500 3494 3488 3494 3501 3491 3491 3517 3512 3483 3497 3505 3524 3495 3482 3504 3487 3490 3520 3503 3505 3497 3506 3503 3507 3488 3492 3489 3493 3524 3509 3508 3496 3527 3523 3509 3466 3493 3515 3507 3519 3494 3501 3504 3480 3510 3520 3477 3496 3528 3506 3494 3519 3508 3528 3529 3509 3513 3495 3498 3496 3519 3509 3502 3495 3519 3506 3518 3506 3503 3492 3520 3509 3510 3493 3514 3512 3504 3514 3501 3502 3530 3507 3502 3497 3516 3507 3513 3501 3509 3520 3513 3515 3492 3509 3500 3519 3529 3524 3512 3512 3504 3524 3505 3507 3518 3506 3501 3511 3503 3518 3521 3505 3505 3520 3497 3530 3519 3494 3499 3515 3524

Tree=0
num_leaves=31
num_cat=0
split_feature=28 9 19 0 3 27 3 22 27 0 0 12 10 14 12 0 0 6 27 31 14 14 12 0 14 15 22 3 14 14
split_gain=15766.2 1550.52 1233.45 891.17 846.948 842.192 617.695 343.194 339.776 288.636 403.605 261.557 277.284 242.5 228.998 292.399 401.344 175.829 168.259 160.316 158.14 144.435 392.743 133.779 116.975 115.641 103.798 83.5933 130.823 140.57
threshold=1.0500000000000003 222.50000000000003 394.50000000000006 48843.000000000007 1886.5000000000002 0.99878147847278653 799.50000000000011 1951.5000000000002 1.4463601532567052 52983.000000000007 48843.000000000007 173.50000000000003 576.00000000000011 2869.5000000000005 1.0000000180025095e-35 50328.500000000007 48843.000000000007 1.0000000180025095e-35 0.88943862372267501 0.4169995933771134 279.50000000000006 131.00000000000003 111.00000000000001 1458.5000000000002 379.00000000000006 170.00000000000003 1951.5000000000002 1819.5000000000002 406.00000000000006 312.50000000000006
decision_type=8 10 8 2 2 2 2 10 2 2 2 10 8 10 10 2 2 2 2 2 10 8 10 2 10 8 10 2 8 10
left_child=3 4 5 23 9 11 26 18 13 10 -2 12 -3 17 15 16 -8 -5 -6 -7 -9 22 -16 -1 -18 -21 -4 28 29 -23
right_child=1 2 6 8 7 19 14 20 -10 -11 -12 -13 -14 -15 21 -17 24 -19 -20 25 -22 27 -24 -25 -26 -27 -28 -29 -30 -31
leaf_value=-1.2906680478091088 -1.5110022122875526 -1.5062926213756804 -1.2744202655960892 -1.3807668875547379 -1.3836923148125051 -1.5048268448685638 -1.5149882554390444 -1.2589582884720611 -1.4690018248834629 -1.4357103394226394 -1.2328882953077194 -1.4659168929033459 -1.2069100958975758 -1.5037754777141705 -1.4898497733201521 -1.5091583313758594 -1.24837919294208 -1.2003757342268366 -1.5026174593953332 -1.5045582334313792 -1.4734915309082459 -1.4810140773743914 -1.2303674337751129 -1.5147753711989567 -1.4446964393034245 -1.2620266417339581 -1.4581858030119186 -1.5155400618271209 -1.5015414867813861 -1.296804460708717
leaf_weight=6.4357405900955191 14.097336530685423 7.9680597782135001 31.259311437606812 15.936119556427 34.477181732654572 86.422802209854126 31.565775275230408 26.968817710876465 12.565017342567442 32.638398706912994 103.58477711677551 14.557032287120817 72.172233760356903 6.282508671283721 120.28705626726151 95.157021582126617 36.009500920772552 581.66836380958557 161.50644242763519 6.7422044277191189 11.798857748508452 26.509121954441071 14.557032287120817 29.726992249488831 9.8068428039550763 11.339161992073057 9.9600747227668744 2872.7920138835907 691.53564959764481 14.557032287120817
leaf_count=42 92 52 204 104 225 564 206 176 82 213 676 95 471 41 785 621 235 3796 1054 44 77 173 95 194 64 74 65 18748 4513 95
internal_value=-1.45701 -1.49009 -1.49899 -1.22761 -1.39433 -1.37814 -1.50512 -1.45394 -1.21351 -1.30252 -1.26655 -1.27177 -1.23715 -1.20817 -1.50717 -1.45092 -1.3798 -1.20492 -1.48117 -1.47619 -1.32186 -1.50977 -1.45893 -1.46826 -1.28813 -1.34819 -1.31682 -1.51167 -1.49637 -1.41131
internal_weight=0 4538.27 4153.2 652.615 385.072 199.201 3954 234.751 616.452 150.321 117.682 94.6973 80.1403 603.887 3912.78 172.539 77.3821 597.604 195.984 104.504 38.7677 3740.24 134.844 36.1627 45.8163 18.0814 41.2194 3605.39 732.602 41.0662
internal_count=33876 29617 27104 4259 2513 1300 25804 1532 4023 981 768 618 523 3941 25535 1126 505 3900 1279 682 253 24409 880 236 299 118 269 23529 4781 268
shrinkage=1


Tree=1
num_leaves=31
num_cat=0
split_feature=28 7 19 27 0 4 7 10 27 12 7 27 0 4 0 0 43 2 0 12 12 38 16 9 17 18 0 22 24 0
split_gain=12633.1 2529.28 1102.53 787.813 607.794 372.51 898.877 355.381 278.801 254.522 251.576 231.128 219.179 209.647 157.489 151.056 122.213 119.402 117.858 114.886 96.6184 158.614 87.545 82.9887 98.0709 78.8545 51.6575 51.496 58.8749 49.2772
threshold=1.0500000000000003 4722.5000000000009 394.50000000000006 0.99878147847278653 48843.000000000007 12.500000000000002 8904.5000000000018 889.00000000000011 1.7478813559322035 13.500000000000002 15417.500000000002 1.4463601532567052 48843.000000000007 5.5000000000000009 52793.500000000007 48843.000000000007 42.125000000000007 987.50000000000011 1458.5000000000002 173.50000000000003 1.0000000180025095e-35 2.5000000000000004 82.500000000000014 46.000000000000007 5.5000000000000009 18954.000000000004 58665.500000000007 1508.0000000000002 609.23333333333346 49724.500000000007
decision_type=8 10 8 2 2 2 10 10 2 10 10 2 2 2 2 2 2 2 2 10 10 2 10 8 10 10 2 8 2 2
left_child=4 8 3 12 18 6 7 26 27 10 -8 17 -3 25 15 -12 22 -6 -1 -14 21 29 -5 24 -22 -11 -4 28 -2 -7
right_child=1 2 5 16 11 20 9 -9 -10 13 14 -13 19 -15 -16 -17 -18 -19 -20 -21 23 -23 -24 -25 -26 -27 -28 -29 -30 -31
leaf_value=0.14791471919014096 0.023416248432135578 -0.051477029274844301 0.19721487400239379 -0.045247221777592002 0.020064808451552514 0.18386634211012731 -0.057683625716674902 -0.044839056119211573 -0.052268926914331063 -0.016078232725571042 -0.049518836764152536 -0.011546022541627489 0.19816903395420959 -0.046438628339281723 -0.024864241527283486 0.17089740706590711 -0.048052885687462112 0.20620258703934313 -0.057014635729259994 0.013721631446076132 -0.030820388384200249 -0.031480010619387364 0.18454129338935255 -0.057377294476520402 0.13474422789251891 0.16139604326451706 -0.0077791118351659824 0.2093969720535836 0.18170771860085719 -0.026747097309111872
leaf_weight=7.1062367856502524 11.687562733888628 10.300047338008879 63.014538452029228 5.6737773269414875 9.1849073022603971 10.203508988022802 43.853195682168007 20.759893476963043 11.775064960122107 9.3751901388168335 8.4024772495031339 12.471385955810545 93.589427307248116 883.08377861976624 20.513991415500641 44.501357659697533 94.62675379216671 688.76167625188828 28.663214802742004 9.6001768559217435 32.946112439036369 135.44203989207745 8.7694361954927444 2775.2241824120283 10.039528101682661 15.001692458987236 3.0696146786212912 108.35968206822872 11.375453084707258 2.9966994225978842
leaf_count=42 74 68 372 38 57 59 290 139 79 60 56 82 534 5927 136 274 633 3884 194 63 217 896 51 18755 63 89 20 635 69 20
internal_value=0 -0.032155 -0.0390675 0.068872 0.189916 -0.0449887 -0.0202519 0.132388 0.173143 -0.0334205 0.0354409 0.200015 0.159918 -0.0423778 0.0911197 0.135361 -0.0270371 0.203817 -0.0106251 0.181596 -0.0542368 -0.0147137 0.0997487 -0.0563094 0.0121195 0.0970969 0.187744 0.193819 0.109761 0.138825
internal_weight=0 4444.19 4300.99 222.56 746.187 4078.43 1111.58 86.844 143.198 1024.73 117.271 710.418 113.49 907.461 73.4178 52.9038 109.07 697.947 35.7695 103.19 2966.85 148.642 14.4432 2818.21 42.9856 24.3769 66.0842 131.423 23.063 13.2002
internal_count=33876 29617 28760 1387 4259 27373 7363 531 857 6832 756 4023 665 6076 466 330 722 3941 236 597 20010 975 89 19035 280 149 392 778 143 79
shrinkage=0.05


Tree=2
num_leaves=31
num_cat=0
split_feature=28 7 19 3 1 0 12 0 0 12 14 27 27 27 4 14 14 27 0 0 4 2 4 0 0 20 16 13 14 14
split_gain=10515.4 2170.23 1007.29 762.235 645.237 448.328 271.358 261.244 837.382 555.776 336.072 215.515 185.546 171.584 155.931 153.41 148.448 105.943 104.908 80.4949 77.6463 75.3801 74.3132 73.137 70.603 54.7632 53.4095 51.2219 46.2291 108.982
threshold=1.0500000000000003 4722.5000000000009 394.50000000000006 799.50000000000011 1285.5000000000002 48843.000000000007 1.0000000180025095e-35 50437.500000000007 49167.500000000007 13.500000000000002 144.00000000000003 1.7478813559322035 1.1530100334448161 1.2947860962566848 9.5000000000000018 379.00000000000006 2869.5000000000005 2.007352941176471 1458.5000000000002 49190.500000000007 7.5000000000000009 987.50000000000011 13.500000000000002 49200.500000000007 49624.500000000007 16.500000000000004 9.5000000000000018 56.500000000000007 52.500000000000007 42.000000000000007
decision_type=8 10 8 2 2 2 10 2 2 10 8 2 2 2 2 10 10 2 2 2 2 2 2 2 2 10 10 10 8 10
left_child=5 11 4 20 12 18 -6 8 -5 15 26 28 19 16 25 17 21 -10 -1 -3 23 -7 -17 -4 -15 27 -11 -12 29 -2
right_child=1 2 3 7 6 13 -8 -9 9 10 14 -13 -14 24 -16 22 -18 -19 -20 -21 -22 -23 -24 -25 -26 -27 -28 -29 -30 -31
leaf_value=0.13321106737114599 0.15128866577892519 -0.040402197599653189 -0.041376837641549792 -0.059554943132784921 0.14577801582336777 0.024046963979756565 -0.058586001853173655 -0.055903175030780045 0.17280549810548668 0.043125663394938223 0.1281229986746604 -0.051527939616878897 -0.035050032149985005 0.14935615991255616 -0.035610597416966025 0.10950161063452085 -0.048808053058611522 -0.044936123278737701 -0.056306956085852226 0.17195756425550868 0.0048298688467228587 0.17865731498062354 -0.016765129971766064 0.17243995544414034 -0.049964069605221123 -0.042527230357288365 0.18210862751367932 -0.03123122230212963 0.18255641734585082 -0.051709382799910421
leaf_weight=7.7003055810928336 24.129712358117107 3.945084184408187 3.6119785457849494 803.9564518481493 17.640754356980324 8.6449399143457395 92.810171008110046 2611.5179737508297 71.74897313117981 11.917426303029059 24.583471238613132 11.385822251439093 12.468825697898863 4.4208827316761043 292.12421754002571 18.658385172486305 6.5727427303791037 5.2522924542427054 27.623786777257919 103.2502896040678 10.373598024249075 753.23912461102009 25.701697409152985 45.685257256031036 12.495896041393278 7.4112375974655142 21.81831456720829 5.3769344538450232 113.50615452229977 7.7257163375616065
leaf_count=42 132 27 21 5606 94 53 633 18206 414 75 169 79 86 25 2040 113 39 34 194 547 68 3825 176 248 81 51 116 36 602 44
internal_value=0 -0.0312952 -0.0381543 -0.0440708 0.0631579 0.163639 -0.0239336 -0.0468079 -0.0283163 0.0235415 -0.00755929 0.150219 0.142616 0.171458 -0.0232238 0.115239 0.174918 0.157192 -0.0100696 0.163545 0.130538 0.176971 0.038777 0.155771 0.0124083 0.0704906 0.138173 0.0993593 0.166506 0.10191
internal_weight=0 4346.6 4189.85 3959.74 230.115 820.698 110.451 3900.07 1288.55 484.593 363.232 156.747 119.664 785.374 329.496 121.361 768.457 77.0013 35.3241 107.195 59.6708 761.884 44.3601 49.2972 16.9168 37.3716 33.7357 29.9604 145.362 31.8554
internal_count=33876 29617 28760 27373 1387 4259 727 27036 8830 3224 2487 857 660 4023 2296 737 3917 448 236 574 337 3878 289 269 106 256 191 205 778 176
shrinkage=0.05


Tree=3
num_leaves=31
num_cat=0
split_feature=7 14 12 14 18 3 3 3 14 27 17 4 12 13 7 14 27 17 44 9 17 44 14 38 16 15 7 15 15 3
split_gain=7732.06 1824.3 1641.71 824.206 676.031 524.202 357.853 239.446 378.882 211.785 194.52 131.977 112.785 98.5023 102.862 86.9481 75.3398 99.1742 88.4339 61.7976 59.9384 189.798 59.754 59.5887 57.2435 55.1677 50.6614 50.6348 48.551 42.3482
threshold=4722.5000000000009 131.00000000000003 1.0000000180025095e-35 168.00000000000003 18954.000000000004 799.50000000000011 1614.5000000000002 1819.5000000000002 406.00000000000006 1.7478813559322035 58.000000000000007 13.500000000000002 111.00000000000001 15.500000000000002 8904.5000000000018 25.500000000000004 1.1530100334448161 4.5000000000000009 56.139057253420354 336.00000000000006 16.500000000000004 38.488634651843554 406.00000000000006 6.5000000000000009 23.500000000000004 60.500000000000007 15417.500000000002 137.50000000000003 58.500000000000007 930.50000000000011
decision_type=10 8 10 10 10 2 2 2 8 2 8 2 10 10 10 10 2 10 2 8 10 2 10 2 8 10 8 8 10 2
left_child=9 4 3 -3 -2 25 15 8 10 -1 -7 22 23 14 19 26 17 -16 28 -10 -9 24 -5 -8 -22 -4 -6 -12 29 -19
right_child=1 2 5 11 6 7 12 20 13 -11 27 -13 -14 -15 16 -17 -18 18 -20 -21 21 -23 -24 -25 -26 -27 -28 -29 -30 -31
leaf_value=0.15908052024094829 0.15387643982276941 0.1564250072030581 0.11771250641600764 0.10689472989650704 -0.033651532088322507 0.15040999417164938 -0.032326551575263207 -0.05525727588039886 0.1572870976522211 -0.044665061335171216 -0.026055451987662522 -0.035551150664763803 0.13593714710051291 -0.056825210338012203 -0.026709925868349516 0.13606638384462735 -0.04884618741949992 -0.0297801357521927 -0.015563156667857722 -0.041803108168948638 0.01647612641473931 -0.053731575354050098 0.005501942971625727 0.067641117022125871 0.17393316017998728 -0.039296685983221155 0.1233894540069231 0.073428771668624923 -0.041640130465733699 0.13867877209969029
leaf_weight=675.76852737367153 159.4183768928051 152.71202892065048 52.512788504362106 27.686952099204063 14.761647522449495 40.370135188102722 164.33573643863201 2713.3770196586847 10.796815484762188 12.205284565687178 36.834562450647354 110.03593927621841 9.8246338218450529 306.70684115588665 159.28511239588261 64.796506807208061 175.56941014528275 3.5501368045806911 31.723871007561684 4.5892517268657693 10.707824170589449 73.264048233628273 28.911138728260994 14.506898716092108 11.811734005808828 5.2771471142768851 5.4436203986406317 17.092697694897652 4.4929613023996344 27.286677300930023
leaf_count=3220 756 734 284 150 98 210 1133 19631 56 87 250 756 48 2182 1114 338 1249 25 221 33 78 530 184 89 64 32 27 96 32 169
internal_value=0 -0.024569 -0.0351189 0.0733206 0.0726947 -0.0445504 0.0246312 -0.0469489 -0.0230679 0.155347 0.0702303 -0.00379257 -0.0139149 -0.0353795 -0.0194213 0.10854 -0.0244624 -0.00528589 0.0449062 0.0999262 -0.053884 -0.0146483 0.0570573 -0.0235592 0.106515 0.10254 0.0159606 0.00697515 0.0971286 0.118652
internal_weight=0 4437.68 4004.6 319.346 433.087 3685.25 273.669 3627.46 818.298 687.974 94.2974 166.634 188.667 724.001 417.294 85.0018 401.908 226.339 67.0536 15.3861 2809.16 95.7836 56.5981 178.843 22.5196 57.7899 20.2053 53.9273 35.3298 30.8368
internal_count=33876 30569 28080 1824 2489 26256 1733 25940 5637 3307 556 1090 1270 5081 2899 463 2810 1561 447 89 20303 672 334 1222 142 316 125 346 226 194
shrinkage=0.05


Tree=4
num_leaves=31
num_cat=0
split_feature=7 14 12 14 18 3 3 19 1 15 27 3 13 14 19 12 7 4 14 14 9 27 25 16 14 11 11 15 22 9
split_gain=6657.15 1655.04 1501.49 682.102 554.534 474.611 307.779 253.61 418.033 176.293 173.186 137.207 139.796 139.495 124.511 106.268 80.171 70.979 69.2589 69.2164 54.8484 54.4853 89.319 65.4721 53.2189 50.7341 80.324 46.543 46.3594 46.0373
threshold=4722.5000000000009 131.00000000000003 1.0000000180025095e-35 168.00000000000003 18954.000000000004 799.50000000000011 1614.5000000000002 365.00000000000006 1285.5000000000002 34.500000000000007 1.7478813559322035 1819.5000000000002 25.500000000000004 406.00000000000006 365.00000000000006 90.500000000000014 8904.5000000000018 13.500000000000002 81.500000000000014 28.500000000000004 336.00000000000006 1.1530100334448161 148.90692640692643 4.5000000000000009 406.00000000000006 55.000000000000007 29.000000000000004 60.500000000000007 1951.5000000000002 55.500000000000007
decision_type=10 8 10 10 10 2 2 8 2 8 2 2 10 8 8 8 10 2 10 10 8 2 2 10 10 8 8 10 10 10
left_child=10 4 3 -3 -2 27 19 8 9 -7 25 12 13 -9 -5 29 20 24 -17 -6 -15 22 -18 -24 -16 26 -1 -4 -25 -8
right_child=1 2 5 14 6 7 15 11 -10 -11 -12 -13 -14 16 17 18 21 -19 -20 -21 -22 -23 23 28 -26 -27 -28 -29 -30 -31
leaf_value=0.11716797456394648 0.13831003664321428 0.14023787595200241 0.10608310753079948 0.12446184311885232 0.022454445052595653 -0.043597870545949005 0.033808487451277867 0.082387069396978763 -0.05802912985359282 0.13625563061054166 -0.043883002339366269 -0.054468887964156311 -0.05635228625116278 0.14493556094780222 0.083260245250557585 0.0019511806948958111 -0.031803046521461001 -0.04114293822838324 0.13577935567820529 0.12453548574779652 -0.041894053978289117 -0.0474304116588092 -0.0079113360831917449 -0.023056459877492417 -0.018710657912695796 0.14595552006006127 -0.042022037757736753 -0.038516987276991814 0.10934585988441795 -0.043552342558911439
leaf_weight=33.065032228827477 168.46054039895535 161.794413626194 55.49209988117218 15.078692212700842 23.364416733384132 16.355833262205124 21.051904425024986 34.28968158364296 91.891449630260468 60.798818409442902 11.846451118588446 2619.515366718173 291.59454786777496 10.047231853008267 22.944519937038422 22.434016823768616 148.60273948311806 102.56832753121853 15.068049892783163 65.526523575186729 4.7307923436164865 153.83870036900043 44.280501917004585 7.6744294017553321 25.052614241838455 673.81956696510315 9.1106694489717466 5.1582916378974906 28.208010241389275 127.80645158886909
leaf_count=157 756 734 284 74 141 113 135 198 673 294 87 19705 2144 50 122 147 1053 729 73 322 35 1130 317 51 165 3015 48 32 177 915
internal_value=0 -0.0238877 -0.0343046 0.0678861 0.0674125 -0.0437037 0.0233367 -0.0461153 0.0134933 0.0979907 0.139309 -0.049136 -0.0297243 -0.0115601 -0.00361413 -0.0133195 -0.0200387 -0.017904 0.0598744 0.0987886 0.0872625 -0.0246154 -0.00899485 0.033031 0.0314161 0.142454 0.0824346 0.0929479 0.0813058 -0.0323086
internal_weight=0 4343.63 3899.92 327.439 443.712 3572.48 275.251 3511.83 169.046 77.1547 727.842 3342.78 723.267 431.672 165.644 186.36 397.382 150.565 37.5021 88.8909 14.778 382.604 228.766 80.1629 47.9971 715.995 42.1757 60.6504 35.8824 148.858
internal_count=33876 30569 28080 1824 2489 26256 1733 25940 1080 407 3307 24860 5155 3011 1090 1270 2813 1016 220 463 85 2728 1598 545 287 3220 205 316 228 1050
shrinkage=0.05


Tree=5
num_leaves=31
num_cat=0
split_feature=28 7 19 27 4 7 0 12 7 4 12 27 0 0 27 0 14 12 0 0 43 9 0 17 0 12 27 16 2 7
split_gain=6913.14 1479.94 810.435 436.335 339.839 610.76 244.25 189.584 177.22 149.25 130.458 121.031 112.848 95.6867 90.8894 89.8258 89.1943 86.6268 116.897 172.951 85.5817 80.7024 80.3528 77.8467 65.1609 48.1244 47.4692 45.9101 42.0533 37.9083
threshold=1.0500000000000003 4722.5000000000009 394.50000000000006 0.99878147847278653 12.500000000000002 8904.5000000000018 48843.000000000007 13.500000000000002 15417.500000000002 5.5000000000000009 242.50000000000003 1.7478813559322035 48843.000000000007 52793.500000000007 1.4463601532567052 48843.000000000007 2869.5000000000005 1.0000000180025095e-35 49956.500000000007 48843.000000000007 42.125000000000007 46.000000000000007 1458.5000000000002 5.5000000000000009 57075.500000000007 173.50000000000003 0.99878147847278653 82.500000000000014 987.50000000000011 15417.500000000002
decision_type=8 10 8 2 2 10 2 10 10 2 10 2 2 2 2 2 10 10 2 2 2 8 2 10 2 10 2 10 2 10
left_child=6 11 3 12 5 10 22 8 -7 26 24 -2 -3 15 16 -10 28 18 19 -6 27 23 -1 -19 -4 -14 -9 -5 -8 -11
right_child=1 2 4 20 17 7 14 9 13 29 -12 -13 25 -15 -16 -17 -18 21 -20 -21 -22 -23 -24 -25 -26 -27 -28 -29 -30 -31
leaf_value=0.10527492782179687 0.11830360029313823 -0.049311348206188432 0.1309096837228543 -0.042406083515895837 -0.055273490278646323 -0.056409407917618837 0.018368771474813653 -0.045524092747512707 -0.048540683484477654 -0.058802358176507009 -0.050591344518343961 -0.049621916521033774 0.13078602611536996 -0.024344026368990274 -0.0098904097812166913 0.12067594572915044 -0.04717173795280924 -0.027071760397493583 -0.050815150744861252 0.11222861073487966 -0.045434747413006647 -0.054687573331104682 -0.055009608993980753 0.11822728234851332 -0.024282714811503209 0.012232520150711459 0.1021731668059459 0.12158367153342745 0.12934179114667282 -0.034987165663374391
leaf_weight=8.9379785358905774 174.42433382570744 9.2991317212581617 82.236908063292503 5.0056912899017343 25.682378843426704 40.652661547064781 9.3435249924659711 5.7384700179100063 7.9903364032506934 255.9361876398325 11.84403909742832 10.365400508046148 119.34607629477978 20.142104089260101 12.022879779338835 54.876073658466339 6.3683800846338263 30.24274654686451 83.183061361312866 33.327923759818077 85.765262514352798 2401.3002484887838 25.511633068323135 10.950455278158186 6.7324685156345359 9.67890517413616 22.371201500296593 11.611254528164864 894.960942953825 528.61588677763939
leaf_count=42 778 68 394 38 191 290 57 39 56 1952 91 79 534 136 82 274 41 217 610 174 633 18755 194 63 46 63 110 51 3843 3975
internal_value=0 -0.0290487 -0.0356798 0.0528469 -0.0415892 -0.017366 0.12024 -0.0300116 0.0273242 -0.038782 0.098382 0.108454 0.110145 0.0686944 0.125111 0.098335 0.126911 -0.0512881 -0.0131344 0.0399064 -0.0251937 -0.0534967 -0.00992903 0.0152392 0.11889 0.122215 0.0710003 0.0729348 0.128238 -0.0428859
internal_weight=0 4047.32 3862.53 240.706 3621.82 1037.14 957.145 936.323 123.661 812.662 100.813 184.79 138.324 83.0085 922.696 62.8664 910.673 2584.69 142.193 59.0103 102.382 2442.49 34.4496 41.1932 88.9694 129.025 28.1097 16.6169 904.304 784.552
internal_count=33876 29617 28760 1387 27373 7363 4259 6832 756 6076 531 857 665 466 4023 330 3941 20010 975 365 722 19035 236 280 440 597 149 89 3900 5927
shrinkage=0.05


Tree=6
num_leaves=31
num_cat=0
split_feature=7 14 12 14 3 9 19 7 26 19 3 13 27 14 4 31 27 17 19 27 17 22 15 9 16 11 11 44 7 27
split_gain=5158.65 1384.96 1273.03 502.105 407.258 380.304 225.416 184.644 165.771 148.199 134.528 132.728 125.624 116.419 99.1494 96.7474 95.686 90.8164 117.741 67.4212 98.8558 65.9788 52.4004 51.088 46.8614 46.6398 69.9492 45.3552 42.411 40.2807
threshold=4722.5000000000009 131.00000000000003 1.0000000180025095e-35 168.00000000000003 799.50000000000011 13907.500000000002 365.00000000000006 8904.5000000000018 0.37234978351817827 198.50000000000003 1819.5000000000002 25.500000000000004 2.007352941176471 406.00000000000006 13.500000000000002 0.4169995933771134 1.001449275362319 3.5000000000000004 19325.000000000004 1.1530100334448161 4.5000000000000009 1797.0000000000002 58.500000000000007 38.000000000000007 82.500000000000014 55.000000000000007 51.500000000000007 63.667839208331451 8904.5000000000018 0.81785003317850047
decision_type=10 8 10 10 2 10 8 10 2 10 2 10 2 8 2 2 2 10 10 2 10 10 10 10 10 8 10 2 10 2
left_child=12 5 3 -3 -4 7 9 8 -2 15 11 13 25 -8 29 -6 -11 18 -7 20 28 -22 27 -10 -17 26 -1 -23 -15 -5
right_child=1 2 4 14 6 17 10 -9 23 16 -12 -13 -14 19 -16 24 -18 -19 -20 -21 21 22 -24 -25 -26 -27 -28 -29 -30 -31
leaf_value=0.097384090835330839 0.098334598720008104 0.11826744477202365 0.081011501135982378 0.091565053262263232 -0.044652513739529533 0.11880672564627587 0.073227501775345427 -0.058954285225177816 0.07526588344269558 0.10669445915544717 -0.053171094563850531 -0.05518264174983787 -0.049147191408705868 0.088189992374025722 -0.033171684810332738 -0.03365649188405636 -0.044337087215604101 0.11603092327802776 0.0015194274895143605 -0.044351307087379832 -0.035448646772434519 0.12271997167830898 -0.04568023588555864 -0.045175733553100138 0.12104134815585049 0.12283702385812299 -0.044577178176733678 0.0083249395085416202 -0.027983082089241513 0.00979359297071806
leaf_weight=35.917246922850609 59.985844567418098 173.60216890275478 64.047902822494507 25.651050552725792 89.613781407475471 35.567812830209732 36.016671180725098 70.624850943684578 9.0596843659877759 46.181807845830917 2432.7197490781546 270.98740150779486 10.178216926753519 6.3420991301536551 102.86374492943287 6.1337137669324884 12.188882917165754 187.62390346825123 49.834456399083138 150.61575439572334 16.588908016681671 33.204585209488869 6.5786669701337805 42.789251983165741 13.292021542787552 723.85471649467945 9.9599464982748014 11.899253249168394 158.66504418104887 34.272305458784103
leaf_count=158 308 734 316 124 681 155 198 516 47 206 19705 2144 80 32 756 45 90 816 327 1165 118 190 49 320 58 3017 52 83 1176 210
internal_value=0 -0.0227017 -0.0328568 0.0596255 -0.0421593 0.0593836 -0.0446041 0.00337655 0.0430833 0.0117943 -0.0476324 -0.028033 0.117306 -0.0103336 -0.00358888 -0.0226367 0.0747323 0.0965156 0.0519674 -0.0185121 -0.00159396 0.0481731 0.0753344 -0.0221169 0.0736131 0.119629 0.0659896 0.0941753 -0.0225153 0.0466239
internal_weight=0 4146.95 3691.47 336.389 3355.08 455.486 3291.03 182.46 111.835 167.41 3123.62 690.898 779.91 419.911 162.787 109.04 58.3707 273.026 85.4023 383.894 233.279 68.2714 51.6825 51.8489 19.4257 769.732 45.8772 45.1038 165.007 59.9234
internal_count=33876 30569 28080 1824 26256 2489 25940 1191 675 1080 24860 5155 3307 3011 1090 784 296 1298 482 2813 1648 440 322 367 103 3227 210 273 1208 334
shrinkage=0.05


Tree=7
num_leaves=31
num_cat=0
split_feature=28 14 4 9 0 0 3 12 14 15 27 27 27 19 17 27 14 17 44 0 24 0 12 0 3 0 0 0 14 0
split_gain=5521.76 916.494 816.042 343.15 311.305 295.006 280.064 227.861 240.904 183.615 179.656 147.025 136.83 101.582 125.658 85.0696 86.193 66.062 195.881 57.4 56.6854 54.2426 52.4046 60.6418 48.3043 54.3042 117.654 82.0065 51.8198 47.7457
threshold=1.0500000000000003 379.00000000000006 14.500000000000002 95.000000000000014 48843.000000000007 52793.500000000007 799.50000000000011 1.0000000180025095e-35 379.00000000000006 79.500000000000014 0.99878147847278653 1.001449275362319 0.87474137931034501 286.00000000000006 5.5000000000000009 1.9145223739323567 2869.5000000000005 15.500000000000002 37.760345989963206 49360.500000000007 79.297058823529426 49298.500000000007 5.5000000000000009 50328.500000000007 1819.5000000000002 53063.000000000007 48843.000000000007 50284.500000000007 710.50000000000011 48843.000000000007
decision_type=8 8 2 10 2 2 2 10 10 10 2 2 2 10 10 2 10 10 2 2 2 2 10 2 2 2 2 2 10 2
left_child=9 2 4 11 -2 -6 21 8 -8 15 13 -3 -7 -4 22 16 20 24 19 -19 -1 -5 23 29 25 26 -9 28 -28 -15
right_child=1 3 10 6 5 12 7 17 -10 -11 -12 -13 -14 14 -16 -17 -18 18 -20 -21 -22 -23 -24 -25 -26 -27 27 -29 -30 -31
leaf_value=-0.030034341894655682 -0.057091333047614601 0.087137061585624509 0.097602447601356973 -0.050792564671019891 0.10878269673568453 0.070536759042499092 0.10429359949904873 -0.057191363823664014 -0.036300767525640112 -0.051369478970903604 -0.052557283776392287 -0.024698958137268884 -0.040505766949553428 -0.040602092188039944 0.11577542515139055 -0.039553747712529237 -0.048025202446496024 -0.043152087911890805 -0.047028178437110713 0.12256200587006334 0.11071652419060307 0.090374844954393269 -0.054683546976162546 -0.040997479528182737 -0.054968090558374864 -0.05384486532831069 0.087577326957597637 -0.022797787954091642 -0.0032570162657202051 0.13252526247644456
leaf_weight=6.4396232217550269 44.006122231483459 70.343772120773792 28.059334315359592 6.6631938815116873 273.43820713460445 49.577100694179535 48.541611105203629 130.09457319229841 74.961025640368462 17.55613949149847 293.72477625310421 48.283952198922634 58.122435681521893 4.5010380223393467 15.994982436299322 8.882624037563799 7.6983212530612937 5.3944985494017628 109.53270966559649 25.157388038933277 958.58931226283312 43.809538573026657 62.131288565695286 17.750079765915871 1991.8960830569267 275.13271836936474 36.146438106894493 92.712853021919727 26.448906674981117 11.840742290019987
leaf_count=43 337 352 134 37 1231 258 205 1057 554 136 2377 343 415 36 89 67 55 42 899 142 3958 209 502 137 16817 2215 251 721 193 64
internal_value=0 -0.0277458 0.0177293 -0.0408371 0.0668139 0.0813433 -0.0442905 -0.0463968 0.01974 0.104077 -0.0304393 0.0419627 0.0109643 0.0159611 -0.00580434 0.106956 0.108373 -0.0494428 -0.0157357 0.0924486 0.109717 0.0705129 -0.0279602 0.0210737 -0.051279 -0.0380207 -0.0224974 0.00692183 0.0502839 0.0856129
internal_weight=0 3844.27 859.146 2985.12 425.144 381.138 2866.49 2816.02 123.503 999.166 434.002 118.628 107.7 140.277 112.218 981.61 972.727 2692.52 140.085 30.5519 965.029 50.4727 96.2231 34.0919 2552.43 560.535 285.403 155.308 62.5953 16.3418
internal_count=33876 29617 5580 24037 2241 1904 23342 23096 759 4259 3339 695 673 962 828 4123 4056 22337 1083 184 4001 246 739 237 21254 4437 2222 1165 444 100
shrinkage=0.05


Tree=8
num_leaves=31
num_cat=0
split_feature=28 7 19 1 0 0 4 15 0 0 0 24 12 15 13 17 9 22 0 24 17 4 15 0 16 15 13 44 15 13
split_gain=4966.75 1113.11 659.385 324.277 312.391 474.755 527.01 292.963 213.726 210.201 162.77 156.463 151.159 123.412 99.7022 93.1613 87.8272 76.3198 63.2036 60.2254 50.3817 44.1292 42.7255 140.265 40.8289 44.3372 38.6018 35.4045 34.0766 33.8141
threshold=1.0500000000000003 4722.5000000000009 394.50000000000006 1285.5000000000002 52983.000000000007 48843.000000000007 13.500000000000002 77.500000000000014 49556.500000000007 50328.500000000007 48843.000000000007 716.34705882352944 1.0000000180025095e-35 34.500000000000007 77.500000000000014 25.500000000000004 46.000000000000007 1508.0000000000002 1458.5000000000002 609.23333333333346 22.500000000000004 16.500000000000004 6.5000000000000009 50586.500000000007 10.500000000000002 57.000000000000007 43.500000000000007 30.728142634097438 34.500000000000007 12.500000000000002
decision_type=8 10 8 2 2 2 2 10 2 2 2 2 10 8 10 8 8 10 2 2 8 2 10 2 10 8 10 2 10 10
left_child=10 17 3 13 5 -4 7 9 11 14 18 21 -5 -3 -7 26 20 19 -1 -2 -10 -8 -12 -24 -18 27 28 -26 -11 -13
right_child=1 2 4 12 -6 6 8 -9 16 15 22 29 -14 -15 -16 -17 24 -19 -20 -21 -22 -23 23 -25 25 -27 -28 -29 -30 -31
leaf_value=0.086169123586208984 -0.022891527264949346 -0.030835119102221011 -0.057649415764873306 0.086865349516739368 -0.054828429816662465 0.10086162865114612 0.046987763219520209 -0.056479500195869996 0.14542508034552945 0.045147743554697327 0.10494380819276401 0.12971136142658923 -0.055905985886976775 0.11043565594380818 -0.033996961733664455 -0.021442699639789065 -0.053224872420586503 0.10436238270367881 -0.053951268956898751 0.093779031433294302 -0.041789316120256076 -0.042764388007359239 0.10202180045816189 -0.033736179036528806 0.17120537817329995 -0.050372153496234029 -0.031522083710047798 0.010454669586130103 0.13458212580169146 0.025921814670135157
leaf_weight=9.7640160620212537 24.824775904417038 16.717156238853931 641.68335926532745 22.242525488138199 1644.7531965970993 188.46471634507179 17.126027941703796 64.047361105680466 7.4756350219249699 39.460861898958683 882.53585012257099 30.699924558401108 77.736951567232609 125.84165062010288 13.829703010618685 84.206654615700245 457.87164367735386 154.30951945483685 23.580524764955044 17.117090672254562 4.6235642731189737 47.237835764884949 70.372528925538063 24.693359076976776 3.4811553955078152 13.728314168751238 9.2051580697298032 9.8969700112938863 14.796413049101828 11.873680889606474
leaf_count=42 153 123 5531 94 14134 991 127 533 38 258 3584 176 633 537 106 616 3958 633 194 71 34 401 292 147 24 119 75 84 78 90
internal_value=0 -0.0271154 -0.0335434 0.0457564 -0.0393879 -0.024039 -0.00278219 0.0405584 -0.032525 0.0585375 0.0976786 0.0311577 -0.0230629 0.0936721 0.0913996 0.0128994 -0.0462952 0.0882292 -0.0103667 0.0268246 0.0781038 -0.0181867 0.101378 0.0667901 -0.0497067 0.00929393 0.0577301 0.06911 0.0734547 0.103227
internal_weight=0 3743.25 3547 242.538 3304.46 1659.71 1018.03 414.011 604.015 349.964 1010.95 106.937 99.9795 142.559 202.294 147.669 497.077 196.251 33.3445 41.9419 12.0992 64.3639 977.602 95.0659 484.978 27.1064 63.4624 13.3781 54.2573 42.5736
internal_count=33876 29617 28760 1387 27373 13239 7708 2657 5051 2124 4259 794 727 660 1097 1027 4257 857 236 224 72 528 4023 439 4185 227 411 108 336 266
shrinkage=0.05


Tree=9
num_leaves=31
num_cat=0
split_feature=28 7 19 3 1 12 22 15 12 17 15 15 27 14 45 27 7 7 14 27 3 14 14 12 38 22 24 22 23 25
split_gain=4494.63 1017.23 612.619 426.805 286.76 207.085 155.138 144.427 139.661 125.325 232.015 108.168 99.4293 100.719 78.3008 75.2241 74.9364 128.791 69.8829 70.6172 47.9898 50.4809 46.0691 45.5209 43.9137 43.7322 43.3631 41.3051 32.1488 38.6034
threshold=1.0500000000000003 4722.5000000000009 394.50000000000006 799.50000000000011 1285.5000000000002 13.500000000000002 1797.0000000000002 79.500000000000014 1.0000000180025095e-35 15.500000000000002 71.500000000000014 34.500000000000007 0.88943862372267501 379.00000000000006 179.50000000000003 1.7478813559322035 8904.5000000000018 15417.500000000002 2869.5000000000005 2.1089906700593728 2013.5000000000002 406.00000000000006 379.00000000000006 34.500000000000007 5.5000000000000009 1951.5000000000002 85.562940140845086 2465.5000000000005 1765.0000000000002 157.218253968254
decision_type=8 10 8 2 2 10 10 10 10 10 8 8 2 10 2 2 10 10 10 2 2 10 10 10 2 10 2 10 10 2
left_child=7 15 4 25 11 6 12 18 -6 20 14 -3 13 -5 -11 -2 -8 -18 19 26 21 23 -19 -7 -24 -4 -1 -25 -29 -30
right_child=1 2 3 5 8 9 16 -9 -10 10 -12 -13 -14 -15 -16 -17 17 22 -20 -21 -22 -23 24 27 -26 -27 -28 28 29 -31
leaf_value=-0.015596602706883851 0.09000978707246246 -0.029999698941479865 0.094645880927370696 0.051252387483955955 0.08196114913371981 0.033475161853526107 0.10090787622033999 -0.050028962940165102 -0.055345522264233699 0.10737878563315405 -0.051303975467381219 0.1031575116749254 -0.049555659368265843 -0.038346510962718197 -0.039744073887995182 -0.047614175853555242 -0.056488923768959858 0.074322990833139327 -0.047493962951252786 -0.046586110310139511 -0.053945023065214717 -0.053443295890265446 -0.037456860189992773 -0.037414791840890853 0.085858259607576426 -0.0077191226682463048 0.098011854387705807 -0.042628414387516328 -0.028186198652605909 0.08278515404609614
leaf_weight=7.9564126357436171 188.71149614453316 16.387725353240967 62.343725696206093 60.0686100050807 22.507081523537636 28.971824951469898 27.484987936913967 16.375174164772034 74.695290081202984 43.348294481635094 86.860523596405983 128.06287556886673 233.05941371619701 61.442463167011738 10.178061902523039 9.2819915041327459 43.188258491456509 54.583373069763184 7.4590324014425269 7.5357945635914794 1837.2075403779745 283.62660446763039 22.697852991521362 280.15601548552513 8.202088035643099 12.109567165374754 977.0979957357049 15.070412009954451 11.213109217584135 19.012680448591709
leaf_count=52 778 123 269 375 94 177 133 136 633 227 760 537 2004 528 91 79 344 270 55 60 16725 2525 168 2305 53 68 3956 126 89 136
internal_value=0 -0.0265252 -0.0328776 -0.0386769 0.0436244 -0.0415092 -0.0123287 0.0922947 -0.0225409 -0.0471932 -0.00121822 0.0878476 -0.0305694 0.00605911 0.0789794 0.0831463 0.0289517 0.0122723 0.0947203 0.0958824 -0.0497976 -0.0377242 0.0475093 -0.0249158 -0.00149455 0.0782302 0.0970645 -0.0302865 0.0135196 0.0424229
internal_weight=0 3640.47 3442.48 3200.83 241.653 3126.37 510.727 1016.42 97.2024 2615.65 140.387 144.451 354.57 121.511 53.5264 197.993 156.157 128.672 1000.05 992.59 2475.26 638.051 85.4833 354.424 30.8999 74.4533 985.054 325.452 45.2962 30.2258
internal_count=33876 29617 28760 27373 1387 27036 3875 4259 727 23161 1078 660 2907 903 318 857 968 835 4123 4068 22083 5358 491 2833 221 337 4008 2656 351 225
shrinkage=0.05


Tree=10
num_leaves=31
num_cat=0
split_feature=7 12 17 14 27 7 14 36 4 15 0 36 4 7 0 0 27 33 0 2 15 0 0 38 2 18 27 24 7 19
split_gain=3424.09 1054.58 730.148 602.976 370.72 244.751 185.024 134.21 123.254 109.583 102.857 101.841 87.2298 99.188 82.9642 172.396 80.7686 80.7639 79.1508 103.81 77.9777 72.9784 86.9036 64.1464 63.8205 59.7205 51.762 46.8078 46.3329 40.7456
threshold=4722.5000000000009 13.500000000000002 15.500000000000002 379.00000000000006 1.001449275362319 8904.5000000000018 73.500000000000014 -0.01208005705848336 9.5000000000000018 26.500000000000004 48843.000000000007 -0.15525802969932553 12.500000000000002 8904.5000000000018 53063.000000000007 48843.000000000007 2.007352941176471 0.3267898708581925 50328.500000000007 15259.000000000002 78.500000000000014 50200.500000000007 48843.000000000007 5.5000000000000009 3825.5000000000005 18954.000000000004 1.1606451612903228 442.85353535353539 8904.5000000000018 365.00000000000006
decision_type=10 10 10 10 2 10 8 2 2 8 2 2 2 10 2 2 2 2 2 2 10 2 2 2 2 10 2 2 10 8
left_child=16 3 6 4 10 -4 25 11 14 -9 -2 -7 13 -5 15 -8 -1 -13 -12 -20 24 22 -6 -15 26 -3 -17 -27 -29 -10
right_child=1 2 5 12 21 7 8 9 29 -11 18 17 -14 23 -16 20 -18 -19 19 -21 -22 -23 -24 -25 -26 27 -28 28 -30 -31
leaf_value=0.094194574327742628 -0.049605308793795912 0.090535065249887914 0.099682533090979797 0.10418722477407381 -0.05340487820043948 -0.051431889457041503 -0.056491357968125058 0.06905103060915159 -0.012539719727690147 -0.053324414794911734 0.10337318809604482 0.10417774043562866 -0.044645812872069951 -0.040305209562440283 -0.045655523308850893 0.10884467687162572 -0.047186929844076533 -0.017696826080023469 0.074690512134425666 -0.031586632624993193 -0.052336234936959936 -0.050267842876629089 0.079512409148140714 0.088853914031228998 -0.011540266158272933 -0.045736797068919727 0.023953492004136535 0.086248703733325091 -0.046878820194254212 -0.051798874961851239
leaf_weight=801.10588151216507 13.318450905382631 25.800652056932449 102.73162533342838 20.934141784906387 18.388025514781475 18.215549170970917 73.447790771722794 20.817413367331028 69.779644899070263 93.396323971450329 251.67055767029524 56.355691634118557 219.55770825594664 51.136144503951073 153.81763974577188 48.557112284004688 9.1071620360016805 17.037310570478439 135.5289284735918 26.414924845099449 18.113255754113197 70.444839723408222 29.554229900240898 9.7887541279196721 25.940275631844997 26.178073473274708 30.001009061932564 18.39744429290295 8.0900866240262967 2093.7033733278513
leaf_count=3227 103 104 413 90 153 168 644 101 507 840 1042 267 1942 381 1321 269 80 138 625 193 156 587 150 52 180 204 197 91 68 19583
internal_value=0 -0.020744 -0.0350717 0.0283004 0.0595921 0.0374533 -0.0437279 0.00573256 -0.0460916 -0.0302149 0.0812188 0.0502384 -0.0283319 0.0154457 -0.0184205 0.00319182 0.0924931 0.0761671 0.0856498 0.0571816 0.0392766 -0.0184531 0.0284355 -0.0173888 0.0558409 0.0312479 0.0778247 -4.63373e-05 0.045151 -0.0505454
internal_weight=0 3747.12 2900.38 846.737 545.32 308.554 2591.83 205.822 2513.36 114.214 426.933 91.6086 301.417 81.859 349.877 196.059 810.213 73.393 413.614 161.944 122.612 118.387 47.9423 60.9249 104.498 78.4663 78.5581 52.6656 26.4875 2163.48
internal_count=33876 30569 25251 5318 2853 1927 23324 1514 22857 941 1963 573 2465 523 2767 1446 3307 405 1860 818 802 890 303 433 646 467 466 363 159 20090
shrinkage=0.05


Tree=11
num_leaves=31
num_cat=0
split_feature=28 7 19 3 1 12 4 12 17 7 15 15 14 45 22 14 27 7 7 16 24 10 17 14 22 4 24 27 37 15
split_gain=3744.37 845.467 535.657 372.343 241.62 190.19 148.6 120.652 118.739 230.125 117.317 90.3516 86.5395 62.4253 62.2367 57.6238 57.7159 55.7336 118.017 55.1856 49.4605 44.9691 42.4944 39.4677 38.6097 35.8409 35.0214 34.4023 33.2642 32.4194
threshold=1.0500000000000003 4722.5000000000009 394.50000000000006 799.50000000000011 1285.5000000000002 13.500000000000002 13.500000000000002 1.0000000180025095e-35 6.5000000000000009 8904.5000000000018 79.500000000000014 34.500000000000007 1.0000000180025095e-35 65.500000000000014 1508.0000000000002 2869.5000000000005 2.1089906700593728 8904.5000000000018 15417.500000000002 16.500000000000004 609.23333333333346 247.50000000000003 6.5000000000000009 379.00000000000006 2465.5000000000005 7.5000000000000009 79.297058823529426 0.90953460855846979 1.5000000000000002 57.000000000000007
decision_type=8 10 8 2 2 10 2 10 10 10 10 8 10 2 10 10 2 10 10 10 2 10 10 10 10 2 2 2 2 8
left_child=10 14 4 25 11 6 17 -6 24 21 15 -3 -8 19 20 16 26 -5 -19 -11 -2 -10 -14 -20 -7 -4 -1 -24 -25 -15
right_child=1 2 3 5 7 8 12 -9 9 13 -12 -13 22 29 -16 -17 -18 18 23 -21 -22 -23 27 28 -26 -27 -28 -29 -30 -31
leaf_value=-0.023231676045445758 -0.025658989575041615 -0.02907624118717116 0.085379776617160244 0.084431716588122624 0.073720293734277076 -0.052049114686148305 0.074279383732451326 -0.054565214984404031 0.10091556098487438 -0.022759490295275808 -0.048711807094644788 0.093795139020760282 -0.041411764139861224 -0.015437530440784945 0.088281079160342113 -0.046222365437114249 -0.045293647116803934 -0.054971247987667372 0.065744277815564953 0.15561653165785094 0.078907764161349814 -0.041211324997297745 0.10414197988257611 -0.03232078302398763 -0.019581062165152669 -0.0074696919663709413 0.088814837583446229 -0.041840444926299611 0.076282771519005116 -0.050977148420153176
leaf_weight=6.2760033905506125 25.003879897296429 15.957529850304125 63.731459081172943 31.147957310080528 22.655661448836327 1976.0750758126378 16.516899682581425 70.333960458636284 40.337415255606174 8.5070724263787252 15.231595218181608 129.51870392262936 297.56998525559902 96.998000614345074 157.23799878358841 7.0278028324246398 7.0468831807374945 43.074999503791332 62.064059294760227 6.0082257091999045 17.648673921823502 5.2994004860520354 7.6270479857921583 23.613726012408737 99.33909847587347 11.981941238045691 976.39351553469896 5.4774222075939178 7.730657458305358 201.85917805880308
leaf_count=44 153 123 269 147 94 19163 70 633 179 81 136 537 2675 879 633 55 60 362 293 33 71 51 50 180 863 68 3964 51 47 1912
internal_value=0 -0.0254459 -0.0316089 -0.0373363 0.0402734 -0.0401797 -0.0118622 -0.0224161 -0.045921 -0.0192285 0.0838651 0.0801056 -0.0314121 -0.0346047 0.0738779 0.0859845 0.0870146 0.0262167 0.0119035 0.0609784 0.0192047 0.0833743 -0.0374703 0.0432485 -0.0505154 0.0708719 0.0880535 0.0456634 -0.00256637 -0.0396216
internal_weight=0 3443.32 3243.43 3004.96 238.466 2929.25 494.823 92.9896 2434.42 359.009 1011.98 145.476 327.191 313.372 199.891 996.744 989.716 167.631 136.483 14.5153 42.6526 45.6368 310.674 93.4084 2075.41 75.7134 982.67 13.1045 31.3444 298.857
internal_count=33876 29617 28760 27373 1387 27036 3875 727 23161 3135 4259 660 2846 2905 857 4123 4068 1029 882 114 224 230 2776 520 20026 337 4008 101 227 2791
shrinkage=0.05


Tree=12
num_leaves=31
num_cat=0
split_feature=28 7 19 3 0 0 13 1 3 12 0 24 15 17 15 22 25 0 0 0 22 0 15 13 9 2 4 16 37 7
split_gain=3422.69 778.569 498.709 343.888 244.659 661.301 269.28 217.061 145.817 112.226 111.264 103.81 80.9587 70.0314 59.0241 55.8824 66.7295 46.9793 42.0473 37.6021 32.9486 59.0448 52.4271 39.6306 32.3896 32.1675 30.9378 30.6191 27.5278 43.4753
threshold=1.0500000000000003 4722.5000000000009 394.50000000000006 799.50000000000011 50437.500000000007 48843.000000000007 41.500000000000007 1285.5000000000002 2163.5000000000005 1.0000000180025095e-35 48843.000000000007 665.93650793650806 34.500000000000007 8.5000000000000018 78.500000000000014 1508.0000000000002 156.40833333333336 1458.5000000000002 49624.500000000007 49200.500000000007 1951.5000000000002 53063.000000000007 58.500000000000007 30.500000000000004 231.50000000000003 987.50000000000011 7.5000000000000009 4.5000000000000009 6.5000000000000009 8904.5000000000018
decision_type=8 10 8 2 2 2 10 2 2 10 2 2 8 10 10 10 2 2 2 2 10 2 8 10 10 2 2 10 2 10
left_child=10 15 7 19 5 -5 8 12 14 -9 17 13 -3 -10 -7 16 -2 -1 -13 -4 -6 22 23 -22 -8 -12 -21 -20 -27 -30
right_child=1 2 3 4 20 6 24 9 11 -11 25 18 -14 -15 -16 -17 -18 -19 27 26 21 -23 -24 -25 -26 28 -28 -29 29 -31
leaf_value=0.068224918595574266 0.07914548718810209 -0.028274499241321849 -0.048315959865296756 -0.056166508029080332 -0.053845548811748703 0.087579416613641187 0.041440712060287502 0.07025130972650466 -0.029949905110966832 -0.054060356424616755 0.00086944809247138882 0.097261663928247213 0.088913471930118768 0.072543238868082768 -0.045482843723893961 0.084125564095243327 -0.041064639211509046 -0.052798320596645035 -0.025839064575088784 0.089904920951206474 0.049054235706204034 -0.049515209084541489 -0.043071869211533095 -0.032257665397270728 -0.054179817776025985 0.085517841490365606 -0.0018072007592043677 0.074817457748078936 0.076035839618242201 -0.057954947863258034
leaf_weight=10.289709791541101 20.663722649216652 15.654038943350313 5.2542990446090689 546.36637863516808 1442.404738239944 155.06426288187504 8.3226972967386228 22.683452621102333 97.477107882499695 67.530951902270317 11.75816974043846 38.446569554507732 129.89580276608467 18.066141106188297 7.6191286370158187 156.86083334684372 21.719077572226524 21.217520840466022 16.813560441136364 60.421095043420792 43.767022326588631 282.17240080237389 53.422979742288589 20.620191238820553 92.100156188011169 939.9894397482276 10.692842856049536 10.755407847464083 13.646859064698219 8.0548217073082924
leaf_count=42 84 123 29 5503 14569 836 64 94 883 633 67 224 537 104 69 633 140 194 154 248 296 2670 491 180 915 3860 60 78 56 40
internal_value=0 -0.024909 -0.0309922 -0.0366623 -0.0394973 -0.0194091 0.0258045 0.0387078 0.046778 -0.0219578 0.0802304 0.0156813 0.0760974 -0.0129626 0.0808709 0.0704816 0.0184692 -0.0115611 0.064722 0.066845 -0.05027 -0.0371723 -0.00727634 0.0228266 -0.0456007 0.0832189 0.0764427 0.0158342 0.0842219 0.0256098
internal_weight=0 3344.79 3145.55 2909.79 2833.42 991.031 444.665 235.764 344.242 90.2144 1004.96 181.559 145.55 115.543 162.683 199.244 42.3828 31.5072 66.0155 76.3682 1842.39 399.983 117.81 64.3872 100.423 973.449 71.1139 27.569 961.691 21.7017
internal_count=33876 29617 28760 27373 27036 8830 3327 1387 2348 727 4259 1443 660 987 905 857 224 236 456 337 18206 3637 967 476 979 4023 308 232 3956 96
shrinkage=0.05


Tree=13
num_leaves=31
num_cat=0
split_feature=28 7 19 3 0 0 13 27 4 24 0 15 0 27 16 27 0 0 0 26 0 11 11 8 7 3 0 15 16 8
split_gain=3139.41 718.702 464.994 318.31 236.757 622.538 243.345 202.631 125.985 149.074 100.327 71.8079 55.7272 51.31 48.8753 46.1835 43.7538 39.9434 38.2242 38.1283 34.173 32.9245 51.4139 32.1241 62.8164 29.4175 59.1327 41.9794 40.3329 28.4304
threshold=1.0500000000000003 4722.5000000000009 394.50000000000006 799.50000000000011 50437.500000000007 48843.000000000007 41.500000000000007 0.99878147847278653 16.500000000000004 665.93650793650806 48843.000000000007 77.500000000000014 48843.000000000007 1.7478813559322035 55.500000000000007 1.2681658732147334 1458.5000000000002 49624.500000000007 49657.500000000007 1.4529654868160076 49200.500000000007 55.000000000000007 51.500000000000007 2903.0000000000005 8904.5000000000018 1871.5000000000002 53063.000000000007 58.500000000000007 26.500000000000004 227.00000000000003
decision_type=8 10 8 2 2 2 10 2 2 2 2 10 2 2 10 2 2 2 2 2 2 8 10 8 10 2 2 8 8 10
left_child=10 13 7 20 5 -5 8 12 11 -10 16 19 -3 21 -9 -12 -1 -11 -17 23 -4 22 -2 24 -7 26 27 28 -6 -8
right_child=1 2 3 4 25 6 29 14 9 17 15 -13 -14 -15 -16 18 -18 -19 -20 -21 -22 -23 -24 -25 -26 -27 -28 -29 -30 -31
leaf_value=0.065128629451205108 0.061608169822124782 -0.047200836616601627 -0.047430124738348386 -0.055811926903190347 0.051648343518894385 0.085973661304701673 0.057763189071916757 -0.042147565416126381 -0.044433301919427404 0.091004452396613256 0.081438838323915339 -0.048305114026989955 0.080124287459336488 -0.045740103876672961 0.047644788431598958 0.076810227061519173 -0.052263594505152389 0.010293687572252252 -0.050575883508390762 0.021087586615304132 0.072398676062274514 0.084181144661701568 -0.059408217941934897 0.093607085745345597 -0.051567886632841092 -0.053238814011145677 -0.049336722604416794 -0.041319108587765933 -0.026355764994173005 -0.051374291893830887
leaf_weight=10.333777800202371 33.327970817685127 7.8872354403138152 5.1254404336214057 522.95039439201355 37.97062274813652 19.786901563405991 4.7520312294363967 68.654947035014629 69.500141441822052 38.180213183164597 944.11112734675407 11.342834040522574 138.5613762140274 8.287323445081709 17.505735196173191 8.3022415712475794 20.403964228928089 25.698880977928638 11.758217722177504 30.444362491369247 71.447820723056793 146.37700489163399 9.9229432046413404 141.4078226685524 11.728789508342745 1375.6098628491163 284.39692594110966 47.07806608825922 26.669023841619492 92.088034003973007
leaf_count=42 137 68 29 5503 253 87 36 622 679 220 3906 109 597 79 100 35 194 219 82 220 308 595 46 726 88 14542 2762 428 221 943
internal_value=0 -0.0244175 -0.0304227 -0.0360376 -0.0388604 -0.0189185 0.0245 0.0372837 0.0439701 0.00564868 0.0770161 0.0675037 0.0727234 0.0674695 -0.023237 0.0798468 -0.0112295 0.0598324 0.00432826 0.0743704 0.0633748 0.0728428 0.0324451 0.0834029 0.0347639 -0.0497209 -0.0372981 -0.00632302 0.0196403 -0.0449584
internal_weight=0 3246.7 3048.79 2816.18 2739.6 967.88 444.93 232.609 348.09 133.379 994.909 214.711 146.449 197.915 86.1607 964.172 30.7377 63.8791 20.0605 203.368 76.5733 189.628 43.2509 172.924 31.5157 1771.72 396.115 111.718 64.6396 96.8401
internal_count=33876 29617 28760 27373 27036 8830 3327 1387 2348 1118 4259 1230 665 857 722 4023 236 439 117 1121 337 778 183 901 175 18206 3664 902 474 979
shrinkage=0.05


Tree=14
num_leaves=31
num_cat=0
split_feature=28 7 3 14 12 3 0 0 17 7 15 0 7 43 0 19 7 0 0 20 14 9 16 22 25 24 0 0 9 26
split_gain=2886.51 664.046 439.978 363.648 203.789 136.894 131.522 107.013 103.36 162.335 92.3792 85.8437 74.0115 72.4005 64.4913 71.003 53.6221 58.475 123.776 51.5528 51.0158 48.8263 43.6934 41.7587 53.9237 40.2716 33.5016 29.9596 29.3235 28.1392
threshold=1.0500000000000003 1498.0000000000002 1765.5000000000002 406.00000000000006 1.0000000180025095e-35 799.50000000000011 50328.500000000007 48843.000000000007 6.5000000000000009 8904.5000000000018 79.500000000000014 48843.000000000007 8904.5000000000018 40.875000000000007 52983.000000000007 394.50000000000006 15417.500000000002 53063.000000000007 48843.000000000007 17.500000000000004 2869.5000000000005 702.00000000000011 25.500000000000004 1508.0000000000002 156.40833333333336 85.562940140845086 49298.500000000007 50381.500000000007 29.500000000000004 0.44080367005722737
decision_type=8 10 2 8 10 2 2 2 10 10 10 2 10 2 2 10 10 2 2 10 10 10 10 10 2 2 2 2 8 2
left_child=10 23 3 11 6 26 7 -4 28 -10 20 -3 21 22 -13 -16 -14 18 -18 27 25 -7 -11 24 -2 -1 -5 -20 -6 -29
right_child=1 2 4 5 8 12 -8 -9 9 13 -12 14 16 -15 15 -17 17 -19 19 -21 -22 -23 -24 -25 -26 -27 -28 29 -30 -31
leaf_value=-0.021707284514298555 0.072872556070080335 -0.051821435995476832 -0.051408772604630476 -0.048146724609206042 0.0067733046375473257 0.095718858578046892 -0.040617584391641606 0.077312084017720939 0.092465755675381858 -0.017409165797642477 -0.047891133243721101 0.07934732256306784 -0.055153820797110689 -0.041217819162021413 0.076432004995277983 -0.031564050215182791 -0.054394650355560507 -0.043583484889534216 0.072676078955325116 -0.045871421003024507 -0.046795672650761455 -0.031390978791517206 0.093089329539029056 0.077309711545954729 -0.03825010916885737 0.078033128498311441 0.065247267581371352 -0.029429098172150517 -0.051085779357712725 0.050193453774597691
leaf_weight=9.4459473937749845 20.195544123649597 16.161460682749748 18.975886560976505 5.9535624086856833 21.73615787923336 17.585567273199562 65.750180944800377 74.215481847524643 28.280207641422749 17.284849509596825 14.021472647786139 157.13080062717199 169.38272608071566 208.63672181963921 25.485316418111324 32.345573432743549 63.768116295337677 141.80708587169647 49.41502021998167 16.084384992718697 7.1591970399022093 11.021865777671335 15.444831222295759 152.90419942140579 19.697731204330921 951.65286193042994 51.550133511424065 18.532864302396774 1708.799444809556 22.446041077375412
leaf_count=67 82 142 186 36 180 75 610 335 160 170 136 676 1777 2191 111 245 663 1410 287 142 55 98 65 627 133 4001 226 151 18670 169
internal_value=0 -0.0239466 -0.0298186 0.00188781 -0.0415379 -0.0196482 0.0128133 0.0505722 -0.0458653 -0.0169113 0.0741376 0.0544867 -0.0279306 -0.0303813 0.0628833 0.0169924 -0.0326157 -0.0201087 -0.000276235 0.0325397 0.0759998 0.0478949 0.037092 0.0655199 0.0187979 0.0770098 0.0522835 0.0471829 -0.0503521 0.0144901
internal_weight=0 3150.59 2957.79 798.671 2159.12 567.547 158.942 93.1914 2000.18 269.647 982.279 231.123 510.044 241.366 214.962 57.8309 481.436 312.054 170.246 106.478 968.258 28.6074 32.7297 192.797 39.8933 961.099 57.5037 90.3939 1730.54 40.9789
internal_count=33876 29617 28775 6208 22567 5034 1131 521 21436 2586 4259 1174 4772 2426 1032 356 4599 2822 1412 749 4123 173 235 842 215 4068 262 607 18850 320
shrinkage=0.05


Tree=15
num_leaves=31
num_cat=0
split_feature=28 7 3 14 12 3 0 17 7 0 37 0 45 7 0 19 31 13 0 0 7 23 27 9 22 25 13 14 0 16
split_gain=2656.68 614.927 414.431 333.712 193.307 126.323 120.525 100.704 146.891 97.6913 87.7587 78.2961 68.5191 66.4287 57.1902 64.9777 56.209 54.4167 54.8381 102.357 53.9125 53.8898 50.2369 46.3177 44.1187 52.805 34.3586 33.6035 30.4572 30.1853
threshold=1.0500000000000003 4722.5000000000009 1765.5000000000002 406.00000000000006 1.0000000180025095e-35 799.50000000000011 50243.500000000007 6.5000000000000009 8904.5000000000018 48843.000000000007 6.5000000000000009 48843.000000000007 102.50000000000001 8904.5000000000018 52983.000000000007 394.50000000000006 0.37528170645236975 9.5000000000000018 53249.500000000007 48843.000000000007 8904.5000000000018 1278.5000000000002 1.2947860962566848 702.00000000000011 1508.0000000000002 156.40833333333336 6.5000000000000009 2869.5000000000005 49298.500000000007 4.5000000000000009
decision_type=8 10 2 8 10 2 2 10 10 2 2 2 2 10 2 10 2 10 2 2 8 10 2 10 10 2 8 10 2 10
left_child=10 24 3 11 6 28 9 26 -9 -4 22 -3 16 23 -13 -16 -10 18 19 -15 -12 -21 27 -7 25 -2 -6 -1 -5 -23
right_child=1 2 4 5 7 13 -8 8 12 -11 20 14 -14 17 15 -17 -18 -19 -20 21 -22 29 -24 -25 -26 -27 -28 -29 -30 -31
leaf_value=0.076651286262744173 0.068970166431513033 -0.05124506530291683 -0.05090892419307385 -0.047325408093064798 -0.021436001409144072 0.091257782923928124 -0.039360010544898405 0.086232164491786889 -0.019576623977783369 0.073892418064876675 0.063165026581680855 0.075463538297006069 -0.043144874457093224 -0.053970585470420378 0.073202921854896283 -0.030679925244173119 0.088507052935552499 -0.052777650946876802 -0.042057221131815231 -0.02395631135213051 -0.058005816383255304 0.026442248515053498 -0.0090878151444792627 -0.041691930128060883 0.074562886271177839 -0.039299825986808291 -0.051718156263574767 -0.04202337498415467 0.061668640465594719 0.093015569883206195
leaf_weight=912.14183503389359 20.574809551239014 15.563732735812662 18.24232716858387 5.7928372621536246 103.80362808704376 17.403432138264183 64.540282048285007 28.935109801590443 29.031215168535709 73.835049629211426 13.867987602949141 157.05974119156599 187.59902954101563 52.04473615437746 25.369993515312672 31.688375115394592 17.888170853257179 186.23846567422152 126.41945585608482 30.661491543054581 19.818999193608761 45.441195122897625 17.296142563223839 8.4534069970250112 152.66686771810055 20.627367749810219 1558.2959850281477 4.8327477052807799 51.920382097363472 27.750698700547218
leaf_count=3878 84 142 186 36 1025 74 614 160 292 331 62 676 2048 553 111 245 86 2061 1277 241 167 308 114 88 633 140 17821 38 226 159
internal_value=0 -0.0234711 -0.0293157 0.00172384 -0.0409609 -0.0193494 0.0123195 -0.0453028 -0.0164242 0.0486102 0.0714921 0.052111 -0.0297121 -0.0275545 0.0600284 0.0164245 0.0235644 -0.0319054 -0.0178621 0.00204217 -0.0073788 0.0306016 0.0743456 0.0479197 0.0622873 0.0154561 -0.049855 0.0759357 0.0495099 0.0534862
internal_weight=0 3057.85 2863.98 781.808 2082.17 552.126 156.618 1925.55 263.454 92.0774 967.958 229.682 234.518 494.413 214.118 57.0584 46.9194 468.556 282.318 155.898 33.687 103.853 934.271 25.8568 193.869 41.2022 1662.1 916.975 57.7132 73.1919
internal_count=33876 29617 28760 6197 22563 5023 1131 21432 2586 517 4259 1174 2426 4761 1032 356 378 4599 2538 1261 229 708 4030 162 857 224 18846 3916 262 467
shrinkage=0.05


Tree=16
num_leaves=31
num_cat=0
split_feature=28 7 19 0 0 3 0 1 15 0 14 12 0 9 16 15 24 14 27 27 0 14 0 3 11 11 16 27 15 12
split_gain=2450.61 569.669 392.929 270.315 378.137 310.227 183.276 167.796 133.571 102.546 91.1872 88.7098 83.3081 71.0349 58.2507 57.8103 47.7265 42.8442 40.2186 39.4689 36.2237 34.7961 34.2719 32.0179 29.7772 45.1131 29.4754 45.5634 28.7093 28.422
threshold=1.0500000000000003 4722.5000000000009 394.50000000000006 52983.000000000007 48843.000000000007 2091.5000000000005 49556.500000000007 1285.5000000000002 78.500000000000014 50328.500000000007 513.50000000000011 1.0000000180025095e-35 48843.000000000007 55.500000000000007 33.500000000000007 34.500000000000007 420.30000000000001 2869.5000000000005 1.7478813559322035 1.2681658732147334 1458.5000000000002 2869.5000000000005 49657.500000000007 697.50000000000011 55.000000000000007 51.500000000000007 16.500000000000004 0.95256842894638172 58.500000000000007 157.50000000000003
decision_type=8 10 8 2 2 2 2 2 10 2 10 10 2 10 8 8 2 10 2 2 2 10 2 2 8 10 10 2 8 10
left_child=12 18 7 4 -4 8 10 15 9 17 16 -9 20 -8 28 -3 29 -6 24 21 -1 -14 -21 -5 25 -2 -15 -28 -11 -7
right_child=1 2 3 23 5 6 13 11 -10 14 -12 -13 19 26 -16 -17 -18 -19 -20 22 -22 -23 -24 -25 -26 -27 27 -29 -30 -31
leaf_value=0.056272053330608911 0.054020475752683331 -0.0250910711822959 -0.055025358977014639 0.050239008853802739 0.072068481636119536 0.053624802900732106 0.070580208871118391 0.060822885021965561 -0.053446217592421089 0.051907797494220975 -0.035726012741002219 -0.052888258611642827 0.074061817118217674 -0.047769778727829976 -0.029077183391400287 0.078288337581076339 0.097500821243176827 -0.04124707439438615 -0.044242169261112907 0.07079014736679895 -0.051828622129988414 -0.043004665186550876 -0.050490964917200669 -0.052012287175044497 0.075759111566241044 -0.060024502795390455 0.11309112948370284 -0.042448741600399943 -0.015507403757397079 -0.035884242302480232
leaf_weight=10.296576112508776 32.811986953020096 14.182128638029097 466.81680939346552 6.2160057574510565 192.45688764005899 18.781711183488369 12.079862527549265 21.851172253489494 36.899812184274197 66.355836100876331 32.373356662690639 59.981645710766315 897.03779295086861 363.7755331248045 53.038267657160759 126.10157629847527 41.120372325181961 7.4846535399556151 7.5312882214784613 8.2068426907062548 19.152910821139812 5.1868013814091674 11.570110388100145 1207.2292880490422 141.20780286192894 9.7306985259056074 5.7150082364678374 10.270791314542292 19.521479815244675 13.656862236559389
leaf_count=42 137 123 5531 26 970 102 73 94 396 404 345 633 3867 4179 461 537 231 73 79 35 194 39 82 14108 595 46 40 116 169 149
internal_value=0 -0.0230097 -0.0287713 -0.0343219 -0.0188011 0.000638748 -0.025209 0.0347829 0.0348321 0.0447023 0.0326948 -0.0217982 0.0691261 -0.0409496 0.0114544 0.0676313 0.0629555 0.0674601 0.0600369 0.0717669 -0.0128578 0.0732952 0.00171631 -0.0514067 0.0647413 0.0264113 -0.0448484 0.0195498 0.0365789 0.0160454
internal_weight=0 2967.19 2775.91 2553.79 1340.35 873.53 497.773 222.117 375.757 338.857 105.932 81.8328 951.451 391.841 138.916 140.284 73.5589 199.942 191.282 922.002 29.4495 902.225 19.777 1213.45 183.75 42.5427 379.761 15.9858 85.8773 32.4386
internal_count=33876 29617 28760 27373 13239 7708 5235 1387 2473 2077 827 727 4259 4408 1034 660 482 1043 857 4023 236 3906 117 14134 778 183 4335 156 573 251
shrinkage=0.05


Tree=17
num_leaves=31
num_cat=0
split_feature=28 7 3 14 12 3 17 7 14 37 43 7 13 7 25 15 14 9 23 13 22 25 16 18 37 14 17 34 44 17
split_gain=2265.84 528.277 376.271 282.888 175.563 109.605 97.1047 127.907 91.184 76.7551 61.0446 60.1846 52.47 48.2663 41.9972 39.691 113.461 38.4407 36.9391 34.638 33.8787 44.039 32.8561 31.0286 28.806 28.5813 28.2871 27.0792 26.4818 33.7798
threshold=1.0500000000000003 1498.0000000000002 1765.5000000000002 406.00000000000006 1.0000000180025095e-35 799.50000000000011 6.5000000000000009 8904.5000000000018 1.0000000180025095e-35 6.5000000000000009 40.875000000000007 8904.5000000000018 9.5000000000000018 8904.5000000000018 117.2247474747475 9.5000000000000018 324.50000000000006 702.00000000000011 821.00000000000011 6.5000000000000009 1656.5000000000002 156.40833333333336 23.500000000000004 4660.5000000000009 3.5000000000000004 406.00000000000006 1.0000000180025095e-35 -0.29778319597244257 67.077846540622815 4.5000000000000009
decision_type=8 10 2 8 10 2 10 10 10 2 2 10 10 8 2 10 8 10 10 8 10 2 8 8 2 10 10 2 2 10
left_child=9 20 3 14 8 -5 19 -8 -4 15 22 17 18 -11 -3 -1 -17 -7 -13 26 21 -2 27 -20 -16 -10 -6 -9 29 -25
right_child=1 2 4 5 6 11 7 10 25 13 -12 12 -14 -15 24 16 -18 -19 23 -21 -22 -23 -24 28 -26 -27 -28 -29 -30 -31
leaf_value=0.073147025708812402 0.065848843927655429 0.063045621726585496 0.071870284521781305 0.046027063443368058 -0.03585031384942089 0.084726426849289105 0.079643355002022978 0.082806542681684525 0.0093520985490786572 0.058840754044000909 -0.039080410225136447 -0.043069397939168343 -0.052088715487861648 -0.057846394861973571 0.045059394052970776 0.072814567049851009 -0.050140658464482117 -0.030154405797856033 -0.038940025191135728 -0.050902708531209775 0.070337718073201091 -0.03145281228618093 0.082912331461424543 0.00026256195701999062 -0.017445560721916626 -0.0418024343846288 0.022755563025133527 -0.048260068136243783 -0.025043173777384055 0.06096498675683814
leaf_weight=815.58938221633434 21.693604484200478 154.04957593977451 42.760077267885208 57.331035971641541 72.310714609920979 17.527447946369652 29.311135485768318 3.4063478186726597 61.906205743551254 13.520406626164911 189.03989967703819 87.727527067065239 172.54760856181383 18.709827765822411 37.302274979650974 59.766364693641663 25.294543363153934 10.295596256852148 45.213232830166817 1438.0521108880639 142.32735930383205 21.108983010053635 15.172838240861891 64.237043499946594 33.167205393314362 46.055178992450237 26.911747939884663 12.853432029485704 40.999536417424679 33.645773753523827
leaf_count=3611 90 734 186 262 790 75 160 27 479 62 2191 922 2061 167 188 261 158 98 459 17825 609 143 65 554 252 466 235 143 364 239
internal_value=0 -0.0225799 -0.0282095 0.00175778 -0.0398604 -0.0181867 -0.0442279 -0.0151618 0.0118238 0.0670122 -0.0283686 -0.0261445 -0.03065 -0.00831886 0.0485419 0.0697204 0.0359395 0.0430447 -0.0167601 -0.0489248 0.0587026 0.0186006 0.0345379 -0.00389474 0.0159712 -0.0128333 -0.0198193 -0.0147399 0.00790511 0.0219311
internal_weight=0 2876.95 2691.82 754.044 1937.78 529.525 1787.06 249.784 150.721 932.881 220.473 472.194 444.371 32.2302 224.519 900.65 85.0609 27.823 271.823 1537.27 185.13 42.8026 31.4326 184.096 70.4695 107.961 99.2225 16.2598 138.882 97.8828
internal_count=33876 29617 28775 6208 22567 5034 21436 2586 1131 4259 2426 4772 4599 229 1174 4030 419 173 2538 18850 842 233 235 1616 440 945 1025 170 1157 793
shrinkage=0.05


Tree=18
num_leaves=31
num_cat=0
split_feature=28 14 4 9 3 12 27 14 1 37 27 17 44 3 13 27 12 13 17 9 17 15 14 27 27 13 15 16 21 26
split_gain=2096.74 487.997 314.882 184.68 138.364 129.77 125.114 98.9829 79.2045 70.7482 67.1169 51.1788 104.231 50.3729 45.2334 42.6916 42.0961 62.7123 55.0836 52.3624 40.7382 46.0375 38.2829 29.3296 38.8267 29.1776 28.3866 63.7334 27.0403 26.6992
threshold=1.0500000000000003 379.00000000000006 14.500000000000002 95.000000000000014 799.50000000000011 1.0000000180025095e-35 0.99878147847278653 379.00000000000006 4438.0000000000009 6.5000000000000009 1.001449275362319 15.500000000000002 37.760345989963206 1819.5000000000002 41.500000000000007 1.2681658732147334 96.500000000000014 59.500000000000007 1.0000000180025095e-35 38.000000000000007 3.5000000000000004 1.0000000180025095e-35 51.500000000000007 1.1530100334448161 1.1246621621621624 45.500000000000007 22.500000000000004 25.500000000000004 32.500000000000007 0.94567528352630992
decision_type=8 8 2 10 2 10 2 10 2 2 2 10 2 2 10 2 8 8 10 10 10 10 10 2 2 10 10 10 10 2
left_child=9 2 8 10 25 7 20 -6 16 15 -3 13 -13 14 23 26 17 18 -2 -19 21 -4 -11 24 -7 -5 -1 -28 -20 -26
right_child=1 3 6 4 5 11 -8 -9 -10 22 -12 12 -14 -15 -16 -17 -18 19 28 -21 -22 -23 -24 -25 29 -27 27 -29 -30 -31
leaf_value=0.071530237937010369 0.0087561619463429347 0.059409473468082688 0.038027569392880822 0.053513428389592083 0.066781527633219401 -0.015914310182703888 -0.047243950013574808 -0.02952969646666731 -0.052765155910656739 0.051740875030781702 -0.022634578616290618 0.065684238137103723 -0.040336191576530622 -0.050097032441969308 -0.052757708249552684 -0.0052576420994648989 0.067343659010243265 0.073506386083858691 0.072843692953628261 -0.055716728386477066 0.062863419022956349 -0.033569028463288353 -0.053149235593651527 -0.038796577086059388 -0.028585894945173808 -0.050966797499685051 -0.048121736617194537 0.070476868231533249 -0.032049698968821788 0.072365367927485866
leaf_weight=816.360839150846 64.697334624826908 66.879789605736732 38.978433035314083 47.632986277341843 46.60519777238369 143.0594846457243 200.48158770799637 57.341095708310604 18.819201655685902 13.384727194905283 37.711696319282055 30.759207926690578 77.486385591328144 1295.3600688502192 139.86962839961052 19.327015712857246 164.55649490654469 8.5786436647176725 103.41087486594915 29.297439739108086 32.688964381814003 47.667235016822815 18.077884264290333 101.4979106336832 7.8137463927269009 6.1068244725465766 15.798120796680449 30.064493626356125 5.4387765303254119 21.586725272238255
leaf_count=3678 437 352 257 212 205 1367 2377 554 216 58 343 184 899 16817 1756 125 773 41 483 257 189 516 171 1085 72 34 92 135 34 157
internal_value=0 -0.0221073 0.0135102 -0.0343472 -0.0377793 -0.0400009 -0.0232876 0.0140978 0.0432862 0.0650894 0.0299579 -0.0431072 -0.00956423 -0.0452178 -0.0297774 0.067714 0.0483477 0.0330701 0.0457092 -0.0242299 0.0170742 -0.00122928 -0.00810173 -0.0177475 -0.00505672 0.0402379 0.0693581 0.0293199 0.0671189 0.0454238
internal_weight=0 2794.33 714.615 2079.71 1975.12 1921.38 319.816 103.946 394.799 913.013 104.591 1817.43 108.246 1709.19 413.827 881.55 375.98 211.423 173.547 37.8761 119.335 86.6457 31.4626 273.958 172.46 53.7398 862.223 45.8626 108.85 29.4005
internal_count=33876 29617 5580 24037 23342 23096 3339 759 2241 4259 695 22337 1083 21254 4437 4030 2025 1252 954 298 962 773 229 2681 1596 246 3905 227 517 229
shrinkage=0.05


Tree=19
num_leaves=31
num_cat=0
split_feature=28 14 4 9 0 0 14 6 19 17 0 4 20 1 0 0 16 43 8 25 0 0 15 0 0 26 15 14 0 0
split_gain=1942.82 457.219 288.429 173.223 126.073 100.865 99.766 122.349 77.3151 79.2294 70.709 70.6291 77.2102 68.8714 61.2488 116.965 59.1258 63.9809 57.9589 53.4806 50.4871 44.0032 39.0183 33.8532 52.7109 36.1472 33.3119 97.8493 33.3595 30.0191
threshold=1.0500000000000003 379.00000000000006 14.500000000000002 95.000000000000014 48843.000000000007 52793.500000000007 406.00000000000006 1.0000000180025095e-35 286.00000000000006 7.5000000000000009 48843.000000000007 9.5000000000000018 20.500000000000004 1285.5000000000002 53063.000000000007 48843.000000000007 14.500000000000002 59.375000000000007 2903.0000000000005 92.797435897435903 53436.000000000007 48843.000000000007 79.500000000000014 50200.500000000007 48843.000000000007 0.25752344830959567 48.500000000000007 379.00000000000006 49624.500000000007 1458.5000000000002
decision_type=8 8 2 10 2 2 10 2 10 10 2 2 10 2 2 2 10 2 10 2 2 2 10 2 2 2 8 8 2 2
left_child=10 2 4 20 -2 -6 7 11 13 23 29 12 14 -4 15 -5 -13 -18 -9 -7 21 -3 -17 24 -10 -26 27 -12 -29 -1
right_child=1 3 8 6 5 19 -8 18 9 -11 26 16 -14 -15 -16 22 17 -19 -20 -21 -22 -23 -24 -25 25 -27 -28 28 -30 -31
leaf_value=0.049082435845237742 -0.053628400467232287 -0.049957789442747084 0.088157503857049832 -0.052409990190963124 0.065292318265289195 0.063526213602674797 -0.048007367581694826 -0.048850824477083159 -0.052430535804287748 0.05341597025302447 0.071157189785418004 -0.045689022616958806 -0.053683420515148642 -0.041505432400651542 -0.028975953875148432 0.06954480550475603 0.05616586015140318 -0.038676984753581667 0.059383083416831219 -0.019180583030315997 -0.028552354367983729 0.062265405593318557 -0.044588448767551289 -0.053078029570765774 0.068567990080611249 -0.023451940388510135 0.069191633794823557 0.053390395492655868 -0.066127267975812989 -0.051240982311906803
leaf_weight=10.056549698114397 30.385653033852577 8.4570545330643636 25.374281048774719 29.875953808426857 268.15707563608885 25.366503909230232 1007.498352997005 14.023655422031878 40.01750323921442 22.924991004168987 59.430114150047302 513.78031621873379 65.590190552175045 14.845773875713347 66.438362531363964 79.598439328372478 30.159658528864384 37.790385656058788 56.960676178336143 66.467832043766975 27.099355153739452 68.510674171149731 6.8971187993884078 169.38411935418844 21.339702911674976 18.231667064130306 776.44411896914244 6.0198743790388134 22.437438555061817 17.801751226186752
leaf_count=42 337 86 106 352 1231 118 13018 170 505 154 268 6784 795 166 715 446 204 458 328 555 251 358 72 2107 125 176 3593 25 137 194
internal_value=0 -0.0216441 0.0130579 -0.0337573 0.0416121 0.0499029 -0.0371855 -0.0250066 -0.0226934 -0.0322838 0.0633225 -0.0304067 -0.00800367 0.0405982 0.00878932 0.0304754 -0.0399126 0.00382134 0.0372477 0.00453179 0.0286339 0.0489816 0.0596419 -0.0405376 -0.0132017 0.0270832 0.0658469 0.0354154 -0.0389987 -0.0141634
internal_weight=0 2715.18 702.495 2012.68 390.377 359.991 1908.61 901.115 312.118 271.898 892.19 830.13 248.4 40.2201 182.81 116.372 581.73 67.95 70.9843 91.8343 104.067 76.9677 86.4956 248.973 79.5889 39.5714 864.332 87.8874 28.4573 27.8583
internal_count=33876 29617 5580 24037 2241 1904 23342 10324 3339 3067 4259 9826 2380 272 1585 870 7446 662 498 673 695 444 518 2913 806 301 4023 430 162 236
shrinkage=0.05


Tree=20
num_leaves=31
num_cat=0
split_feature=28 14 4 9 13 27 19 4 15 1 37 27 17 19 17 27 12 13 17 9 20 18 12 9 16 27 16 12 15 26
split_gain=1803.27 427.993 264.763 162.12 115.253 112.925 83.4635 93.3894 77.5979 68.8734 62.8043 58.9923 45.4654 40.259 54.3246 39.4869 37.9826 55.2719 49.4965 47.4851 37.9075 37.7339 35.335 34.1007 29.7844 29.7413 34.7121 28.505 28.1481 27.4477
threshold=1.0500000000000003 379.00000000000006 14.500000000000002 95.000000000000014 11.500000000000002 0.99878147847278653 394.50000000000006 12.500000000000002 77.500000000000014 4438.0000000000009 6.5000000000000009 1.1261363636363637 55.000000000000007 286.00000000000006 5.5000000000000009 1.001449275362319 96.500000000000014 59.500000000000007 1.0000000180025095e-35 38.000000000000007 20.500000000000004 18954.000000000004 5.5000000000000009 120.00000000000001 33.500000000000007 0.86692708333333346 13.500000000000002 1.0000000180025095e-35 52.500000000000007 1.4217032854830043
decision_type=8 8 2 10 10 2 8 2 10 2 2 2 8 10 10 2 8 8 10 10 10 10 10 10 8 2 10 10 10 2
left_child=10 2 9 11 6 13 12 8 20 16 15 -3 -5 -4 22 -1 17 18 -2 -19 21 -8 -15 -12 28 26 27 -9 29 -23
right_child=1 3 5 4 -6 -7 7 25 -10 -11 23 -13 -14 14 -16 -17 -18 19 -20 -21 -22 24 -24 -25 -26 -27 -28 -29 -30 -31
leaf_value=0.066923588789624094 0.007125455642079251 0.051003413061056491 0.06665662819663927 -0.034852278576515676 -0.051639507318231574 -0.046195689912472908 -0.030989700008830487 0.018188485647305113 -0.053793503606104492 -0.052118490375716434 0.056513600759710438 -0.030804764144814003 0.045821338139333978 0.01906484485882428 0.072716156680399394 0.019283517988188149 0.063116152429071246 0.068638151722115348 0.062638762951959429 -0.055276534831453408 -0.047522919232619247 0.040393517673344037 -0.050331962210289065 -0.0470425333552216 -0.010525289650591624 -0.04960538774604447 0.039085925194682493 -0.040336751547557607 0.083945616814199334 -0.0038925301541961814
leaf_weight=792.23438730090857 64.521291799843311 73.584333933889866 27.63617031276226 23.034324899315834 752.93366806209087 186.36262395977974 53.170599833130836 23.06755319237709 82.567216955125332 17.68306665122509 10.724212236702444 29.546408914029598 57.445054411888123 30.930504575371742 17.876102097332478 48.097392827272415 159.60827024281025 8.5265351831912977 106.84741574525833 28.193076707422733 35.026067763566971 70.809981860220432 40.282876588404179 19.283366277813911 75.595392189919949 426.24944223463535 17.323716327548027 144.35919749736786 17.514306664466858 66.733414091169834
leaf_count=3765 437 408 134 260 10480 2377 568 182 1057 216 52 287 344 237 89 265 773 41 517 257 419 534 502 177 704 5873 170 2003 107 641
internal_value=0 -0.0212055 0.0126562 -0.0331679 -0.0365794 -0.0222268 -0.0261286 -0.0300266 -0.0112131 0.0400637 0.0617156 0.0274257 0.0224462 0.0161751 -0.000604366 0.0642491 0.0447548 0.0302045 0.042061 -0.0244436 7.98622e-05 0.00624585 -0.020493 -0.00881455 0.0150221 -0.0423098 -0.0251267 -0.0321538 0.0274526 0.0191589
internal_weight=0 2637.43 688.468 1948.96 1845.83 303.088 1092.9 1012.42 401.417 385.38 870.339 103.131 80.4794 116.726 89.0895 840.332 367.697 208.088 171.369 36.7196 318.85 283.824 71.2134 30.0076 230.653 611 184.75 167.427 155.058 137.543
internal_count=33876 29617 5580 24037 23342 3339 12862 12258 4030 2241 4259 695 604 962 828 4030 2025 1252 954 298 2973 2554 739 229 1986 8228 2355 2185 1282 1175
shrinkage=0.05


Tree=21
num_leaves=31
num_cat=0
split_feature=28 3 14 12 17 9 14 14 13 27 3 15 14 43 27 27 15 12 37 25 17 13 26 15 19 17 19 14 27 9
split_gain=1671.54 418.371 250.569 162.263 169.106 126.801 107.635 102.724 96.8623 88.0065 61.3174 59.5913 114.13 50.9351 42.7376 37.4658 34.07 33.3747 32.2665 36.5228 31.4751 25.4561 24.6347 21.5055 20.6331 20.0427 43.6145 19.1733 19.0314 18.289
threshold=1.0500000000000003 1918.5000000000002 406.00000000000006 5.5000000000000009 6.5000000000000009 126.00000000000001 231.00000000000003 379.00000000000006 9.5000000000000018 1.1118055555555559 799.50000000000011 1.0000000180025095e-35 131.00000000000003 40.875000000000007 1.1530100334448161 1.1246621621621624 71.500000000000014 33.500000000000007 6.5000000000000009 129.52272727272728 13.500000000000002 7.5000000000000009 0.94567528352630992 25.500000000000004 394.50000000000006 72.500000000000014 19325.000000000004 78.000000000000014 1.1002392344497609 30.500000000000004
decision_type=8 2 8 10 10 10 8 10 10 2 2 10 8 2 2 2 8 10 2 2 8 10 2 10 8 8 10 10 2 8
left_child=11 2 18 7 29 -4 16 9 10 -3 -7 28 -13 23 15 21 -6 -15 25 -20 -14 24 -17 -8 -12 27 -27 -2 -1 -5
right_child=1 3 5 4 6 8 13 -9 -10 -11 14 12 20 17 -16 22 -18 -19 19 -21 -22 -23 -24 -25 -26 26 -28 -29 -30 -31
leaf_value=0.067006567706927797 0.025575815332466986 0.051392908763258083 0.054305748783720575 -0.0028884338200899202 0.074505720832562711 0.050314127907039125 0.064423593240369253 -0.041457877068218858 -0.049432991569526408 -0.03482971369879647 0.044031858047614163 0.066760081590965303 0.019840895842318795 0.027844345190346294 -0.035917637338809726 -0.027561184038466763 -0.03579356057704601 -0.041008791964438962 0.044956238873632308 -0.052473073400986239 -0.059404736541383278 0.077360322279330859 0.069160137714367645 -0.02812917682604171 -0.019259084792601411 0.070833184106275787 0.010915065667447895 0.070522089306572097 0.019357257610992065 -0.050233917269409262
leaf_weight=704.24821974337101 33.657543800771236 107.85925558954477 61.450699642300606 21.011813327670097 45.262785546481609 42.226984262466431 20.220108173787597 79.532166451215744 185.45454007387161 38.907946042716503 12.365638539195059 71.943168863654137 18.793587796390057 18.760614953935146 117.9962005764246 7.3272092044353476 6.9890153482556334 135.47053728997707 17.644916594028473 16.853660635650158 31.348433136940002 6.2053635492920867 26.903176546096802 7.4195261597633353 130.85384221374989 46.398149453103542 83.986875399947166 115.2763539403677 23.623396173119545 1178.872587159276
leaf_count=3425 195 623 324 177 223 190 121 958 2526 422 74 346 106 182 1362 67 73 1810 100 143 261 38 180 86 1319 211 514 545 121 17154
internal_value=0 -0.0207449 0.00660517 -0.0356364 -0.041838 -0.0125761 -0.00293619 0.00368387 -0.0205156 0.0283744 -0.00472474 0.060082 0.0271423 -0.0211719 -0.0127101 0.00242681 0.0589768 -0.0323843 0.0425662 -0.00290828 -0.0300811 -0.00852785 0.0480778 0.0393573 -0.0132634 0.0481635 0.0329852 0.0608382 0.0655174 -0.049411
internal_weight=0 2564.91 904.601 1660.31 1434.01 590.784 234.123 226.299 529.333 146.767 343.878 849.957 122.085 181.871 301.651 183.655 52.2518 154.231 313.817 34.4986 50.142 149.425 34.2304 27.6396 143.219 279.319 130.385 148.934 727.872 1199.88
internal_count=33876 29617 7788 21829 19826 6080 2495 2003 5756 1045 3230 4259 713 2199 3040 1678 296 1992 1708 243 367 1431 247 207 1393 1465 725 740 3546 17331
shrinkage=0.05


Tree=22
num_leaves=31
num_cat=0
split_feature=28 3 0 0 12 17 0 0 19 15 0 0 0 0 25 17 15 43 19 6 0 15 29 3 11 0 27 27 0 27
split_gain=1553.1 394.825 223.566 371.482 154.9 162.64 119.828 129.075 108.07 71.3512 77.6116 80.0889 69.2269 62.0954 53.4236 51.357 48.6955 36.7218 34.2844 31.8942 47.1839 30.5231 26.4091 25.9489 25.9487 25.3707 25.3651 24.2352 38.8691 20.5068
threshold=1.0500000000000003 1918.5000000000002 53063.000000000007 48843.000000000007 5.5000000000000009 6.5000000000000009 50200.500000000007 48843.000000000007 286.00000000000006 71.500000000000014 52616.000000000007 49167.500000000007 50328.500000000007 48843.000000000007 113.75735294117648 58.000000000000007 78.500000000000014 40.875000000000007 394.50000000000006 1.0000000180025095e-35 49871.500000000007 63.500000000000007 -0.14454912394285199 697.50000000000011 8.5000000000000018 1458.5000000000002 1.2681658732147334 1.1002392344497609 50200.500000000007 2.007352941176471
decision_type=8 2 2 2 10 10 2 2 8 8 2 2 2 2 2 8 10 2 8 2 2 10 2 2 10 2 2 2 2 2
left_child=13 2 3 -2 6 24 7 -3 14 10 11 -7 16 25 -4 26 -5 22 -8 20 -15 -12 -11 -10 -6 -1 -14 -21 -29 -9
right_child=1 4 8 12 5 9 18 29 23 17 21 -13 15 19 -16 -17 -18 -19 -20 27 -22 -23 -24 -25 -26 -27 -28 28 -30 -31
leaf_value=0.043276365097553102 -0.054138387119661194 -0.052269067566198993 0.07155749028854827 0.062368161724291563 0.039086219009375339 -0.04632154678412502 0.047680464017299362 0.071893075272963874 0.045039092740965542 -0.04238896717087616 -0.050282356654181438 0.078753328439576747 0.049750949719134602 0.082830306556424427 -0.039109772710624331 -0.011986512016792739 -0.04645544317672818 -0.044345760875132298 -0.0441352243313273 0.064732684193667483 -0.047314504435834799 0.044932503609788566 0.07061174764474247 -0.044591023580340457 -0.049598730894175859 -0.050942412978806556 -0.039239385718530174 0.06406338917103642 -0.043490014989070888 -0.036946856398814058
leaf_weight=9.6995149701833743 118.84578312188387 28.483891926705837 33.985953763127327 288.90592237561941 6.9265863150358191 14.645592905580996 9.7067892849445325 86.020230524241924 6.8116540163755408 6.5570683628320721 33.929453492164612 60.877197697758675 89.904813885688782 9.6211941838264483 14.137763917446135 75.887948393821716 9.2786902338266355 91.792374491691589 95.458964616060257 745.83279444277287 15.397792235016821 9.2914228513836843 11.93566734343767 244.19949087500572 1143.8600337989628 16.700366914272308 7.3086604475975028 17.174458488821987 13.112026304006575 3.3806785345077506
leaf_count=42 1572 361 152 1459 63 196 49 426 28 80 452 393 569 40 142 651 110 1258 1138 3739 80 54 62 3027 17268 194 78 80 84 29
internal_value=0 -0.0203017 0.00640986 0.0242351 -0.0351108 -0.041352 0.00352229 0.0378353 -0.0286832 -0.00284174 0.0238644 0.0539292 0.0441441 0.0586754 0.0387824 0.0186948 0.0586949 -0.0315091 -0.034929 0.0611598 0.00516004 -0.0287315 0.0303179 -0.0418219 -0.0489981 -0.0157159 0.0424044 0.0629471 0.0176903 0.0670589
internal_weight=0 2492.13 889.267 590.132 1602.87 1379.82 223.051 117.885 299.135 229.029 118.744 75.5228 471.286 827.538 48.1237 173.101 298.185 110.285 105.166 801.138 25.019 43.2209 18.4927 251.011 1150.79 26.3999 97.2135 776.119 30.2865 89.4009
internal_count=33876 29617 7788 4439 21829 19826 2003 816 3349 2495 1095 589 2867 4259 294 1298 1569 1400 1187 4023 120 506 142 3055 17331 236 647 3903 164 455
shrinkage=0.05


Tree=23
num_leaves=31
num_cat=0
split_feature=7 14 12 27 3 0 0 0 0 19 0 0 3 17 27 16 43 12 22 27 7 38 0 31 10 3 29 27 37 14
split_gain=1290.04 471.028 446.454 244.86 134.005 118.531 127.079 110.2 82.3383 96.714 69.4792 94.9241 59.0733 52.5076 46.7583 46.3151 51.3296 43.9133 37.552 34.2077 30.9312 32.4337 29.3835 27.1685 26.1767 25.5048 24.5133 26.0663 23.7256 34.7925
threshold=4722.5000000000009 406.00000000000006 136.50000000000003 1.0323627984918311 1819.5000000000002 49763.500000000007 48843.000000000007 48843.000000000007 50381.500000000007 19325.000000000004 53249.500000000007 48843.000000000007 697.50000000000011 4.5000000000000009 1.2681658732147334 14.500000000000002 59.375000000000007 13.500000000000002 2085.5000000000005 2.007352941176471 8904.5000000000018 5.5000000000000009 1458.5000000000002 0.37528170645236975 32.500000000000007 982.50000000000011 0.060635879635810859 0.77733584261133615 6.5000000000000009 52.500000000000007
decision_type=10 10 10 2 2 2 2 2 2 10 2 2 2 10 2 10 2 10 10 2 10 2 2 2 10 2 2 2 2 8
left_child=19 2 3 7 10 6 -5 -2 -9 -10 11 22 -3 25 26 -6 23 18 -14 28 -20 -22 -4 -17 -15 -11 27 -13 -1 -30
right_child=1 12 4 5 15 -7 -8 8 9 13 -12 14 17 24 -16 16 -18 -19 20 -21 21 -23 -24 -25 -26 -27 -28 -29 29 -31
leaf_value=0.066037185813328597 -0.05257748737454529 0.054358997277482238 0.041354838274974465 -0.052449090348227645 -0.044678422653108618 -0.049021155366491223 0.067071364406874251 0.067513981319815924 0.065613327068185553 0.04505494234289751 -0.029710071571748264 -0.0055761493546839886 -0.037753649718480727 -0.042530931196377138 -0.022327794431136225 -0.010901514555787251 -0.035408166289198351 -0.051937620162078313 0.072695647861575674 -0.041936433525385952 -0.032549975555766851 0.074356200766130212 -0.052666347384606918 0.08641735248322871 0.062352616229403218 -0.030812813927372864 -0.042184423562008098 0.065062422622689117 -0.043512481995759161 0.06192131344226464
leaf_weight=606.80497804284096 25.806351937353611 13.285070836544035 8.5103684961795789 32.687327712774277 488.80623997747898 123.65290425717831 60.643817976117134 298.5363563708961 93.200436636805534 10.969274967908857 112.65752466022968 14.541550897061823 155.42323495075107 5.6532454416155806 24.464382104575634 10.964836094528438 41.809975661337376 719.10258684307337 12.722864903509615 6.4380248561501494 33.381965026259422 6.9090336710214606 45.544251322746277 16.727365545928478 34.239808656275272 81.664206363260746 5.2449100837111464 104.50170129537582 11.848597988486292 16.265296012163162
leaf_count=3090 302 59 44 441 7599 1600 322 1489 461 49 1281 97 1970 36 210 114 581 11172 59 80 322 37 609 87 183 849 29 567 62 75
internal_value=0 -0.0163659 -0.00018257 0.0276158 -0.0245931 -0.0172495 0.0249896 0.045312 0.050312 0.0271683 0.00146377 0.0189016 -0.0445297 -0.000441939 0.0394057 -0.0392688 -0.0010377 -0.04606 -0.0254815 0.0627619 0.0105618 -0.0115684 -0.0369163 0.0497448 0.0461687 -0.0210665 0.0517182 0.0564841 0.0639519 0.0175475
internal_weight=0 2581.65 1640.83 767.054 873.773 216.984 93.3311 550.07 524.263 225.727 315.465 202.807 940.825 132.527 148.753 558.308 69.5022 927.54 208.437 641.357 53.0139 40.291 54.0546 27.6922 39.8931 92.6335 124.288 119.043 634.919 28.1139
internal_count=33876 30569 16950 5732 11218 2363 763 3369 3067 1578 2837 1556 13619 1117 903 8381 782 13560 2388 3307 418 359 653 201 219 898 693 664 3227 137
shrinkage=0.05


Tree=24
num_leaves=31
num_cat=0
split_feature=28 0 0 0 3 19 19 14 12 7 7 25 7 27 14 16 27 16 7 7 27 3 25 27 2 18 3 12 7 21
split_gain=1350.99 361.595 539.723 294.644 192.566 140.614 63.3492 62.201 57.6711 54.4496 168.099 48.8916 38.6674 37.9744 34.5283 34.004 45.0808 33.017 32.97 91.635 36.9109 29.2032 28.2547 27.1063 26.669 26.5865 24.9078 22.1028 21.2987 19.8663
threshold=1.0500000000000003 52983.000000000007 48843.000000000007 49763.500000000007 1819.5000000000002 286.00000000000006 286.00000000000006 406.00000000000006 55.500000000000007 8904.5000000000018 15417.500000000002 113.75735294117648 645.00000000000011 1.9145223739323567 379.00000000000006 5.5000000000000009 1.001449275362319 82.500000000000014 8904.5000000000018 15417.500000000002 1.2681658732147334 2208.5000000000005 325.18681318681325 0.93788580246913589 784.50000000000011 18954.000000000004 697.50000000000011 34.500000000000007 8904.5000000000018 81.000000000000014
decision_type=8 2 2 2 2 8 8 10 10 8 8 2 10 2 10 10 2 10 10 10 2 2 2 2 2 10 2 10 10 10
left_child=9 2 -2 7 18 11 27 13 21 -1 -11 -3 23 -4 24 -8 22 -13 -5 -20 25 -9 28 -7 -12 -21 -14 -6 -17 -27
right_child=1 5 3 4 6 12 15 8 -10 10 14 17 26 -15 -16 16 -18 -19 19 20 -22 -23 -24 -25 -26 29 -28 -29 -30 -31
leaf_value=0.065063030899084773 -0.053682845192159726 0.066380255134894969 0.066992803196986361 0.055037692155986806 0.082676504199126963 0.058354891558012316 -0.043986954799384713 0.064549424306419897 -0.04493413334727802 -0.071303751277338012 -0.024935227211919736 -0.038345479862893411 0.040365683107813452 -0.036544597172020153 -0.045752865580836813 0.065483630417887684 -0.041219809145332284 0.05850977499301438 -0.052783768167955408 -0.018474634196563186 -0.031324733880847201 -0.0066068881688772108 0.13672005895082012 -0.047369006363170041 0.059738846213400532 0.055738911706989115 -0.049581109397202644 -0.02537516686023461 -0.014885636412037027 -0.036065590000344108
leaf_weight=543.30964178591967 368.98947549983859 33.606504764407873 271.70457538589835 76.361807465553284 14.50761776417494 13.329265236854555 241.15194743871689 41.401914231479168 26.051718737930059 30.125144839286804 8.7226660624146444 31.137760017067194 6.3617843240499488 7.9599133282899848 7.2859539687633506 11.008872173726557 39.483899760991335 10.044906839728354 36.683400332927704 14.517777919769285 17.641466647386551 21.076414749026299 3.7481535524129859 8.1692192554473859 191.87640455365181 108.29019944369793 909.93812884017825 5.5435989908874026 20.999924644827843 4.9119602665305129
leaf_count=2911 5802 161 1552 368 65 63 3635 226 392 253 60 361 26 99 49 72 557 50 439 116 167 229 24 68 986 586 14191 69 261 38
internal_value=0 -0.0195642 -0.00243086 0.0172768 -0.00450358 -0.0420535 -0.02936 0.0522992 0.0153388 0.0562715 0.035828 0.0234099 -0.0473129 0.0638073 0.0518842 -0.0348943 -0.00536725 -0.0131057 0.0278363 0.0159521 0.0337792 0.0410852 0.0343086 0.0175684 0.0558471 0.0431161 -0.0488701 0.0532112 0.0149814 0.0511984
internal_weight=0 2344.62 1332.03 963.045 594.851 1012.59 336.444 368.195 88.53 781.32 238.01 74.7892 937.798 279.664 207.885 316.393 75.2409 41.1827 258.407 182.045 145.361 62.4783 35.757 21.4985 200.599 127.72 916.3 20.0512 32.0088 113.202
internal_count=33876 29617 14697 8895 6397 14920 4683 2498 847 4259 1348 572 14348 1651 1095 4549 914 411 1714 1346 907 455 357 131 1046 740 14217 134 333 624
shrinkage=0.05


Tree=25
num_leaves=31
num_cat=0
split_feature=28 0 0 0 3 19 15 27 14 7 10 15 17 7 0 17 14 19 27 27 24 27 4 12 7 3 27 36 25 33
split_gain=1259.14 343.031 508.001 271.709 137.515 133.535 132.97 60.4073 59.778 52.3503 157.457 45.6268 40.9511 36.835 36.7306 36.3595 34.7718 33.7812 33.7209 28.748 28.6471 25.3381 24.5653 32.3161 24.1883 23.7981 23.4545 22.3239 21.3027 18.9671
threshold=1.0500000000000003 52983.000000000007 48843.000000000007 50200.500000000007 1801.5000000000002 286.00000000000006 77.500000000000014 1.9145223739323567 2869.5000000000005 8904.5000000000018 2054.0000000000005 1.0000000180025095e-35 58.000000000000007 645.00000000000011 49556.500000000007 6.5000000000000009 379.00000000000006 286.00000000000006 1.1002392344497609 1.1246621621621624 93.696153846153862 0.93788580246913589 16.500000000000004 8.5000000000000018 8904.5000000000018 697.50000000000011 1.2681658732147334 0.22292768210172656 264.4391025641026 0.15357252955436709
decision_type=8 2 2 2 2 8 10 2 10 8 8 10 8 10 2 10 10 8 2 2 2 2 2 10 10 2 2 2 2 2
left_child=9 2 -2 6 12 11 7 8 14 -1 -11 19 26 21 -4 17 20 -6 28 -3 -12 -7 29 -24 -14 -15 27 -5 -17 -16
right_child=1 5 3 4 15 13 -8 -9 -10 10 16 -13 24 25 22 18 -18 -19 -20 -21 -22 -23 23 -25 -26 -27 -28 -29 -30 -31
leaf_value=0.063912212801745791 -0.053454742083476683 0.059774079323553324 0.066939140463886257 0.053943197508086474 0.035649186077173572 0.056780369251807253 -0.051362228020993654 -0.044256154172784702 -0.044149351477500855 -0.071583533676041131 -0.026038344009309152 -0.048666834169631794 0.043123813827618429 0.038773565226084078 -0.026408735711403054 0.014120444518873869 -0.045579360933774432 -0.047903674038118078 -0.046054959292737667 -0.027099785216525132 0.058810883116933055 -0.046382118203692528 0.056695023027171165 -0.026184678273135281 -0.021652947710302191 -0.049194181036777085 -0.042419450085918076 -0.043702126527963549 0.11678642343695467 0.051685964578011882
leaf_weight=525.91563686728477 352.46194222569466 46.779408626258373 261.66885419562459 90.367128480225801 11.436067644506691 13.075860977172853 34.45667627453804 15.618779573589562 14.39213667809963 28.597216352820396 9.4166564941406232 15.619325213134287 16.957056224346161 6.3736545443534842 7.0755248814821234 18.333600439131263 7.624367266893386 208.26812240853906 15.10936553776264 10.586752343922852 186.60874941945076 7.9734449610114089 16.854370709508657 29.317361667752266 58.427863460034132 872.21216198801994 6.1949010677635661 4.7972590625286093 5.3586727790534487 132.48267614096403
leaf_count=2911 5802 238 1521 524 82 63 524 213 200 249 67 215 87 26 42 182 52 3370 214 119 980 68 101 386 531 14191 70 55 36 757
internal_value=0 -0.0192036 -0.00238316 0.0166953 -0.0123228 -0.0416274 0.0413219 0.0481977 0.051502 0.0551281 0.0348608 0.0229 0.0215221 -0.0469015 0.0547618 -0.0354506 0.0503589 -0.0432722 0.00878743 0.0433689 0.0545131 0.0170688 0.0370751 0.00516722 -0.00634414 -0.0484694 0.0419691 0.0482226 0.0446248 0.0474094
internal_weight=0 2272.2 1299.58 947.116 435.25 972.621 511.866 477.41 461.791 758.163 232.247 72.9855 176.744 899.635 447.399 258.506 203.65 219.704 38.8016 57.3662 196.025 21.0493 185.73 46.1717 75.3849 878.586 101.359 95.1644 23.6923 139.558
internal_count=33876 29617 14697 8895 5151 14920 3744 3220 3007 4259 1348 572 1267 14348 2807 3884 1099 3452 432 357 1047 131 1286 487 618 14217 649 579 218 799
shrinkage=0.05


Tree=26
num_leaves=31
num_cat=0
split_feature=28 0 0 0 15 19 3 1 14 3 7 10 27 7 17 14 19 16 15 0 24 13 28 27 7 3 15 13 1 17
split_gain=1174.5 325.47 477.977 247.675 136.007 126.359 110.291 100.173 62.9183 54.3941 50.3129 146.641 44.6311 35.0866 34.4473 32.5297 31.2017 34.7782 32.1691 29.7613 26.8137 26.7782 25.4062 23.7015 23.1124 22.7463 21.521 18.2218 16.259 15.5283
threshold=1.0500000000000003 52983.000000000007 48843.000000000007 50328.500000000007 77.500000000000014 286.00000000000006 1819.5000000000002 1285.5000000000002 406.00000000000006 1981.5000000000002 8904.5000000000018 2054.0000000000005 1.9145223739323567 645.00000000000011 58.000000000000007 379.00000000000006 286.00000000000006 16.500000000000004 57.000000000000007 49399.500000000007 93.696153846153862 77.500000000000014 1.2500000000000002 0.93788580246913589 8904.5000000000018 697.50000000000011 162.50000000000003 15.500000000000002 2205.5000000000005 72.500000000000014
decision_type=8 2 2 2 10 8 2 2 10 2 8 8 2 10 8 10 8 10 8 2 2 10 10 2 10 2 8 8 2 8
left_child=10 2 -2 4 8 7 14 -3 12 21 -1 -12 19 23 26 20 28 -18 -19 -4 -13 -10 29 -7 -16 -15 -5 -11 -8 -21
right_child=1 5 3 6 -6 13 16 -9 9 27 11 15 -14 25 24 -17 17 18 -20 22 -22 -23 -24 -25 -26 -27 -28 -29 -30 -31
leaf_value=0.062837202640551398 -0.053236117948346665 0.066898494581238699 0.073645717002432276 0.048075877174318521 -0.051379930724015623 0.055286554498695954 0.065027850548307439 -0.052060342531280904 0.056827445727177767 0.021406937167287997 -0.070348441926960645 -0.025257440017573896 -0.040289062281622157 0.037266836297011378 0.040977040006725834 -0.044346027919245572 -0.046247464947007058 0.094452884265596601 -0.041297096305179436 0.063394412470879596 0.057380821717061707 -0.036262294200248596 -0.021495237593314565 -0.045417477869996337 -0.025155799786373542 -0.04880903311859467 -0.01783870355556286 -0.03637218312360823 -0.037286992364822524 0.03353810697508517
leaf_weight=508.64016257971525 336.62231004983187 44.683516435325146 166.26471367478371 75.663165085017681 38.1235171854496 12.818313822150232 9.6003898084163648 26.677939869463444 56.989168953150511 17.875160790979862 27.702226605266333 9.2875723987817747 10.664515938609837 6.3804447501897803 15.587271988391874 7.50332237035036 202.84507413208485 7.1811445392668221 6.6851919591426858 93.380692683160305 181.86744169145823 7.5020300671458235 12.749053150415419 7.7830029278993598 51.69857370480895 836.07175104692578 13.654017854481934 43.864977836608887 4.2600894384086123 97.922121040523052
leaf_count=2911 5802 227 907 457 608 63 43 345 307 174 249 67 139 26 79 52 3362 45 108 518 980 87 132 68 497 14191 134 629 57 612
internal_value=0 -0.0188475 -0.00234506 0.0161005 0.0377572 -0.0412084 -0.0144403 0.0222198 0.0446324 0.0137634 0.0540591 0.033957 0.0547351 -0.0464922 0.0178075 0.0490582 -0.0363076 -0.0409903 0.0320498 0.0576733 0.0531458 0.0452336 0.0440703 0.016589 -0.00909502 -0.0480704 0.0378294 -0.019497 0.0328444 0.048617
internal_weight=0 2203.55 1269.13 932.511 545.336 934.415 387.175 71.3615 507.212 126.231 735.001 226.361 380.981 863.054 156.603 198.658 230.572 216.711 13.8663 370.317 191.155 64.4912 204.052 20.6013 67.2858 842.452 89.3172 61.7401 13.8605 191.303
internal_count=33876 29617 14697 8895 4113 14920 4782 572 3505 1197 4259 1348 2308 14348 1167 1099 3615 3515 153 2169 1047 394 1262 131 576 14217 591 803 100 1130
shrinkage=0.05


Tree=27
num_leaves=31
num_cat=0
split_feature=28 3 14 12 17 9 13 14 14 27 15 14 3 43 11 20 21 27 27 16 25 17 11 26 38 12 15 13 15 39
split_gain=1096.1 302.168 176.545 121.081 129.204 90.7605 77.8785 69.9902 67.5082 61.682 49.5908 86.1947 45.8237 39.782 37.6011 35.0131 25.3665 25.3045 27.8226 25.0269 43.3488 24.0947 24.0128 21.6404 20.2736 20.1493 20.0855 17.5133 13.6574 13.4828
threshold=1.0500000000000003 1995.5000000000002 406.00000000000006 5.5000000000000009 6.5000000000000009 126.00000000000001 9.5000000000000018 379.00000000000006 231.00000000000003 1.1118055555555559 1.0000000180025095e-35 131.00000000000003 799.50000000000011 40.875000000000007 776.00000000000011 17.500000000000004 47.000000000000007 1.1530100334448161 1.1246621621621624 5.5000000000000009 110.01724137931036 13.500000000000002 8.5000000000000018 0.94567528352630992 4.5000000000000009 33.500000000000007 71.500000000000014 7.5000000000000009 25.500000000000004 131.12500000000003
decision_type=8 2 8 10 10 10 10 10 8 2 10 8 2 2 8 10 10 2 2 10 2 8 10 2 2 10 8 10 10 2
left_child=10 2 16 7 22 -4 12 9 26 -3 14 -12 -7 28 24 17 19 18 27 20 -2 -13 -5 -20 -1 -15 -6 -14 -10 -21
right_child=1 3 5 4 8 6 -8 -9 13 -11 11 21 15 25 -16 -17 -18 -19 23 29 -22 -23 -24 -25 -26 -27 -28 -29 -30 -31
leaf_value=-0.054174609956233667 0.048723122350616981 0.044925817904864995 0.047162358347486756 0.039223440771788021 0.065216203943031778 0.044045736763150045 -0.047309978502706816 -0.038651452564455166 0.059390269199707725 -0.034361766554684481 0.059284134484689825 0.013895504183715005 -0.0077453633759672338 0.02010737206463251 0.061263427294502265 -0.049418234605486173 -0.041079045707444459 -0.027443583941559616 -0.02684980823506691 0.058954409379771394 -0.0027739102740984476 -0.05855644421167349 -0.048345011415139444 0.066824898236302346 0.030064052744022147 -0.037544810966184818 -0.03254950708613838 0.066864576917076493 -0.021815595982862257 -0.024022280858034942
leaf_weight=8.7757546752691287 87.918229289352894 94.056844711303711 56.288731694221497 6.4975899495184413 36.556623458862305 39.843718580901623 159.66525292396545 63.663505099713802 17.704129207879308 31.292829446494579 59.930948793888092 17.787223793566227 127.42483787611127 16.344429396092892 579.06207284331322 49.31868202239275 8.7605975009500963 75.933841161429882 6.7250762321054927 117.51871328800917 74.533826362341642 27.343529839068651 912.47371315583587 25.820718009024858 19.190662801265717 105.7278756313026 4.842652663588523 6.378452952951192 5.839220590889453 4.0809273570775977
leaf_count=48 491 602 339 62 205 190 2690 931 115 413 346 106 1387 174 3396 734 105 965 70 678 545 261 16833 166 102 1722 61 39 80 20
internal_value=0 -0.0185054 0.00484237 -0.0336378 -0.0399479 -0.0119195 -0.018855 0.00331622 -0.00203559 0.0249033 0.0530457 0.0208125 -0.00494593 -0.0181319 0.0585378 -0.0118945 0.0360461 -0.00391413 0.00702486 0.0386954 0.0253496 -0.0306233 -0.047642 0.0470347 0.00177882 -0.029626 0.0528071 -0.00325633 0.0391185 0.055826
internal_weight=0 2135.21 840.212 1295 1105.99 547.399 491.111 189.013 187.015 125.35 712.09 105.062 331.445 145.616 607.028 291.602 292.812 242.283 166.349 284.052 162.452 45.1308 918.971 32.5458 27.9664 122.072 41.3993 133.803 23.5433 121.6
internal_count=33876 29617 8419 21198 19252 6580 6241 1946 2357 1015 4259 713 3551 2091 3546 3361 1839 2627 1662 1734 1036 367 16895 236 150 1896 266 1426 195 698
shrinkage=0.05


Tree=28
num_leaves=31
num_cat=0
split_feature=28 3 14 17 9 19 13 9 15 14 3 11 44 15 27 20 27 15 24 14 37 13 27 27 17 4 17 25 26 38
split_gain=1022.22 284.933 161.687 95.3974 83.4109 77.9118 74.5701 48.6486 46.8716 80.6349 41.7762 36.064 35.4874 42.2599 35.2732 33.5223 32.6154 26.061 26.8688 24.7824 23.861 27.2648 23.3941 24.8358 22.7546 19.406 18.9592 29.3513 18.9269 18.7928
