tree
version=v3
num_class=1
num_tree_per_iteration=1
label_index=0
max_feature_idx=46
objective=binary sigmoid:1
feature_names=srcPort destPort bytesOut bytesIn pktsIn pktsOut tlsIssuerDn_null tlsSubject_C_cnt tlsSubject_ST_cnt tlsSubject_L_cnt tlsSubject_O_cnt tlsSubject_OU_cnt tlsSubject_CN_cnt tlsSubject_cnt tlsIssuerDn_cnt tlsSni_cnt srcAddress_cnt destAddress_cnt tlsVersion_cnt destPort_cnt bytesOut_cnt bytesIn_cnt pktsIn_cnt pktsOut_cnt bytesOut_pktsIn bytesIn_pktsOut bytesIn_bytesOut pktsIn_pktsOut tlsVersion_num vec_add_w2v_1 vec_add_w2v_2 vec_add_w2v_3 vec_add_w2v_4 vec_add_w2v_5 vec_add_w2v_6 vec_add_w2v_7 vec_add_w2v_8 tlsSubject_num tlsIssuerDn_num srcAddress_mean srcAddress_std srcAddress_max srcAddress_min destAddress_mean destAddress_std destAddress_max destAddress_min
feature_infos=[20:65535] [20:61240] [62:797323266] [310:323969651] [3:321668] [1:526713] [0:1] [3:20402] [3:23015] [3:25529] [3:20603] [3:28094] [3:14806] [3:2055] [3:3684] [3:433] [3:138] [3:138] [3:32523] [3:37260] [3:279] [3:363] [3:2630] [3:2753] [1.0877192982456141:27181.017857142859] [2.4214949137549757:17271] [0.0022480729395580028:278.56451612903226] [0.039628482972136225:57] [1:3] [-0.64770543575286865:0.28681665658950806] [-0.78400695323944092:0.23770889639854431] [-0.23685339093208313:0.70237773656845093] [0.11590141803026199:0.93095993995666504] [-0.14976069331169128:0.82910436391830444] [-0.68868273496627808:0.26677274703979492] [-0.52362531423568726:0.38414296507835388] [-0.48820772767066956:0.47602662444114685] [1:17] [1:8] [47.5:145.5] [55.156028682275519:105.56277753071866] [172:254] [0:16] [5:149.75] [2.6809513236909019:97.238109812974045] [10:212] [0:10]
tree_sizes=3324 3359 3353 3387 3386 3381 3401 3391 3395 3412 3406 3410 3381 3390 3405 3397 3392 3400 3426 3401 3415 3431 3399 3407 3397 3396 3405 3426 3419 3397 3417 3401 3402 3404 3413 3397 3399 3407 3409 3413 3430 3401 3407 3447 3409 3424 3409 3427 3400 3413 3425 3413 3418 3410 3425 3408 3415 3422 3422 3420 3421 3434 3421 3428 3432 3426 3431 3415 3435 3419 3433 3439 3446 3433 3419 3432 3414 3405 3436 3431 3421 3429 3426 3431 3422 3414 3454 3433 3428 3420 3424 3437 3421 3433 3443 3452 3427 3436 3432 3445 3437 3430 3460 3439 3422 3445 3439 3444 3456 3428 3447 3436 3443 3433 3430 3430 3421 3456 3444 3429 3448 3457 3437 3450 3443 3444 3452 3429 3442 3444 3456 3447 3440 3428 3452 3452 3460 3450 3459 3446 3471 3450 3455 3449 3431 3423 3470 3456 3450 3462 3428 3453 3448 3436 3447 3447 3434 3447 3449 3450 3435 3443 3450 3453 3457 3444 3448 3461 3449 3464 3443 3471 3460 3452 3456 3447 3451 3430 3448 3452 3445 3447 3454 3452 3473 3445 3435 3470 3463 3477 3447 3435 3455 3448 3454 3464 3453 3456 3455 3445 3489 3462 3456 3477 3452 3454 3427 3450 3490 3445 3452 3457 3437 3458 3466 3468 3453 3466 3460 3459 3448 3439 3448 3452 3477 3450 3451 3463 3437 3474 3454 3469 3481 3476 3441 3495 3448 3466 3482 3450 3449 3455 3483 3465 3481 3466 3485 3477 3464 3476 3463 3477 3454 3462 3476 3478 3481 3483 3481 3465 3488 3484 3479 3483 3487 3482 3478 3485 3482 3494 3486 3485 3470 3504 3478 3507 3489 3479 3469 3484 3477 3506 3483 3492 3485 3476 3492 3483 3488 3502 3493 3478 3496 3494 3488 3492 3499 3466 3494 3507 3510 3489 3509 3485 3489 3479 3506 3488 3485 3489 3484 3504 3498 3501 3487 3511 3496 3493 3495 3503 3497 3496 3499 3504 3514 3501 3491 3507 3495 3497 3506 3511 3507 3511 3496 3491 3498 3533 3507 3506 3486 3499 3487 3495 3509 3518 3482 3498 3514 3497 3497 3506 3504 3492 3481 3499 3511 3498 3500 3478 3497 3516 3513 3501 3486 3502 3491 3484 3493 3491 3502 3494 3530 3505 3515 3505 3506 3502 3507 3510 3494 3494 3511 3493 3507 3503 3504 3516 3523 3492 3509 3511 3511 3511 3512 3512 3540 3517 3500 3511 3519 3527 3506 3522 3519 3521 3520 3509 3520 3502 3490 3526 3516 3493 3525 3500 3519 3517 3492 3508 3517 3508 3516 3501 3496 3503 3500 3518 3519 3511 3520 3517 3523 3512 3518 3513 3516 3501 3501 3511 3505 3542 3519 3509 3521 3503 3522 3527 3537 3532 3498 3522 3532 3521 3509 3525 3523 3527 3505 3511 3521 3523 3539 3518 3519 3502 3518 3517 3512 3522 3512 3511 3513 3507 3506 3511 3511 3530 3532 3521 3522 3510 3522 3526 3522 3517 3510 3534 3517 3511 3523 3531 3506 3523 3541 3520 3513 3515 3508 3530 3544 3517 3542 3519 3519 3515 3518 3535 3537 3533 3484 3531 3527 3527 3530 3524 3527 3529 3521 3537 3537 3543 3529 3547 3533 3537 3531 3515 3537 3522 3550 3523 3545 3535 3546 3551 3513 3548 3523 3523 3560 3524 3529 3549 3538 3536 3536 3534 3544 3522 3539 3526 3554 3538 3545 3528 3544 3537 3535 3540 3567 3556 3537 3558 3541 3544 3568 3550 3546 3543 3547 3556 3561 3559 3535 3549 3537 3537 3536 3553 3548 3548 3544 3573 3545 3536 3550 3550 3552 3552 3558 3571 3560 3565 3557 3563 3569 3563 3548 3554 3553 3539 3577 3571 3552 3555 3550 3557 3546 3561 3560 3565 3543 3560 3571 3565 3543 3547 3556 3556 3584 3560 3548 3568 3548 3573 3549 3544 3558 3561 3559 3555 3574 3549 3575 3568 3564 3576 3556 3557 3574 3576 3553

Tree=0
num_leaves=31
num_cat=0
split_feature=28 9 19 0 3 26 3 27 22 0 0 12 14 1 19 14 9 24 14 12 14 0 0 0 6 15 25 22 12 3
split_gain=15917.9 1506.23 1184.77 968.154 892.15 759.639 603.069 408.876 334.402 294.45 379.101 262.664 320.208 254.848 298.013 213.953 196.331 167.911 148.163 390.454 135.902 131.901 235.667 131.793 130.762 96.1846 94.3862 91.7849 88.2657 79.5659
threshold=1.0500000000000003 222.50000000000003 394.50000000000006 48765.000000000007 1897.5000000000002 0.31376196289246128 799.50000000000011 1.2849025974025976 1951.5000000000002 49163.500000000007 52332.500000000007 1.0000000180025095e-35 1.0000000180025095e-35 1285.5000000000002 286.00000000000006 2869.5000000000005 2176.0000000000005 1218.0747274656135 131.00000000000003 111.00000000000001 279.50000000000006 50367.500000000007 49163.500000000007 1429.5000000000002 1.0000000180025095e-35 9.5000000000000018 118.16904761904765 1951.5000000000002 1.0000000180025095e-35 1771.5000000000002
decision_type=8 10 8 2 2 2 2 2 10 2 2 10 10 2 10 10 10 2 8 10 10 2 2 2 2 8 2 10 10 2
left_child=3 4 5 23 9 16 27 15 17 -2 -11 12 -8 14 25 24 -3 -6 19 -13 -10 22 -14 -1 -5 -7 -12 -4 -15 -20
right_child=1 2 6 7 8 13 11 -9 20 10 26 18 21 28 -16 -17 -18 -19 29 -21 -22 -23 -24 -25 -26 -27 -28 -29 -30 -31
leaf_value=-1.292519018120684 -1.5055752196078216 -1.5035307041960297 -1.2728881632539759 -1.3676918574751091 -1.5013419494278384 -1.4950682381299294 -1.2619725993888717 -1.4483564342454678 -1.2641302208697691 -1.2265240628807719 -1.3453439692834057 -1.489684962937263 -1.5119835879260077 -1.321092447194292 -1.5060527401237283 -1.5022939288434292 -1.2205687361464865 -1.3588474340243004 -1.4966588423175506 -1.2303977060818225 -1.4780832900358694 -1.5086158589521252 -1.3234584117317283 -1.5150738018693426 -1.2004886437591897 -1.2261337344122383 -1.4972914426833357 -1.4514555606626316 -1.5148406078749126 -1.515696361112175
leaf_weight=6.2823663204908362 15.016387790441511 6.1291378736495963 29.419861793518066 14.709930896759031 169.31743375957012 3.2177973836660412 18.540642067790031 18.234185174107552 25.589150622487068 96.993606850504875 19.766469642519951 115.99393425881863 31.258603155612946 4.4436249583959571 19.613241195678711 5.5162240862846366 61.138150289654732 21.60521100461483 700.10077361762524 14.556702449917791 9.6533921509981138 94.541951701045036 31.411831602454185 32.024745389819145 587.93755052983761 24.056866154074669 17.774499833583832 9.5001637041568738 81.823990613222122 2904.7516667693853
leaf_count=41 98 40 192 96 1105 21 121 119 167 633 129 757 204 29 128 36 399 141 4569 95 63 617 205 209 3837 157 116 62 534 18957
internal_value=-1.45705 -1.49063 -1.49932 -1.22895 -1.395 -1.38125 -1.50534 -1.21408 -1.45789 -1.30113 -1.27793 -1.50732 -1.44768 -1.4512 -1.3597 -1.2071 -1.24695 -1.48437 -1.51013 -1.45779 -1.32072 -1.47176 -1.41628 -1.47222 -1.20426 -1.25829 -1.41568 -1.31407 -1.50201 -1.51202
internal_weight=0 4526.22 4150.5 664.705 375.716 200.423 3950.08 626.398 226.165 149.551 134.535 3911.16 175.753 133.156 46.8879 608.164 67.2673 190.923 3735.4 130.551 35.2425 157.212 62.6704 38.3071 602.647 27.2747 37.541 38.92 86.2676 3604.85
internal_count=33877 29539 27087 4338 2452 1308 25779 4088 1476 976 878 25525 1147 869 306 3969 439 1246 24378 852 230 1026 409 250 3933 178 245 254 563 23526
shrinkage=1


Tree=1
num_leaves=31
num_cat=0
split_feature=28 7 19 1 0 15 4 7 10 12 27 27 12 7 4 0 0 0 2 12 38 9 17 2 0 0 22 0 0 27
split_gain=12768.5 2431.45 1089.56 721.676 663.19 375.451 358.748 921.07 369.343 313.809 275.47 272.948 223.028 250.198 181.708 143.604 171.266 116.505 113.343 103.708 206.247 92.9456 104.587 79.2798 74.9792 71.988 50.1819 51.6799 47.9225 47.8783
threshold=1.0500000000000003 4722.5000000000009 394.50000000000006 1285.5000000000002 48765.000000000007 34.500000000000007 12.500000000000002 8904.5000000000018 889.00000000000011 1.0000000180025095e-35 1.7156334231805932 1.2849025974025976 13.500000000000002 15417.500000000002 5.5000000000000009 50425.000000000007 48765.000000000007 1429.5000000000002 966.00000000000011 1.0000000180025095e-35 2.5000000000000004 46.000000000000007 5.5000000000000009 550.50000000000011 49622.500000000007 49188.500000000007 1508.0000000000002 50226.500000000007 49527.500000000007 0.21670542635658918
decision_type=8 10 8 2 2 8 2 10 10 10 2 2 10 10 2 2 2 2 2 10 2 8 10 2 2 2 8 2 2 2
left_child=4 10 3 5 17 -3 7 8 -4 -5 26 18 13 -9 23 16 -15 -1 -6 20 28 22 -21 -14 -13 -7 27 -2 -8 -20
right_child=1 2 6 9 11 25 19 12 -10 -11 -12 24 14 15 -16 -17 -18 -19 29 21 -22 -23 -24 -25 -26 -27 -28 -29 -30 -31
leaf_value=0.14651883588718681 0.15877753309733952 -0.036014141738599105 0.18944087942795571 0.16913487781003689 0.011552264036438525 -0.027089810005392262 0.18583274514454362 -0.057713307623611869 -0.047039120232860103 -0.058921945069812715 -0.04901259392965631 0.15863266546474528 0.14575628767385262 -0.048379589252376044 -0.046136347861489319 0.0059157063413276152 0.20463657109660618 -0.057279039134057741 0.030648843639564601 -0.028584727120215488 -0.03428530539110114 -0.057615951579536952 0.14643352522427322 -0.046970155751709153 -0.048059409537406311 0.20450639696890544 0.20884681399651397 0.0017378409512807812 -0.018644084908119762 0.20779832767010673
leaf_weight=6.929740458726882 14.33076022565365 20.525535091757774 66.417950674891472 15.912835299968718 7.7657690048217765 3.026357650756835 12.516938760876654 44.549092814326286 20.853889539837837 94.367737874388695 12.117763638496397 4.0055032074451473 16.277671307325367 7.5917560905218116 887.20666731894016 28.048282638192177 30.27005971968174 30.873550415039063 4.5919198989868155 30.606746345758438 135.06416797637939 2769.0861631780863 9.6007432043552381 6.404303327202796 14.327376857399939 90.281362175941467 104.72144897282124 7.7791474908590308 3.1437820494174948 690.93714727461338
leaf_count=41 87 136 394 93 48 20 73 295 140 632 81 26 97 51 5947 186 189 209 26 202 894 18719 60 42 93 518 613 50 20 3895
internal_value=0 -0.032654 -0.0393483 0.0675599 0.188986 0.154746 -0.0452689 -0.0209427 0.133145 -0.0235881 0.171739 0.199652 -0.0343568 0.0322859 -0.0425002 0.0930251 0.154022 -0.0144357 0.204604 -0.0543513 -0.0137336 -0.0565192 0.0181646 0.091943 0.00826174 0.196584 0.193263 0.108252 0.147322 0.20672
internal_weight=0 4430.7 4291.75 224.114 759.431 113.833 4067.64 1107.62 87.2718 110.281 138.949 721.628 1020.35 110.459 909.889 65.9101 37.8618 37.8033 703.295 2960.02 150.725 2809.29 40.2075 22.682 18.3329 93.3077 126.831 22.1099 15.6607 695.529
internal_count=33877 29539 28708 1399 4338 674 27309 7341 534 725 831 4088 6807 721 6086 426 240 250 3969 19968 987 18981 262 139 119 538 750 137 93 3921
shrinkage=0.05


Tree=2
num_leaves=31
num_cat=0
split_feature=28 7 19 3 1 0 0 0 14 12 12 27 27 27 13 14 3 27 0 10 2 16 0 0 7 4 16 2 12 20
split_gain=10639.5 2088.3 996.006 758.303 585.82 491.049 276.255 876.429 511.295 386.286 274.891 212.596 197.611 195.028 188.465 150.106 149.159 112.792 104.007 103.626 102.424 96.708 83.2299 78.9524 74.8017 50.5789 39.9609 42.8379 39.5568 35.6859
threshold=1.0500000000000003 4722.5000000000009 394.50000000000006 799.50000000000011 1285.5000000000002 48765.000000000007 50425.000000000007 49163.500000000007 406.00000000000006 149.00000000000003 1.0000000180025095e-35 1.7156334231805932 1.4180107526881722 1.152680652680653 15.500000000000002 2869.5000000000005 1908.5000000000002 2.007352941176471 1429.5000000000002 17.500000000000004 966.00000000000011 8.5000000000000018 49163.500000000007 49163.500000000007 8904.5000000000018 7.5000000000000009 8.5000000000000018 12943.500000000002 9.5000000000000018 19.500000000000004
decision_type=8 10 8 2 2 2 2 2 10 10 10 2 2 2 10 10 2 2 2 10 2 10 2 2 10 2 10 2 10 10
left_child=5 11 4 23 13 18 7 -5 9 14 -6 -2 15 22 17 20 29 -9 -1 24 -7 -16 -3 -4 -10 -25 -18 -28 -21 -11
right_child=1 2 3 6 10 12 -8 8 19 16 -12 -13 -14 -15 21 -17 26 -19 -20 28 -22 -23 -24 25 -26 -27 27 -29 -30 -31
leaf_value=0.1320970922832812 0.16604568709389775 -0.041439172348302446 -0.044971009415185219 -0.059859426406195938 0.14886301899558838 0.0049857776236549682 -0.056384891387831294 0.17776027944810416 0.15841819840116111 0.101732913161696 -0.058207078260077066 -0.048221021151971813 -0.013219399991390123 -0.03087142779463959 -0.01736625914783551 -0.048844111579791773 -0.037143020302798598 -0.029389685452473266 -0.056574321128247035 0.011253821632928259 0.17851865182401347 0.15835608285384661 0.16730749764820549 0.17156620940695322 -0.045905615987136453 0.030539168803182172 -0.017254104127072383 0.14772234489321348 -0.054018958812970502 -0.029355660312464955
leaf_weight=7.5043586790561667 140.2596770375967 4.2558181732892981 4.8123840838670722 803.29497101902962 17.40560120344162 8.7159899175167066 2608.0719210654497 93.132913306355476 9.534308657050131 38.125774100422859 90.863772988319397 11.743211627006529 13.990329802036284 14.827622130513189 28.165184706449509 6.6757494807243338 82.769726783037186 6.496368780732154 29.748659178614616 26.314872071146965 768.05534842610359 8.6761537641286832 104.20898975431919 43.996042415499687 6.1355384290218344 8.5163551419973356 8.8829933404922468 4.5843534469604483 162.03203965723515 5.0698426365852347
leaf_count=41 750 29 29 5602 93 54 18190 540 54 262 632 81 92 97 191 40 581 43 209 171 3902 51 548 240 42 55 62 32 1129 35
internal_value=0 -0.03179 -0.0384351 -0.0443518 0.0619719 0.16296 -0.0470355 -0.0279752 0.0254199 0.0695881 -0.0228219 0.149081 0.17123 0.135609 0.128749 0.174549 0.0106825 0.16394 -0.0137737 -0.034407 0.176589 0.0300396 0.158515 0.133269 0.0822745 0.150654 -0.0240614 0.0507443 -0.044877 0.0857289
internal_weight=0 4332.18 4180.17 3948.61 231.562 834.69 3891.29 1283.22 479.92 275.903 108.269 152.003 797.437 123.292 136.471 783.447 139.433 99.6293 37.253 204.017 776.771 36.8413 108.465 57.3248 15.6698 52.5124 96.2371 13.4673 188.347 43.1956
internal_count=33877 29539 28708 27309 1399 4338 26985 8795 3193 1797 725 831 4088 674 825 3996 972 583 250 1396 3956 242 577 324 96 295 675 94 1300 297
shrinkage=0.05


Tree=3
num_leaves=31
num_cat=0
split_feature=7 14 12 14 18 3 3 3 14 27 17 4 12 13 7 14 27 17 4 14 15 44 9 14 24 17 43 15 15 9
split_gain=7785.59 1862.74 1706.66 863.903 643.116 526.323 362.118 246.91 366.227 205.975 183.466 136.977 115.309 103.413 108.602 87.4573 74.7682 106.659 81.8904 69.4009 65.2225 77.1426 60.2474 58.1973 54.8758 54.742 206.332 53.2699 53.2349 49.6428
threshold=4722.5000000000009 131.00000000000003 1.0000000180025095e-35 140.00000000000003 18954.000000000004 799.50000000000011 1642.5000000000002 1771.5000000000002 406.00000000000006 1.7156334231805932 58.000000000000007 13.500000000000002 90.500000000000014 13.500000000000002 8904.5000000000018 25.500000000000004 1.152680652680653 4.5000000000000009 7.5000000000000009 406.00000000000006 58.500000000000007 66.922996690562357 55.500000000000007 100.00000000000001 444.10416666666669 24.500000000000004 79.125000000000014 61.500000000000007 137.50000000000003 336.00000000000006
decision_type=10 8 10 10 10 2 2 2 8 2 8 2 8 10 10 10 2 10 2 10 10 2 10 10 2 10 2 10 8 8
left_child=9 4 3 -3 -2 27 15 8 10 -1 -7 19 22 14 29 -6 17 -16 -19 -5 21 -20 24 -14 -8 -9 -27 -4 -12 -10
right_child=1 2 5 11 6 7 12 25 13 -11 28 -13 23 -15 16 -17 -18 18 20 -21 -22 -23 -24 -25 -26 26 -28 -29 -30 -31
leaf_value=0.15916901412538598 0.15331404531864021 0.15664157228340059 0.11937403183478788 0.11537209037599359 0.0096384236659248137 0.15096870815852012 -0.044964704816953728 -0.055169614572607828 0.15690316088759323 -0.041378699638175656 -0.026626918797086282 -0.036720225406934863 0.013442623244115418 -0.05690427431223382 -0.026747001013193963 0.13630262997448214 -0.047486972284340838 -0.045446062798642932 0.1384389742092085 0.0021142334668830141 -0.043024001199886752 -0.022099682791160868 -0.045572251968001971 0.149888305285658 0.10898786776302978 0.15575904474897781 -0.054757560836872027 -0.044090796453121479 0.076230275326420766 -0.038212394391923199
leaf_weight=678.69650554656982 160.0952740162611 159.39412744343281 51.236867174506187 25.533281907439232 17.426521584391594 38.506146624684334 8.6691993027925509 2782.2266636490822 10.569168195128437 12.296092525124548 34.969666793942451 113.07566544413567 19.388460785150532 298.59295275807381 147.24293094873428 66.255107015371323 171.48983223736286 15.906185060739515 32.546980947256088 26.736734017729759 7.8959009796380988 8.9127529710531217 126.76749660074711 11.61408895254135 11.406752079725264 13.013057723641394 49.850120931863785 4.4884776771068564 17.099649965763092 3.492686241865159
leaf_count=3231 761 765 277 139 109 204 59 20142 54 87 241 774 126 2122 1025 347 1216 111 204 171 56 62 894 58 67 65 361 27 97 25
internal_value=0 -0.0247148 -0.0352269 0.0743489 0.0750276 -0.0449103 0.0263043 -0.0472688 -0.0224073 0.155491 0.07115 -0.0059056 -0.0142271 -0.0347401 -0.0179127 0.110766 -0.0231308 -0.003216 0.049091 0.0596522 0.0801415 0.104499 -0.0328317 0.0705433 0.0444572 -0.0541274 -0.00772035 0.105136 0.00872183 0.109717
internal_weight=0 4434.4 4012.78 324.74 421.623 3688.04 261.528 3632.31 787.225 690.993 90.5755 165.346 177.846 696.649 398.056 83.6816 383.995 212.505 65.2618 52.27 49.3556 41.4597 146.843 31.0025 20.076 2845.09 62.8632 55.7253 52.0693 14.0619
internal_count=33877 30559 28138 1849 2421 26289 1660 25985 5417 3318 542 1084 1204 4875 2753 456 2674 1458 433 310 322 266 1020 184 126 20568 426 304 338 79
shrinkage=0.05


Tree=4
num_leaves=31
num_cat=0
split_feature=7 14 12 14 18 3 3 19 1 15 27 3 13 4 14 12 7 14 14 9 27 25 16 14 24 11 11 9 4 15
split_gain=6704.23 1687.67 1560.61 714.985 526.885 476.063 309.634 265.753 405.034 190.221 168.195 131.674 130.333 123.629 113.59 104.58 86.402 71.7815 58.2744 55.9917 50.8806 86.37 73.7911 49.0787 47.987 47.4371 69.2066 45.5777 45.1344 45.0978
threshold=4722.5000000000009 131.00000000000003 1.0000000180025095e-35 140.00000000000003 18954.000000000004 799.50000000000011 1642.5000000000002 365.00000000000006 1285.5000000000002 34.500000000000007 1.7156334231805932 1771.5000000000002 25.500000000000004 13.500000000000002 406.00000000000006 90.500000000000014 8904.5000000000018 28.500000000000004 406.00000000000006 55.500000000000007 1.152680652680653 146.4641025641026 4.5000000000000009 100.00000000000001 444.10416666666669 55.000000000000007 51.500000000000007 336.00000000000006 7.5000000000000009 61.500000000000007
decision_type=10 8 10 10 10 2 2 8 2 8 2 2 10 2 8 8 10 10 10 10 2 2 10 10 2 8 10 8 2 10
left_child=10 4 3 -3 -2 29 17 8 9 -7 25 12 14 18 -9 19 27 -6 -5 24 21 -18 -23 -17 -8 26 -1 -16 -24 -4
right_child=1 2 5 13 6 7 15 11 -10 -11 -12 -13 -14 -15 16 23 20 -19 -20 -21 -22 22 28 -25 -26 -27 -28 -29 -30 -31
leaf_value=0.11349408566131972 0.13779318185247982 0.14040117267508895 0.10750236564714458 0.10451638445646577 0.017364064401419039 -0.047101997838400023 -0.044189157000027249 0.081042335161361709 -0.057820358703577317 0.13192493388608054 -0.040569279665426644 -0.054662184813758653 -0.056210757759649947 -0.035754457240238478 0.14619657116155113 0.012737085765005169 -0.031668958274311793 0.12501744527044245 0.0020134824668494272 -0.044666716284978952 -0.046224887243280624 -0.011342229092278798 -0.024753136012845393 0.13600192249651907 0.099199151073095293 0.14591459857026853 -0.041704448264293363 -0.03865166179904822 0.11089426906588243 -0.043339495970521474
leaf_weight=33.959636881947517 169.18871213495731 168.9006172567606 54.188654541969299 26.944588705897331 20.891037046909332 17.965060666203499 8.4216882884502429 28.490006253123283 92.553901374340057 64.639751344919205 11.962764009833334 2650.830476462841 279.34121009707451 110.44511653482914 9.7240976393222773 19.54594045877457 140.76944826543331 66.943836495280266 26.770068973302841 123.00723619759083 150.072898671031 42.358311727643013 6.8713504970073691 12.343740344047545 12.084421157836912 677.23565256595612 7.8629216998815528 3.6727577596902856 28.468763396143913 4.3755158483982077
leaf_count=160 761 765 277 139 127 125 59 174 689 307 87 19947 2052 774 48 126 996 329 171 894 1096 302 47 58 67 3033 38 27 175 27
internal_value=0 -0.024037 -0.0344166 0.0688155 0.0694789 -0.044069 0.0248639 -0.0464412 0.0134564 0.0927967 0.139442 -0.0495881 -0.0299861 -0.00564097 -0.0119514 -0.0136515 -0.0192741 0.100369 0.0553375 -0.0319354 -0.024005 -0.00846048 0.0333268 0.0656604 0.041617 0.142541 0.083744 0.0970822 0.0846065 0.0951735
internal_weight=0 4339.81 3907.38 333.06 432.427 3574.32 263.238 3515.76 175.159 82.6048 731.021 3340.6 689.769 164.16 410.428 175.403 381.938 87.8349 53.7147 143.513 368.541 218.468 77.6984 31.8897 20.5061 719.058 41.8226 13.3969 35.3401 58.5642
internal_count=33877 30559 28138 1849 2421 26289 1660 25985 1121 432 3318 24864 4917 1084 2865 1204 2691 456 310 1020 2616 1520 524 184 126 3231 198 75 222 304
shrinkage=0.05


Tree=5
num_leaves=31
num_cat=0
split_feature=28 7 19 1 4 7 0 12 12 7 12 4 27 27 27 12 38 14 9 0 0 0 17 0 0 2 2 7 0 0
split_gain=7004.21 1424.12 809.346 395.254 328.399 620.19 271.47 197.389 167.781 177.208 142.047 130.047 120.752 118.378 107.797 90.644 125.164 86.086 85.9067 85.3462 85.3554 79.7614 74.1807 62.6321 56.7751 50.1159 46.9591 39.257 52.5464 157.939
threshold=1.0500000000000003 4722.5000000000009 394.50000000000006 1285.5000000000002 12.500000000000002 8904.5000000000018 48765.000000000007 1.0000000180025095e-35 13.500000000000002 15417.500000000002 242.50000000000003 5.5000000000000009 1.152680652680653 1.7156334231805932 1.4180107526881722 1.0000000180025095e-35 2.5000000000000004 2869.5000000000005 46.000000000000007 52630.500000000007 48765.000000000007 1429.5000000000002 5.5000000000000009 57087.500000000007 49163.500000000007 966.00000000000011 550.50000000000011 15417.500000000002 53007.000000000007 49163.500000000007
decision_type=8 10 8 2 2 10 2 10 10 10 10 2 2 2 2 10 2 10 8 2 2 2 10 2 2 2 2 10 2 2
left_child=6 13 3 12 5 10 21 -5 9 -7 23 26 24 -2 17 16 -6 25 22 20 -11 -1 -17 -4 -3 -8 -10 -13 29 -29
right_child=1 2 4 7 15 8 14 -9 11 19 -12 27 -14 -15 -16 18 -18 -19 -20 -21 -22 -23 -24 -25 -26 -27 -28 28 -30 -31
leaf_value=0.10385847615801672 0.11764347660432584 -0.041306683293874998 0.13110016688627496 0.10989047911658743 0.09855943132311952 -0.056427972050716861 0.0062868260947887798 -0.056563649912207817 0.10191418578080236 -0.047378893065311761 -0.051120575915819623 -0.058806563771195655 -0.028722551124610807 -0.046168431044454672 -0.012475045178293245 -0.025363621486542677 -0.031551677015355724 -0.046668525085089653 -0.054942531935463092 -0.015982040184808016 0.12606951622053561 -0.055372593996902843 0.11693077812485925 -0.028250334860589945 0.12888140725931838 0.12945716548411401 -0.045224885331802023 -0.057984975301498876 -0.051734934274620975 0.015356186600174302
leaf_weight=8.7398694604635221 168.65099430084229 4.2230575233697882 83.098092526197433 20.646546870470047 19.630295008420944 41.210240483283997 8.545515447854994 82.136597514152527 20.068747073411945 7.2216138690710059 12.841951996088026 255.32222926616669 13.977338299155234 10.767873257398604 13.705058336257933 28.386988416314125 125.98772895336151 6.1517513394355765 2392.7185219228268 20.326599732041359 47.065847143530846 27.571539282798767 11.177448764443396 5.957684874534606 120.02839939296246 908.17816768586636 5.8991754949092856 139.71132160723209 242.67005921900272 150.93574434518814
leaf_count=41 750 29 397 93 93 295 54 632 97 51 99 1948 97 81 92 202 894 40 18719 135 240 209 60 38 548 3902 42 1070 1838 1091
internal_value=0 -0.0295391 -0.0359717 0.0524287 -0.0418989 -0.0180217 0.119805 -0.0216679 -0.0309012 0.0250687 0.097912 -0.0389012 0.107048 0.107412 0.124996 -0.0514392 -0.0129141 0.12706 -0.0537332 0.0703784 0.102133 -0.0136259 0.0185285 0.120054 0.122534 0.128325 0.0676446 -0.0425717 -0.0346087 -0.0200536
internal_weight=0 4030.66 3851.24 241.012 3610.23 1032.33 972.892 102.783 930.432 115.824 101.898 814.607 138.229 179.419 936.58 2577.9 145.618 922.875 2432.28 74.6141 54.2875 36.3114 39.5644 89.0558 124.251 916.724 25.9679 788.639 533.317 290.647
internal_count=33877 29539 28708 1399 27309 7341 4338 725 6807 721 534 6086 674 831 4088 19968 987 3996 18981 426 291 250 262 435 577 3956 139 5947 3999 2161
shrinkage=0.05


Tree=6
num_leaves=31
num_cat=0
split_feature=7 14 12 14 3 9 19 7 26 19 3 13 27 4 15 31 14 17 19 7 17 22 15 45 12 14 11 11 38 9
split_gain=5196.11 1412.69 1320.54 530.114 409.323 382.081 236.347 177.105 161.469 141.602 129.362 123.45 121.075 103.747 103.6 97.0942 94.7398 83.165 94.8564 70.7851 51.506 93.752 78.1133 50.8654 48.1437 44.8942 42.4468 60.0372 40.0818 39.8866
threshold=4722.5000000000009 131.00000000000003 1.0000000180025095e-35 140.00000000000003 799.50000000000011 13907.500000000002 365.00000000000006 8904.5000000000018 0.37217824562776008 198.50000000000003 1771.5000000000002 25.500000000000004 2.007352941176471 13.500000000000002 34.500000000000007 0.41710223257541662 406.00000000000006 3.5000000000000004 19325.000000000004 8904.5000000000018 4.5000000000000009 1797.0000000000002 58.500000000000007 168.50000000000003 7813.5000000000009 406.00000000000006 55.000000000000007 51.500000000000007 4.5000000000000009 38.000000000000007
decision_type=10 8 10 10 2 10 8 10 2 10 2 10 2 2 8 2 8 10 10 10 10 10 10 2 10 10 8 10 2 10
left_child=12 5 3 -3 -4 7 9 8 -2 15 11 16 26 25 -11 -6 -8 18 -7 -18 -21 -22 23 24 -23 -5 27 -1 -20 -10
right_child=1 2 4 13 6 17 10 -9 29 14 -12 -13 -14 -15 -16 -17 19 -19 28 20 21 22 -24 -25 -26 -27 -28 -29 -30 -31
leaf_value=0.094433624777453221 0.094101725503379877 0.11841815123040905 0.083082848416244762 0.089786367394207256 -0.043497080143429595 0.11771943420240137 0.071801103467883876 -0.058781363636499606 0.067125414572793737 -0.043477916793774593 -0.053379114111135995 -0.055012325258353714 -0.045343437761634679 -0.034413348269176962 0.10617810143855409 0.073134671736228229 0.08470241453531166 0.11801485519444575 -0.020173812705467069 -0.035510068511211995 -0.048573036764884697 -0.041412042997848036 -0.050002181469226352 0.00332534705508848 0.12601239141703899 0.0012263208449244058 0.1227373375163372 -0.044310403528233282 0.074819121970972319 -0.044627440064640207
leaf_weight=36.778573408722878 63.714167021214962 181.30743363499641 61.86103843152523 28.819448918104172 91.80777857452631 33.089966908097267 30.068742647767067 66.667164422571659 7.92587687075138 13.893581390380858 2461.2236329391599 259.40254161506891 10.315144151449202 106.37362721562386 47.160323679447174 20.138946354389191 14.194814175367354 183.05954930186272 34.296090006828308 239.4756171181798 46.658232726156712 3.9828987047076216 16.240945309400558 18.753886386752129 30.068071559071541 26.820088028907776 727.81851051747799 8.4847504049539548 14.037946984171866 41.421246014535427
leaf_count=161 321 765 304 139 708 145 174 493 42 99 19947 2052 80 774 209 105 75 792 240 1798 358 28 124 135 173 171 3036 41 76 312
internal_value=0 -0.0228525 -0.0329777 0.0601758 -0.0425405 0.0612136 -0.0449494 0.00482019 0.042693 0.0118142 -0.0481024 -0.0282883 0.117412 -0.00565193 0.0718231 -0.0215999 -0.0107458 0.0992116 0.0551219 -0.017816 -0.0223645 0.00498419 0.0415244 0.0704723 0.105218 0.0486213 0.119695 0.0676511 0.00929221 -0.0247628
internal_weight=0 4142.46 3698.25 343.321 3354.93 444.212 3293.07 179.728 113.061 173.001 3120.07 658.846 783.397 162.013 61.0539 111.947 399.443 264.484 81.424 369.374 355.18 115.704 69.0458 52.8049 34.051 55.6395 773.082 45.2633 48.334 49.3471
internal_count=33877 30559 28138 1849 26289 2421 25985 1168 675 1121 24864 4917 3318 1084 308 813 2865 1253 461 2691 2616 818 460 336 201 310 3238 202 316 354
shrinkage=0.05


Tree=7
num_leaves=31
num_cat=0
split_feature=28 14 3 3 12 14 17 9 0 0 0 15 25 12 27 27 27 0 14 0 0 19 3 0 0 0 15 17 44 0
split_gain=5596.7 889.272 816.7 339.559 328.869 259.362 258.443 214.989 202.206 175.141 163.026 143.115 134.006 94.9997 100.47 80.1586 73.2998 68.0561 65.77 63.3235 86.4957 62.7388 61.221 63.8973 150.663 108.575 69.7981 58.0101 129.197 53.6168
threshold=1.0500000000000003 379.00000000000006 1897.5000000000002 799.50000000000011 1.0000000180025095e-35 379.00000000000006 6.5000000000000009 55.500000000000007 48765.000000000007 48765.000000000007 52822.500000000007 71.500000000000014 92.861904761904768 5.5000000000000009 1.1118055555555559 1.4180107526881722 1.0719033551382149 1429.5000000000002 2869.5000000000005 50477.500000000007 48765.000000000007 286.00000000000006 1771.5000000000002 53007.000000000007 49163.500000000007 50425.000000000007 80.500000000000014 15.500000000000002 37.801288358833908 49328.500000000007
decision_type=8 8 2 2 10 10 10 8 2 2 2 8 2 10 2 2 2 2 10 2 2 8 2 2 2 2 10 10 2 2
left_child=8 2 9 29 5 -5 13 16 17 -2 -11 -8 -12 14 19 18 -6 -1 -10 20 -4 -7 23 24 -9 26 -26 -24 -29 -3
right_child=1 3 6 4 7 21 11 22 15 10 12 -13 -14 -15 -16 -17 -18 -19 -20 -21 -22 -23 27 -25 25 -27 -28 28 -30 -31
leaf_value=0.091075635279053074 -0.055690836338262009 -0.044783529679852566 -0.047531529502693758 0.098648285883219555 0.086898135592553827 0.089388638279775862 0.10242901407042955 -0.05657986787151989 0.11064792854643823 0.11141266297421559 0.10051073553374952 -0.030037974209889413 -0.031938563478823741 -0.050848078232563154 -0.049616838591683518 -0.011680043586756762 -0.031997773493785207 -0.054507977275308997 -0.045306949753238235 -0.0084945787394607054 0.13333472062834503 -0.042470040237768202 -0.055069559638005056 -0.052096908427405712 0.074911875538876391 -0.024103089924055934 -0.050404985130885371 0.079818942173872379 -0.050358901572827963 0.096135679564886722
leaf_weight=9.2953505814075452 20.824163995683193 6.5707873404026023 7.6299983635544768 68.161120712757111 37.636307060718536 8.2155591249465925 56.438799880445004 143.29014580696821 960.88580030202866 222.16428408771753 31.411111891269684 30.167803011834621 42.960080504417419 321.04666037112474 49.298448212444782 13.442594349384306 17.987270265817642 25.936881467700005 5.8092582374811164 29.885247580707073 24.78326778113842 82.603276178240776 2032.8781297653913 283.2997829169035 66.431479662656784 91.570369362831116 11.808639474213122 24.659931123256683 65.124103903770447 49.777367249131203
leaf_count=41 148 37 57 290 184 37 291 1170 3956 985 144 230 283 2611 375 92 128 209 40 214 129 608 17182 2274 437 704 93 151 546 231
internal_value=0 -0.0282254 0.0173101 -0.0409694 -0.0433206 0.0263469 -0.0213131 -0.0473284 0.103712 0.0802414 0.0900963 0.0566501 0.0251694 -0.0371086 0.00261708 0.107935 0.0486741 -0.0132695 0.109619 0.0442088 0.0904712 -0.0288729 -0.0493267 -0.0349411 -0.019186 0.0126591 0.0552131 -0.0533319 -0.0136443 0.0787312
internal_weight=0 3826.62 836.61 2990.01 2933.67 158.98 519.25 2774.69 1015.37 317.36 296.535 86.6066 74.3712 432.644 111.597 980.138 55.6236 35.2322 966.695 62.2985 32.4133 90.8188 2719.06 596.4 313.101 169.81 78.2401 2122.66 89.784 56.3482
internal_count=33877 29539 5467 24072 23804 935 3907 22869 4338 1560 1412 521 427 3386 775 4088 312 250 3996 400 186 645 22557 4678 2404 1234 530 17879 697 268
shrinkage=0.05


Tree=8
num_leaves=31
num_cat=0
split_feature=28 7 19 4 7 1 0 12 10 15 12 7 4 22 12 0 0 9 24 0 0 0 17 2 15 21 7 0 0 0
split_gain=5037.48 1072.78 664.11 301.532 477.416 289.575 175.483 152.475 139.703 135.962 135.096 141.333 104.727 84.1367 81.7666 110.44 143.651 78.5123 64.2205 62.6804 61.1547 61.1043 56.8544 53.5393 50.3194 43.5068 40.3947 51.5252 146.015 96.446
threshold=1.0500000000000003 4722.5000000000009 394.50000000000006 12.500000000000002 8904.5000000000018 1285.5000000000002 48765.000000000007 1.0000000180025095e-35 889.00000000000011 34.500000000000007 13.500000000000002 15417.500000000002 5.5000000000000009 1508.0000000000002 1.0000000180025095e-35 49822.500000000007 49163.500000000007 46.000000000000007 604.60130718954258 1429.5000000000002 52630.500000000007 48765.000000000007 5.5000000000000009 966.00000000000011 74.500000000000014 55.000000000000007 15417.500000000002 53007.000000000007 49163.500000000007 50425.000000000007
decision_type=8 10 8 2 10 2 2 10 10 8 10 10 2 10 10 2 2 8 2 2 2 2 10 2 10 8 10 2 2 2
left_child=6 13 5 4 8 9 19 -7 -4 -3 11 -6 25 18 15 16 -5 22 -2 -1 21 -13 -16 -8 -25 -12 -14 28 -28 -30
right_child=1 2 3 14 10 7 23 -9 -10 -11 12 20 26 -15 17 -17 -18 -19 -20 -21 -22 -23 -24 24 -26 -27 27 -29 29 -31
leaf_value=0.085519678427484952 -0.028954803520973654 -0.033078826610270291 0.1069004935261037 -0.051097895600703526 -0.055576751963526821 0.08874046618692058 -0.0072703358095477615 -0.055252153040352782 -0.043028475689292404 0.10815738506222901 -0.022420719994972041 -0.046120068193351113 -0.057552967058784904 0.1047380715425367 -0.023570333277717147 -0.049232068804198441 0.10316701514611788 -0.053210386884892817 0.091765283022313793 -0.053929786101335336 -0.01540414320299653 0.10230390225570217 0.098568577973698224 0.10327494976263107 -0.041924607106640893 0.10208667742155431 -0.056580174261086302 -0.049816300223942657 0.05976004384499322 -0.020154710566735314
leaf_weight=9.5278896540403348 24.270022831857204 18.700767897069454 89.973453849554062 24.303188875317574 38.562401734292507 22.260104104876518 10.986332654953001 74.63164022564888 17.554656177759171 126.98725867271423 10.168917723000051 6.7932153195142737 229.59421999752522 149.11789095401764 27.202865585684776 82.208867311477661 34.105461820960045 2137.2733614295721 17.180581077933311 24.950653947889805 19.981932386755943 51.707106932997704 12.225713253021238 976.57741817831993 5.0103800147771826 16.943095296621323 125.04377629607916 219.69744887202978 67.153552040457726 81.548329927027225
leaf_count=41 147 136 394 189 295 93 68 632 140 538 65 51 1948 612 202 632 166 18719 72 209 135 240 60 3992 28 74 1070 1838 455 636
internal_value=0 -0.0275906 -0.0338353 -0.0397225 -0.0163454 0.0457313 0.0973776 -0.0210453 0.0820849 0.0898256 -0.0287111 0.0209666 -0.0364974 0.0873833 -0.0495329 -0.0123752 0.0394125 -0.0519198 0.0230024 -0.012818 0.0590228 0.0841136 0.0172318 0.101223 0.10245 0.0570555 -0.0401531 -0.0318575 -0.0171877 0.0162488
internal_weight=0 3725.19 3534.62 3292.04 974.722 242.58 1027.05 96.8917 107.528 145.688 867.194 117.045 750.149 190.568 2317.32 140.618 58.4087 2176.7 41.4506 34.4785 78.4823 58.5003 39.4286 992.574 981.588 27.112 723.037 493.443 273.746 148.702
internal_count=33877 29539 28708 27309 7341 1399 4338 725 534 674 6807 721 6086 831 19968 987 355 18981 219 250 426 291 262 4088 4020 139 5947 3999 2161 1091
shrinkage=0.05


Tree=9
num_leaves=31
num_cat=0
split_feature=28 7 19 3 27 12 15 27 14 14 17 7 27 14 22 22 25 16 12 7 37 24 14 17 3 14 23 17 15 1
split_gain=4556.97 980.818 617.357 416.129 257.036 188.736 156.352 156.342 159.27 136.138 153.302 94.8509 79.8386 78.0141 77.8575 73.4483 73.6047 72.2441 65.1724 59.6944 57.784 52.9259 51.6512 50.3948 47.5233 51.5055 43.0171 47.9293 65.4915 40.5445
threshold=1.0500000000000003 4722.5000000000009 394.50000000000006 799.50000000000011 0.98761598036960363 13.500000000000002 74.500000000000014 0.92319037894259148 379.00000000000006 120.00000000000001 6.5000000000000009 8904.5000000000018 1.911019883272332 2869.5000000000005 1797.0000000000002 1508.0000000000002 159.77500000000003 55.500000000000007 173.50000000000003 8904.5000000000018 5.5000000000000009 77.019230769230788 297.50000000000006 5.5000000000000009 1771.5000000000002 406.00000000000006 1666.5000000000002 4.5000000000000009 57.000000000000007 639.00000000000011
decision_type=8 10 8 2 2 10 10 2 10 8 10 10 2 10 10 10 2 10 10 10 2 2 8 10 2 10 10 10 8 2
left_child=6 15 4 -4 18 7 12 8 22 10 -7 -12 13 21 -9 16 -2 29 20 -10 -3 -1 23 -5 25 26 -11 -28 -29 -6
right_child=1 2 3 5 17 9 -8 14 19 24 11 -13 -14 -15 -16 -17 -18 -19 -20 -21 -22 -23 -24 -25 -26 -27 27 28 -30 -31
leaf_value=-0.036185987632899444 0.083419883542604142 0.10797370842872347 0.078195650920763429 0.0078702943000299227 0.065529390521614939 -0.039844194637621802 -0.051540378329129478 -0.051072479594025277 0.059257747585781312 -0.045327246514672313 0.10928681351078295 -0.049459857352687257 -0.041409001423046536 -0.048664171744374832 0.008917411267265302 0.098365300359228192 -0.044284424825651904 0.062386188078706245 -0.0194445996425835 -0.04283263131810381 0.0042076788492856577 0.098109587203557239 0.09655573836341752 0.13113094545543633 -0.053391015985464522 -0.053142755436406945 -0.022046048738454345 0.089283963152085491 -0.023420816710239364 -0.051519403428857094
leaf_weight=6.4527176767587653 21.215191163122654 115.70536527037621 72.196275934576988 53.250544160604477 6.5132387280464163 76.880337744951248 17.48139987885952 229.42588645219803 15.314129360020159 109.86939923465252 36.913280799984932 11.109242931008337 9.6662119626998884 8.1352513656020147 69.880919441580772 150.91802136600018 20.169120922684669 19.857311129570007 12.769854322075842 85.367822647094727 15.329752363264559 991.4696110188961 49.893611632287502 7.8898223042488089 1963.1224712356925 236.55876080691814 121.31189009547234 24.907857708632946 23.468696318566799 71.586769126355648
leaf_count=44 89 476 324 357 32 616 141 1957 98 905 154 92 71 59 471 612 130 106 96 715 95 4023 242 44 17944 2096 956 156 182 594
internal_value=0 -0.0270043 -0.0331801 -0.0390266 0.0435881 -0.0417918 0.0919457 -0.0139416 0.0188387 -0.047242 0.00363588 0.0720541 0.0945116 0.0958971 -0.0371001 0.0823289 0.0220094 -0.0187048 0.0856954 -0.0264525 0.0960799 0.0971706 0.0596487 0.0274262 -0.0498061 -0.036017 -0.0212508 -0.00531543 0.0358489 -0.0403655
internal_weight=0 3621.43 3429.12 3187.36 241.762 3115.16 1033.21 511.023 211.716 2604.14 124.903 48.0225 1015.72 1006.06 299.307 192.302 41.3843 97.9573 143.805 100.682 131.035 997.922 111.034 61.1404 2479.24 516.117 279.558 169.688 48.3766 78.1
internal_count=33877 29539 28708 27309 1399 26985 4338 3884 1456 23101 862 246 4197 4126 2428 831 219 732 667 813 571 4067 643 401 22239 4295 2199 1294 338 626
shrinkage=0.05


Tree=10
num_leaves=31
num_cat=0
split_feature=7 14 12 14 9 4 7 7 10 7 37 19 1 0 0 15 38 27 20 27 0 0 14 16 19 0 0 0 0 17
split_gain=3458.12 1022.63 977.213 333.333 240.254 219.092 205.392 143.447 143.531 140.654 178.588 134.736 146.788 98.4282 191.838 123.553 86.9693 81.033 79.5407 78.1512 66.9671 66.1746 52.8377 49.8036 57.2684 63.0983 45.4672 50.0731 39.4149 35.9162
threshold=4722.5000000000009 131.00000000000003 1.0000000180025095e-35 140.00000000000003 13907.500000000002 12.500000000000002 8904.5000000000018 8904.5000000000018 80.500000000000014 15417.500000000002 1.5000000000000002 286.00000000000006 1285.5000000000002 53007.000000000007 49163.500000000007 77.500000000000014 4.5000000000000009 0.95663924794359589 20.500000000000004 2.1464285714285718 50425.000000000007 1429.5000000000002 406.00000000000006 5.5000000000000009 19325.000000000004 49987.500000000007 52546.500000000007 48765.000000000007 48765.000000000007 33.500000000000007
decision_type=10 8 10 10 10 2 10 10 10 10 2 8 2 2 2 10 2 2 10 2 2 2 10 10 10 2 2 2 2 8
left_child=19 4 3 -3 7 6 16 8 26 -8 13 12 -7 14 21 18 -4 22 20 -1 -16 -11 -5 24 -6 28 27 -2 -26 -22
right_child=1 2 5 17 23 11 9 -9 -10 10 -12 -13 -14 -15 15 -17 -18 -19 -20 -21 29 -23 -24 -25 25 -27 -28 -29 -30 -31
leaf_value=0.094360534711422431 -0.043681932151043712 0.093089171889728262 0.098521309517195982 0.06911486913290503 0.093057943804442225 0.086463802254053423 -0.05728056122859565 -0.057965439214538651 -0.038551466125575987 0.06498162010710698 0.089447358277665312 -0.051463271136658995 -0.054338295784414695 -0.044361217616955599 0.090501545166956299 -0.055083475902073145 -0.045487203111909943 -0.040017363595368206 -0.044444571433692556 -0.047002641731806474 0.054784749063473803 -0.055781910601800114 -0.013408958041413689 0.094000695625761369 -0.037931805395132634 -0.038282329364778551 -0.019350041442785074 0.10600526060115351 0.09923299033054428 -0.019283660089622658
leaf_weight=804.63029929250479 5.0853175073862067 189.4992438107729 47.42003882676363 40.182200565934181 36.660270228981972 36.173560999333858 250.13975680619478 59.553387865424156 39.648240812122822 10.726656936109064 37.953375980257988 1956.8966407105327 34.062681972980499 238.36698196828365 79.854194357991219 33.734556190669537 12.028542995452879 79.95585060864687 19.09481630474329 8.7774056866765005 33.435175433754921 132.97609063237906 34.888249844312668 184.01626389473677 5.7530304864048984 27.782144442200661 9.7532561123371107 57.795492067933083 19.320522472262383 28.951554343104362
leaf_count=3242 38 765 212 211 151 160 2261 493 310 52 177 18402 312 2066 460 280 110 617 147 76 220 1211 256 762 46 209 70 257 85 219
internal_value=0 -0.0209062 -0.0305182 0.048965 0.0500548 -0.0398221 -0.0195935 0.00361341 0.0367171 -0.0258151 -0.0128749 -0.049021 0.0185647 -0.0198894 -0.00251129 0.0296668 0.0688512 -0.00546961 0.0478452 0.0927236 0.0606789 -0.0459993 0.03141 0.0789918 0.0467583 0.0124232 0.0777354 0.0929263 0.0672838 0.0208808
internal_weight=0 3741.71 3296.34 344.526 445.368 2951.81 924.682 171.836 112.282 865.233 615.093 2027.13 70.2362 577.14 338.773 195.07 59.4486 155.026 161.336 813.408 142.241 143.703 75.0705 273.532 89.516 52.8557 72.6341 62.8808 25.0736 62.3867
internal_count=33877 30559 28138 1849 2421 26289 7415 1168 675 7093 4832 18874 472 4655 2589 1326 322 1084 1046 3318 899 1263 467 1253 491 340 365 295 131 439
shrinkage=0.05


Tree=11
num_leaves=31
num_cat=0
split_feature=28 7 19 3 1 12 4 15 14 17 12 15 14 7 27 14 22 14 7 27 4 17 27 20 24 24 15 4 27 15
split_gain=3801.85 817.145 541.271 363.328 217.834 178.148 138.353 127.069 122.659 129.622 121.439 100.58 94.396 76.943 66.185 63.674 62.9933 62.1764 77.4327 51.9252 49.1309 46.1265 47.735 43.6131 40.3227 31.6134 39.3685 51.4946 33.1509 31.1943
threshold=1.0500000000000003 4722.5000000000009 394.50000000000006 799.50000000000011 1285.5000000000002 13.500000000000002 13.500000000000002 74.500000000000014 120.00000000000001 6.5000000000000009 1.0000000180025095e-35 34.500000000000007 1.0000000180025095e-35 8904.5000000000018 2.0995773360749377 2869.5000000000005 1508.0000000000002 379.00000000000006 8904.5000000000018 1.100143266475645 9.5000000000000018 5.5000000000000009 0.88975694444444453 16.500000000000004 77.019230769230788 389.92129629629636 58.500000000000007 7.5000000000000009 1.2849025974025976 61.500000000000007
decision_type=8 10 8 2 2 10 2 10 8 10 10 8 10 8 2 10 10 10 10 2 2 10 2 10 2 2 10 2 2 10
left_child=7 16 4 29 11 6 17 14 9 -7 -6 -3 -8 -11 15 24 19 -5 -19 -2 23 -14 -23 25 -1 26 27 -10 -29 -4
right_child=1 2 3 5 10 8 12 -9 20 13 -12 -13 21 -15 -16 -17 -18 18 -20 -21 -22 22 -24 -25 -26 -27 -28 28 -30 -31
leaf_value=-0.029610545163786969 0.06247795746835566 -0.031423034304101087 0.078897246999312734 0.053550534180251567 0.075071180010914756 -0.038615966276581239 0.0667231991989925 -0.050142484257424007 -0.034708537456353765 0.097350830337429417 -0.054039296358185107 0.092388909411764086 -0.043032443778694474 -0.048389367774541614 -0.047379549528876852 -0.047212439341506485 0.088098929539621895 0.096239600772063505 -0.032124387673308545 -0.045921506241365734 -0.051536954737223299 0.10384739465680465 -0.046229196127448094 -0.054725966538989514 0.088954185220074256 -0.039880571778739486 -0.051517888057518182 0.061494896457041454 -0.018890214111962612 -0.044378042448750502
leaf_weight=6.3436518982052794 24.433036744594574 17.735657818615437 69.294351398944855 85.717240512371063 22.764153927564621 73.26463571190834 21.165556125342846 16.251575626432896 32.31258936971426 37.697150826454163 67.560451604425907 130.25130242109299 294.65776091814041 10.387132048606871 8.0740483552217466 7.6054337695240966 152.13856004178524 12.435536354780195 61.361543573439121 17.131782397627831 1990.3598188385367 9.5430490747094172 8.1766421124339086 111.70831798762083 990.09127885848284 79.55895309895277 26.418012224137783 47.38905456662178 16.25950787961483 4.2819921374320975
leaf_count=45 102 136 299 446 93 616 88 141 271 154 632 538 2655 92 64 59 612 56 499 117 19491 66 74 1040 4029 718 241 338 140 25
internal_value=0 -0.0259204 -0.031914 -0.0376936 0.0403579 -0.0404739 -0.0130103 0.0836185 -0.0460417 0.00290824 -0.0205787 0.0773294 -0.0312686 0.065193 0.0858609 0.0870245 0.0733373 0.0250821 -0.00852514 0.0177419 -0.0486201 -0.0382904 0.0369305 -0.029901 0.0881416 -0.0157663 0.000299673 0.0153256 0.04101 0.0707383
internal_weight=0 3424 3230.3 2991.99 238.312 2918.41 493.057 1028.37 2425.36 121.349 90.3246 147.987 333.543 48.0843 1012.11 1004.04 193.703 159.514 73.7971 41.5648 2304.01 312.377 17.7197 313.646 996.435 201.938 122.379 95.9612 63.6486 73.5763
internal_count=33877 29539 28708 27309 1399 26985 3884 4338 23101 862 725 674 2883 246 4197 4133 831 1001 555 219 22239 2795 140 2748 4074 1708 990 749 478 324
shrinkage=0.05


Tree=12
num_leaves=31
num_cat=0
split_feature=28 7 19 3 0 0 13 1 0 0 12 4 15 15 22 25 0 17 9 2 0 24 15 8 8 3 24 0 7 7
split_gain=3475.96 752.485 504.055 335.162 261.715 694.828 271.961 195.587 146.221 118.646 112.826 98.2735 90.1162 74.818 56.7604 59.8032 47.7342 43.2479 42.5413 39.5612 38.0462 34.6825 33.5456 31.2943 30.0687 28.6176 25.8013 25.1745 25.1632 57.843
threshold=1.0500000000000003 4722.5000000000009 394.50000000000006 799.50000000000011 50425.000000000007 49163.500000000007 41.500000000000007 1285.5000000000002 49558.500000000007 48765.000000000007 1.0000000180025095e-35 16.500000000000004 34.500000000000007 78.500000000000014 1508.0000000000002 159.77500000000003 1429.5000000000002 4.5000000000000009 336.00000000000006 966.00000000000011 49163.500000000007 165.92329545454547 74.500000000000014 227.00000000000003 13375.500000000002 1771.5000000000002 591.10795454545462 49188.500000000007 15417.500000000002 8904.5000000000018
decision_type=8 10 8 2 2 2 10 2 2 2 10 2 8 10 10 2 2 10 10 2 2 2 10 10 10 2 2 2 10 10
left_child=9 14 7 20 5 -5 8 12 13 16 -9 18 -3 21 15 -2 -1 -13 -10 -11 -4 -7 -21 -8 -20 -26 -19 -14 29 -23
right_child=1 2 3 4 -6 6 23 10 11 19 -12 17 27 -15 -16 -17 -18 26 24 22 -22 28 -24 -25 25 -27 -28 -29 -30 -31
leaf_value=0.069031283716871589 0.071004027670659609 -0.030598446924133011 -0.048889662208981589 -0.055613572776663248 -0.05094073227981169 0.021151645049756345 0.056262243275126481 0.071458873007256382 0.10656389563941067 -0.0089381660905490726 -0.053554077255839855 -0.042142325010431456 -0.031899277905861584 -0.046483876138376984 0.083953562314737773 -0.044237308393825357 -0.052779978026690523 -0.037053606211475708 -0.04653393996333887 0.084788517947689324 0.07650383978647711 0.091544887490299431 -0.037946111586277545 -0.053030408060642957 0.064851250415001338 2.2786417398472131e-05 0.10621529318935535 0.091166557422618852 0.12125805666391548 -0.046054593461580133
leaf_weight=10.039358869194983 21.771060302853584 17.366323404014111 5.27381807565689 558.14232101291418 1837.3369826599956 16.149499945342541 5.4604465514421454 22.818561539053917 23.06527104228735 11.180583290755747 64.850717559456825 61.604263171553612 3.3668801188468924 9.0454178750514966 151.77394706010818 19.535786159336567 22.43185693770647 3.5618984624743444 9.4098962098360044 973.08822378516197 69.05580173432827 46.900231875479221 4.5489965155720702 88.302251890301704 45.697027027606964 26.472935192286968 7.0426704213023186 127.29004137217999 77.110573463141918 7.7833346724510184
leaf_count=41 89 136 29 5602 18190 124 38 93 114 68 632 590 20 88 612 130 209 34 76 3992 295 234 28 882 260 219 47 518 417 70
internal_value=0 -0.0253828 -0.0312983 -0.0370213 -0.0397937 -0.0189556 0.0289292 0.038775 0.0500149 0.0799887 -0.0201476 0.0184951 0.0734763 0.0848439 0.0699455 0.0169755 -0.0132986 -0.0259545 0.0490783 0.0830728 0.0665591 0.0933863 0.0841411 -0.0456234 0.0306642 0.0417131 0.0598498 0.0875622 0.101789 0.0710259
internal_weight=0 3326.19 3133.11 2897.41 2823.09 985.748 427.606 235.693 333.843 1021.29 87.6693 176.854 148.023 156.989 193.081 41.3068 32.4712 72.2088 104.645 988.818 74.3296 147.944 977.637 93.7627 81.5799 72.17 10.6046 130.657 131.794 54.6836
internal_count=33877 29539 28708 27309 26985 8795 3193 1399 2273 4338 725 1340 674 933 831 219 250 671 669 4088 324 845 4020 920 555 479 81 538 721 304
shrinkage=0.05


Tree=13
num_leaves=31
num_cat=0
split_feature=28 7 3 7 7 11 19 0 0 0 0 7 0 0 13 27 20 24 27 11 4 27 0 0 15 0 0 19 1 0
split_gain=3187.65 694.739 472.778 239.398 247.059 232.426 148.357 107.834 282.787 148.015 106.941 103.371 93.9585 214.927 79.3079 61.7128 57.8315 57.0897 56.1265 51.8457 50.1603 48.921 44.4628 40.2665 37.2851 33.744 30.5071 29.1753 32.371 28.4746
threshold=1.0500000000000003 4722.5000000000009 1724.5000000000002 8904.5000000000018 15417.500000000002 14889.000000000002 394.50000000000006 50425.000000000007 49163.500000000007 49558.500000000007 48765.000000000007 15417.500000000002 53007.000000000007 48765.000000000007 31.500000000000004 1.1433349259436218 20.500000000000004 412.47500000000008 1.4180107526881722 65.500000000000014 15.500000000000002 1.7156334231805932 1429.5000000000002 53083.500000000007 79.500000000000014 50425.000000000007 49163.500000000007 365.00000000000006 8080.5000000000009 49163.500000000007
decision_type=8 10 2 10 10 10 8 2 2 2 2 10 2 2 10 2 10 2 2 10 2 2 2 2 10 2 2 8 2 2
left_child=10 21 3 23 -5 -6 11 8 -8 14 22 -4 13 -7 17 29 24 20 -12 -11 -10 -2 -1 26 25 -15 -3 28 -14 -13
right_child=1 2 6 4 5 12 7 -9 9 19 18 15 27 16 -16 -17 -18 -19 -20 -21 -22 -23 -24 -25 -26 -27 -28 -29 -30 -31
leaf_value=0.065830121229692687 0.072463278595001374 -0.03146018140794158 -0.049833073059623478 -0.05610187515400758 0.084692591737959677 -0.055483197293878309 -0.05525856460714778 -0.053117197294568555 0.069225047235225309 0.059128581265231767 0.08113418498665044 -0.039143811259317346 0.079841981851429988 0.082096654831506133 -0.033913583290719293 -0.045266129170523806 -0.04694564204123694 0.098785418369745956 -0.016854967686872831 -0.031305709216520428 -0.037533400635536264 -0.04172738191410278 -0.052262339624156967 0.0063990083199023419 -0.045697837609741866 0.028565568704744571 0.088862199020730212 -0.042784354895928273 -0.044872555340196109 0.077975593287124237
leaf_weight=10.096821099519731 183.17986491322517 4.6353953778743735 40.572236478328705 192.88031116127968 84.901880636811256 72.196304947137833 416.8533471673727 1440.0373616442084 22.211195632815361 15.871644929051397 965.4010351896286 4.4995067790150634 9.3128980770707148 85.084520280361176 21.776449486613274 13.255373083055018 13.178550787270067 60.406972885131836 14.200056232511995 147.60156747698784 18.425325073301792 8.6376070007681829 21.563165374100208 21.706415608525276 6.954926721751689 49.062758602201939 89.595466651022434 140.16553054004908 7.8667551875114432 56.594022236764431
leaf_count=41 750 33 363 1900 384 700 4431 15177 123 110 3996 45 41 427 222 124 114 356 92 1435 174 81 209 137 57 338 381 1300 81 255
internal_value=0 -0.0248855 -0.0307283 0.00289491 -0.00877875 0.0108504 -0.0422983 -0.0452646 -0.0290776 0.0091618 0.0767632 0.01285 -0.00583796 0.0147479 0.0502159 0.0474655 0.0479022 0.0686534 0.0796823 -0.0219169 0.0213289 0.0669437 -0.0129272 0.0685307 0.0572931 0.0632255 0.0824125 -0.0352817 0.0240097 0.0683824
internal_weight=0 3227.46 3035.65 777.542 661.604 468.724 2258.11 2143.18 703.147 286.293 1011.26 114.921 383.822 226.477 122.82 74.3489 154.281 101.043 979.601 163.473 40.6365 191.817 31.66 115.937 141.102 134.147 94.2309 157.345 17.1797 61.0935
internal_count=33877 29539 28708 5893 5342 3442 22815 22028 6851 2420 4338 787 3058 1636 875 424 936 653 4088 1545 297 831 250 551 822 765 414 1422 122 300
shrinkage=0.05


Tree=14
num_leaves=31
num_cat=0
split_feature=28 7 3 14 12 0 3 0 15 17 7 0 45 31 0 25 7 14 7 22 25 24 20 0 0 9 9 10 0 37
split_gain=2929.97 640.933 448.273 346.388 199.342 156.086 145.264 118.224 98.6803 94.1 146.157 79.9013 75.3088 71.9882 64.2579 71.8893 62.5861 56.3417 51.2534 50.5413 52.4924 48.6752 47.8366 49.4907 136.686 44.7667 36.0885 32.4303 32.2213 28.9678
threshold=1.0500000000000003 4722.5000000000009 1724.5000000000002 406.00000000000006 1.0000000180025095e-35 50367.500000000007 799.50000000000011 48765.000000000007 74.500000000000014 6.5000000000000009 8904.5000000000018 48765.000000000007 102.50000000000001 0.37509721517562872 52822.500000000007 92.861904761904768 8904.5000000000018 2869.5000000000005 15417.500000000002 1508.0000000000002 156.24662162162164 77.019230769230788 17.500000000000004 48765.000000000007 50425.000000000007 702.00000000000011 29.500000000000004 247.50000000000003 49328.500000000007 6.5000000000000009
decision_type=8 10 2 8 10 2 2 2 10 10 10 2 2 2 2 2 10 10 10 10 2 2 10 2 2 10 8 10 2 2
left_child=8 19 3 11 5 7 28 -4 17 26 27 -3 13 -12 -13 -16 25 21 -18 20 -2 -1 23 -20 -25 -8 -6 -11 -5 -23
right_child=1 2 4 6 9 -7 16 -9 -10 10 12 14 -14 -15 15 -17 18 -19 22 -21 -22 29 -24 24 -26 -27 -28 -29 -30 -31
leaf_value=-0.035768430613637513 0.065552631517355187 -0.052037950298174644 -0.052755382593374936 -0.043061510548874686 0.011267233427750377 -0.045799275096014329 0.092556978304300513 0.079011979715543579 -0.048938605475305756 0.10527321980789157 -0.023115719412819053 0.081308698287818573 -0.044271747044919839 0.10399333871979427 0.069667951221241628 -0.039166547530390887 -0.054896726506781672 -0.048255734599913301 -0.053868594922123758 0.077324449493479164 -0.042717175649178207 0.07933165057429245 -0.053590426986011568 0.066834558278899017 -0.02481564890275105 -0.038894335253600323 -0.051206916334846642 -0.025845735890078436 0.06771500229125943 0.021130939651358899
leaf_weight=8.4325699731707555 21.276469349861145 14.545405156910418 20.175691224634647 6.0987307652831069 22.76703605055809 69.41838151961565 16.188622608780861 77.065498262643814 14.834407307207583 24.495425961911682 26.914356999099255 146.31741762161255 201.46263734251261 16.356165379285812 29.760903909802437 27.248174451291561 155.36848366260529 7.8218096122145644 45.31763993948698 149.71026936173439 19.686438664793968 944.03305602073669 75.66796762496233 56.684723637998104 130.63647215813398 8.6518581658601779 1713.937277212739 4.8969157859683028 51.970174133777618 23.6368373259902
leaf_count=63 86 123 184 37 182 622 68 351 141 115 278 631 2163 81 134 202 1662 59 465 612 133 3966 771 312 1182 81 18790 49 225 109
internal_value=0 -0.0244007 -0.0301695 0.00276755 -0.0417247 0.0107099 -0.0184921 0.0511606 0.0738651 -0.0460769 -0.018673 0.0557855 -0.0314798 0.0274029 0.0639307 0.0180848 -0.0274208 0.0758121 -0.0316089 0.0639963 0.0139527 0.0769029 -0.0195951 -0.00817523 0.00333141 0.0472863 -0.0503759 0.0831732 0.0550342 0.0779565
internal_weight=0 3132.62 2941.95 764.457 2177.49 166.66 546.585 97.2412 998.759 2010.83 274.126 217.872 244.733 43.2705 203.326 57.0091 488.516 983.924 463.675 190.673 40.9629 976.102 308.307 232.639 187.321 24.8405 1736.7 29.3923 58.0689 967.67
internal_count=33877 29539 28708 5893 22815 1157 4803 535 4338 21658 2686 1090 2522 359 967 336 4541 4197 4392 831 219 4138 2730 1959 1494 149 18972 164 262 4075
shrinkage=0.05


Tree=15
num_leaves=31
num_cat=0
split_feature=28 7 3 14 12 0 3 0 0 17 7 0 45 31 13 0 0 23 0 19 27 22 25 0 14 9 0 16 0 4
split_gain=2697.53 593.294 424.772 316.185 189.234 143.218 133.048 106.944 92.3489 91.3086 133.792 72.8767 70.9018 65.311 63.1338 67.3485 127.334 60.9263 57.2251 67.4197 52.3322 46.113 48.6908 39.0023 38.0796 35.0469 33.7476 31.9257 29.2102 24.9009
threshold=1.0500000000000003 4722.5000000000009 1724.5000000000002 406.00000000000006 1.0000000180025095e-35 50367.500000000007 799.50000000000011 48765.000000000007 48765.000000000007 6.5000000000000009 8904.5000000000018 48765.000000000007 102.50000000000001 0.37509721517562872 13.500000000000002 53007.000000000007 49163.500000000007 1278.5000000000002 52822.500000000007 394.50000000000006 1.2849025974025976 1508.0000000000002 184.67948717948721 1429.5000000000002 2869.5000000000005 29.500000000000004 49622.500000000007 33.500000000000007 49328.500000000007 16.500000000000004
decision_type=8 10 2 8 10 2 2 2 2 10 10 2 2 2 10 2 2 10 2 10 2 10 2 2 10 8 2 8 2 2
left_child=8 21 3 11 5 7 28 -4 23 25 -11 -3 13 -12 15 16 -8 -18 -13 -20 24 22 -2 -1 -10 29 -22 -19 -5 -6
right_child=1 2 4 6 9 -7 14 -9 20 10 12 18 -14 -15 -16 -17 17 27 19 -21 26 -23 -24 -25 -26 -27 -28 -29 -30 -31
leaf_value=0.059692917018711281 0.057918830346653939 -0.051417300013298084 -0.0522106077247304 -0.042207524982703928 0.06322573007339212 -0.045015051618655044 -0.053421471601714489 0.07480082014946475 0.076464115975860281 0.078759334047115492 -0.022420830813310116 0.077358683964294073 -0.043592556375212352 0.098885812623798294 -0.050483810109558436 -0.039561242341211333 -0.020652750006460645 0.082209253812580915 0.077568726588606182 -0.029309492440149795 0.077540729695074778 0.074340333975218234 -0.04803094478025307 -0.051755763626376627 -0.044574303081597891 -0.050722650308194756 -0.048325615857816216 0.017273170608984843 0.064005450429122035 -0.033598591923352093
leaf_weight=10.131020039319994 23.560642808675766 14.022349886596201 19.407252810895443 5.9551480412483206 10.094125524163248 67.188110619783401 55.166906468570232 77.435982801020145 928.41387255489826 29.58400734513998 26.435443080961704 146.20248612761497 194.57810913026333 16.441724948585033 175.18027344346046 130.10461441427469 31.635564103722572 53.33949676156044 24.057739339768887 32.292463012039661 6.0788139253854778 148.0553755313158 16.927259020507336 20.468010984361172 5.3356731832027426 1645.5396028012037 13.66243479400873 30.727271683514118 52.338818177580833 12.836217172443865
leaf_count=41 98 123 184 37 67 622 581 351 3933 164 278 631 2163 81 1951 1274 242 291 103 233 26 612 121 209 36 18790 93 202 225 115
internal_value=0 -0.0239276 -0.02962 0.00264861 -0.0411543 0.0102974 -0.0180122 0.0488065 0.0712381 -0.0455209 -0.0181971 0.0533322 -0.0308336 0.0264294 -0.0267797 -0.0127407 0.00790259 0.0375528 0.0610157 0.017415 0.0739786 0.0615425 0.0134473 -0.0134579 0.0756787 -0.049867 -0.00600056 0.0594274 0.0521149 0.0106771
internal_weight=0 3039.11 2850.56 751.023 2099.54 164.031 534.448 96.8432 984.09 1935.51 267.039 216.575 237.455 42.8772 476.154 300.974 170.869 115.702 202.553 56.3502 953.491 188.543 40.4879 30.599 933.75 1668.47 19.7412 84.0668 58.294 22.9303
internal_count=33877 29539 28708 5893 22815 1157 4803 535 4338 21658 2686 1090 2522 359 4541 2590 1316 735 967 336 4088 831 219 250 3969 18972 119 493 262 182
shrinkage=0.05


Tree=16
num_leaves=31
num_cat=0
split_feature=28 7 3 14 12 0 3 0 15 16 45 0 7 15 14 0 25 7 27 9 11 7 0 0 9 27 7 24 15 25
split_gain=2489.9 549.586 402.558 289.221 179.57 131.578 121.911 97.0396 85.2513 78.154 92.0668 66.7039 55.9066 55.1916 123.64 50.9792 62.1426 49.4607 52.4186 46.9919 44.0351 62.9927 43.507 87.0756 38.5081 37.63 35.6868 33.3028 31.7614 29.7773
threshold=1.0500000000000003 4722.5000000000009 1724.5000000000002 406.00000000000006 1.0000000180025095e-35 50367.500000000007 799.50000000000011 48765.000000000007 74.500000000000014 16.500000000000004 102.50000000000001 48765.000000000007 8904.5000000000018 55.500000000000007 379.00000000000006 52822.500000000007 92.861904761904768 15417.500000000002 1.152680652680653 46.000000000000007 776.00000000000011 8904.5000000000018 48765.000000000007 53083.500000000007 702.00000000000011 1.7156334231805932 8904.5000000000018 412.47500000000008 57.000000000000007 146.4641025641026
decision_type=8 10 2 8 10 2 2 2 10 10 2 2 10 8 8 2 2 10 2 8 8 10 2 2 10 2 8 2 8 2
left_child=8 25 3 11 5 7 -5 -4 13 19 -11 -3 24 14 -1 -13 -17 -14 22 26 21 -15 -19 29 -8 -2 27 -6 -12 -24
right_child=1 2 4 6 9 -7 12 -9 -10 10 28 15 17 20 -16 16 -18 18 -20 -21 -22 -23 23 -25 -26 -27 -28 -29 -30 -31
leaf_value=0.075524505262721642 0.064051797847925196 -0.050814936910452593 -0.051682150515681084 0.049440413125316995 -0.03455071128466549 -0.044238774905484224 0.086627461416063062 0.070981712151512319 -0.048319100315230207 0.06409592361647902 0.020341113584738245 0.073787594844918619 -0.05422171812570431 0.074049006521931734 -0.03865940193258928 0.064732682662294608 -0.037761350013827633 -0.052228143782128027 -0.041953159990562511 -0.048677040682153269 0.077161374540039421 -0.056707574972944409 0.02172218854577472 -0.02817391929419907 -0.037467612770337895 -0.03994546032937725 -0.04965276812598015 0.088366393510482866 -0.052111100817558299 0.088120143700277528
leaf_weight=63.22362519800663 178.24762393534184 13.515710979700087 18.664690412580967 58.410076655447483 7.0141409486532238 65.038690604269505 16.090314045548443 77.624197259545326 13.966357193887232 32.684063851833344 19.13294930011034 145.72213800996542 143.19256856292486 19.024650439620018 35.686669081449509 29.403264813125134 26.139916695654392 30.152872085571289 129.98548770695925 1719.675898745656 820.31769622117281 14.500063970685003 41.669489331543446 66.774584405124187 8.1419294103980047 7.8519155010581008 13.552924200892447 14.225777037441729 56.880046039819717 28.650119565427303
leaf_count=272 750 123 184 262 62 622 68 351 141 206 176 631 1662 81 216 134 202 333 1328 20347 3557 71 270 644 81 81 130 76 661 155
internal_value=0 -0.0234619 -0.0290755 0.00253894 -0.0405889 0.00990743 -0.0175281 0.0466367 0.068926 -0.0449672 -0.00375194 0.05112 -0.0261222 0.0707423 0.0343774 0.0583979 0.0168607 -0.0302362 -0.0183959 -0.0475135 0.0748646 0.0174857 0.000192354 0.0123071 0.0452544 0.0592859 0.00951605 0.0482949 -0.0338205 0.0504634
internal_weight=0 2948.44 2762.34 737.848 2024.49 161.328 523.067 96.2889 966.719 1863.17 108.697 214.781 464.657 952.753 98.9103 201.265 55.5432 440.425 297.233 1754.47 853.842 33.5247 167.247 137.094 24.2322 186.1 34.7928 21.2399 76.013 70.3196
internal_count=33877 29539 28708 5893 22815 1157 4803 535 4338 21658 1043 1090 4541 4197 488 967 336 4392 2730 20615 3709 152 1402 1069 149 831 268 138 837 425
shrinkage=0.05


Tree=17
num_leaves=31
num_cat=0
split_feature=28 3 7 7 14 12 17 7 14 3 15 44 31 15 14 38 10 22 19 24 7 34 14 9 23 17 15 44 10 37
split_gain=2303 519.917 390.147 225.458 201.066 173.348 180.509 199.936 126.156 88.3244 78.8484 57.212 57.3729 51.3023 114.024 47.05 46.8637 42.5202 33.5587 32.108 30.0437 29.5271 25.7593 48.21 24.3467 35.2613 33.5555 23.7822 22.0121 21.5095
threshold=1.0500000000000003 1897.5000000000002 8904.5000000000018 15417.500000000002 406.00000000000006 5.5000000000000009 6.5000000000000009 8904.5000000000018 379.00000000000006 799.50000000000011 74.500000000000014 38.116187450988832 0.37509721517562872 55.500000000000007 379.00000000000006 2.5000000000000004 1143.0000000000002 1508.0000000000002 365.00000000000006 986.33746130030966 4722.5000000000009 -0.023321813903748986 48.500000000000007 38.000000000000007 821.00000000000011 4.5000000000000009 57.000000000000007 66.922996690562357 214.50000000000003 1.5000000000000002
decision_type=8 2 10 10 8 10 10 10 10 2 10 2 2 8 8 2 10 8 8 2 10 2 8 10 10 10 8 2 10 2
left_child=10 2 16 -4 -5 8 -7 28 15 -6 13 12 -9 14 -1 -3 22 18 -17 -20 -18 -13 23 -2 -11 29 27 -27 -8 -26
right_child=1 5 3 4 9 6 7 11 -10 24 -12 21 -14 -15 -16 17 20 -19 19 -21 -22 -23 -24 -25 25 26 -28 -29 -30 -31
leaf_value=0.073123455705812176 0.074387335815875436 0.071511866998689777 -0.05512872133667103 0.062026147926804769 0.056725280300564111 -0.05088943647891541 0.084171206627181125 -0.024099864967912193 -0.04392005288945159 -0.041047358276976732 -0.04767504014028575 -0.046013863576720077 0.089155677941835459 0.07264410950216714 -0.037410097242106685 0.072750107985737111 0.058629402663918063 0.055195324558458686 -0.045162464481816156 0.030231288122422536 -0.048258975799159123 0.075787210426738416 0.07620919861420937 -0.044967085882438321 -0.026029076648696466 0.079627116432059081 -0.016179638256782786 -0.019886387512146643 -0.0157096737587663 0.043263913973012151
leaf_weight=62.127991139888763 18.007545307278637 44.190193116664886 206.75953669846058 121.83342069387436 40.601437017321587 1403.6656278967857 52.705318987369537 26.57956151664257 93.457157857716084 94.11424071341753 13.486503429710863 158.25510790199041 16.554712690412998 836.47848315536976 35.116007782518864 8.4943214207887632 9.1041218489408493 34.317727327346802 46.420179679989815 18.31588102132082 14.139275126159191 3.3925761356949797 186.10002778470516 12.906880259513853 176.86981481313705 23.38204395771027 29.058644846081734 6.9584885686635962 5.4976402148604384 10.171435497701166
leaf_count=272 76 192 2387 593 179 17364 233 292 993 992 141 1905 86 3709 216 37 38 205 457 133 132 36 821 60 1742 146 264 55 49 72
internal_value=0 -0.0229972 0.00722674 -0.0114439 0.00666044 -0.0380074 -0.0437758 -0.00570956 0.00123827 -0.0112681 0.0668693 -0.029015 0.0213916 0.0686221 0.0332589 0.0292613 0.0620211 0.0109124 -0.0107554 -0.0235645 -0.00506417 -0.0425626 0.0691869 0.024852 -0.0196583 -0.0112252 0.0218314 0.0569857 0.0745284 -0.021843
internal_weight=0 2861.85 950.007 709.749 502.99 1911.85 1666.65 262.985 245.195 381.156 947.209 204.782 43.1343 933.722 97.244 151.738 240.258 107.548 73.2304 64.7361 23.2434 161.648 217.014 30.9144 340.555 246.44 59.3992 30.3405 58.203 187.041
internal_count=33877 29539 7557 6430 4043 21982 19965 2601 2017 3450 4338 2319 378 4197 488 1024 1127 832 627 590 170 1941 957 136 3271 2279 465 201 282 1814
shrinkage=0.05


Tree=18
num_leaves=31
num_cat=0
split_feature=28 3 14 12 17 9 14 14 27 13 37 3 45 15 27 31 20 14 12 27 13 15 16 34 15 18 15 27 27 26
split_gain=2130.97 490.394 337.564 166.025 173.59 149.468 117.128 117.109 107.356 94.211 73.9298 71.711 55.7302 55.2636 53.4179 48.2851 39.5362 38.7417 31.9299 48.0402 36.7096 30.5895 70.7178 29.3535 25.1557 28.1261 32.4192 27.0024 33.1643 27.832
threshold=1.0500000000000003 1897.5000000000002 406.00000000000006 5.5000000000000009 6.5000000000000009 126.00000000000001 379.00000000000006 231.00000000000003 1.1118055555555559 9.5000000000000018 6.5000000000000009 799.50000000000011 102.50000000000001 71.500000000000014 1.2673084503827881 0.37509721517562872 17.500000000000004 64.500000000000014 96.500000000000014 0.93405797101449284 31.500000000000004 22.500000000000004 25.500000000000004 -0.06092374958097934 78.500000000000014 4660.5000000000009 76.000000000000014 1.152680652680653 1.1237244897959184 0.99271510594808909
decision_type=8 2 8 10 10 10 10 8 2 10 2 2 2 8 2 2 10 10 8 2 8 10 10 2 10 8 10 2 2 2
left_child=10 2 18 6 -5 -4 8 13 -3 11 14 -7 15 -6 21 -9 24 -12 19 -2 -21 -1 -23 -14 25 26 -13 28 29 -27
right_child=1 3 5 4 7 9 -8 12 -10 -11 17 16 23 -15 -16 -17 -18 -19 -20 20 -22 22 -24 -25 -26 27 -28 -29 -30 -31
leaf_value=0.07195264018869639 0.055365259397914347 0.053806790280273666 0.058754072564681542 -0.050452618008628082 0.07887247818846306 0.052861968203252875 -0.043186596536432954 -0.016067681243708797 -0.039457919111920287 -0.049141390863200199 0.0473491304991892 -0.04086968521865262 -0.041854614701182152 -0.037241134671776678 -0.0078258243660982996 0.091325139087781379 -0.051205649037524628 -0.053505120999828376 0.067808057480778158 0.028933412110691434 -0.045032565466469547 -0.051768469353108026 0.070463891767053574 0.058029990013535294 -0.051908687919263424 0.026574300631254245 0.087847555920442744 -0.019596456575963421 0.06964760791074201 -0.030834897106671713
leaf_weight=821.68581867218018 106.35725172609091 109.30116397887468 61.24265893548727 1346.4942600503564 47.046150647103786 42.369744315743446 90.404047019779682 24.910862565040588 41.035721808671951 205.48810555040836 15.882683500647543 54.492407783865929 151.28452302515507 11.664641134440897 22.441294923424721 15.464662604033945 59.014511853456497 18.405787147581577 135.22246493399143 43.514302983880043 24.568469911813736 16.197962239384651 32.770155139267445 6.0313014090061179 25.079120375216007 61.679398111999035 3.4857403188943854 53.866892755031586 26.520304150879383 29.660337939858437
leaf_count=3709 536 622 316 17364 221 186 993 266 402 2492 69 548 1863 121 141 75 680 175 615 249 186 96 148 55 273 479 26 528 176 267
internal_value=0 -0.0225406 0.0069981 -0.0374735 -0.0432817 -0.0142172 0.00123606 -0.00552447 0.0281656 -0.0223541 0.0649226 -0.00671138 -0.0239722 0.0553362 0.0676834 0.0274349 -0.0150389 -0.00675379 0.0494909 0.0346841 0.00171851 0.0696431 0.0295863 -0.0373447 -0.00632823 -0.000946669 -0.0304597 0.00925343 0.022546 0.00767082
internal_weight=0 2776.2 932.562 1843.64 1602.9 622.899 240.741 256.402 150.337 561.657 927.384 356.168 197.691 58.7108 893.095 40.3755 313.799 34.2885 309.662 174.44 68.0828 870.654 48.9681 157.316 254.784 229.705 57.9781 171.727 117.86 91.3397
internal_count=33877 29539 7557 21982 19965 5971 2017 2601 1024 5655 4338 3163 2259 342 4094 341 2977 244 1586 971 435 3953 244 1918 2297 2024 574 1450 922 746
shrinkage=0.05


Tree=19
num_leaves=31
num_cat=0
split_feature=28 14 4 9 0 0 19 4 0 25 15 26 0 0 17 5 25 17 0 0 0 10 15 14 0 0 17 17 0 0
split_gain=1974.58 447.391 286.391 155.864 133.403 101.705 100.962 104.763 74.5485 72.4424 70.9346 65.0088 64.9933 98.8999 54.4096 54.359 51.5902 44.1336 41.3802 113.661 122.572 55.6078 34.2665 104.72 33.5724 33.4738 32.2341 30.8339 30.8326 30.6173
threshold=1.0500000000000003 379.00000000000006 14.500000000000002 95.000000000000014 48765.000000000007 52822.500000000007 394.50000000000006 9.5000000000000018 48765.000000000007 90.643181818181844 77.500000000000014 8.3680681589030055 53007.000000000007 48765.000000000007 55.000000000000007 12.500000000000002 183.82615444315098 25.500000000000004 50575.500000000007 49163.500000000007 49382.500000000007 11576.500000000002 6.5000000000000009 324.50000000000006 52475.500000000007 49163.500000000007 8.5000000000000018 9.5000000000000018 1429.5000000000002 48765.000000000007
decision_type=8 8 2 10 2 2 8 2 2 2 8 2 2 2 8 2 2 8 2 2 2 8 10 8 2 2 10 10 2 2
left_child=8 2 4 16 -2 -6 14 10 28 24 12 27 13 -8 -5 -7 -3 -15 19 -9 21 -21 -10 -24 29 -16 -22 -11 -1 -4
right_child=1 3 9 6 5 15 7 18 22 11 -12 -13 -14 17 25 -17 -18 -19 -20 20 26 -23 23 -25 -26 -27 -28 -29 -30 -31
leaf_value=0.050063618742624452 -0.054275143472572757 0.049834653081859956 -0.042310098513703154 -0.037919396162983454 0.067009128578626773 -0.030431558804006643 -0.051774666122498939 -0.053790247861719834 0.069192887533318731 -0.045149583490317932 -0.039399736334477166 0.074826803442474207 -0.033321163688867936 0.088052471089578574 -0.04713657587049639 0.046041218605365308 -0.0277880542046774 0.016010698934450448 -0.051356643730383025 -0.024940724734914307 -0.034510469285501853 0.083416313536828934 0.071479969542907668 -0.040037483397140548 -0.021103050870483801 0.052039658365838952 0.045373510083716311 0.044689349036949336 -0.051165552690806998 0.067457527602610728
leaf_weight=9.8985266238451022 31.309616751968861 69.695276916027069 6.2462181523442259 34.111877121031284 255.23401945084333 48.304529279470444 26.313045233488083 297.84968519210815 784.86205492168665 220.85081373155117 140.92997171729803 10.879040524363516 59.68632410466671 46.575491145253181 8.3483224809169752 41.217976219952106 28.998997136950493 39.710742227733135 979.93788202106953 15.089082412421702 155.64950504899025 42.411895468831062 63.036578163504601 29.569611959159374 25.901393122971058 56.701490730047226 12.021641656756399 8.4408668726682645 18.767872236669064 35.015799589455128
leaf_count=41 341 398 71 362 1180 407 317 4047 3625 2656 1549 58 638 244 95 235 282 289 13170 169 1798 285 288 175 256 311 118 60 209 203
internal_value=0 -0.0220663 0.0128627 -0.0339194 0.0420247 0.0510329 -0.0370795 -0.0397606 0.0631659 -0.0228621 -0.0133488 -0.0356415 0.0081685 0.0303589 0.0118393 0.00501476 0.0269281 0.0560111 -0.0452397 -0.0336269 -0.00671687 0.0550993 0.0657558 0.0357783 0.022545 0.0382853 -0.0283156 -0.0414845 -0.0152257 0.0496532
internal_weight=0 2697.43 683.4 2014.03 376.066 344.757 1915.34 1816.18 906.135 307.334 313.216 240.171 172.286 112.599 99.1617 89.5225 98.6943 86.2862 1502.96 523.022 225.172 57.501 877.468 92.6062 67.1634 65.0498 167.671 229.292 28.6664 41.262
internal_count=33877 29539 5467 24072 2163 1822 23392 22624 4338 3304 3037 2774 1488 850 768 642 680 533 19587 6417 2370 454 4088 463 530 406 1916 2716 250 274
shrinkage=0.05


Tree=20
num_leaves=31
num_cat=0
split_feature=28 14 4 9 12 27 4 14 1 37 15 17 27 17 44 27 17 19 12 17 13 9 12 19 15 16 20 9 13 11
split_gain=1832.36 419.317 262.598 146.365 121.956 112.697 106.601 88.1991 66.1463 66.0974 65.95 61.3949 60.3392 60.2278 71.2638 49.6228 42.2928 61.2085 38.431 50.8297 42.593 35.5767 28.9508 28.6574 26.74 62.1168 24.3697 21.041 20.6439 19.7794
threshold=1.0500000000000003 379.00000000000006 14.500000000000002 95.000000000000014 1.0000000180025095e-35 0.98761598036960363 9.5000000000000018 379.00000000000006 4438.0000000000009 6.5000000000000009 58.500000000000007 4.5000000000000009 1.1261363636363637 15.500000000000002 37.801288358833908 1.2673084503827881 5.5000000000000009 286.00000000000006 96.500000000000014 58.000000000000007 59.500000000000007 171.00000000000003 5.5000000000000009 19325.000000000004 22.500000000000004 25.500000000000004 5.5000000000000009 34.500000000000007 17.500000000000004 14889.000000000002
decision_type=8 8 2 10 10 2 2 10 2 2 8 10 2 10 2 2 10 10 8 8 8 10 10 10 10 10 10 10 10 8
left_child=9 2 8 12 7 16 10 -5 18 15 11 -6 29 -8 -15 24 17 -4 19 20 -2 -11 -19 -21 -1 -26 -12 -25 -13 -3
right_child=1 3 5 4 6 -7 13 -9 -10 21 26 28 -14 14 -16 -17 -18 22 -20 23 -22 -23 -24 27 25 -27 -28 -29 -30 -31
leaf_value=0.068416461297941863 0.06242731868486881 0.014489881155844767 0.070559129915453989 0.061016149482694938 -0.012170810495441872 -0.045770345011096079 -0.047774958092021896 -0.02767587814526732 -0.050953565161701797 0.05557411255136744 -0.004454273439181841 0.064542495377077957 -0.034498258212429668 0.065163496192993553 -0.041190165403740181 -0.0087358779163126937 0.079804779619576258 0.014770795442281571 0.063861608886460516 0.067318540950105379 -0.028254272768823332 -0.045774616091057423 -0.048672476452034874 0.060371195071471796 -0.049904613098716036 0.067122148287017264 -0.047423218794638844 -0.021194385414704194 -0.028727719889185072 0.070150525971320543
leaf_weight=782.41707216203213 101.56941001117229 26.473720990121365 22.488297320902348 51.439765155315399 107.02439238131046 187.76951591670513 1358.8072110116482 57.191965200006962 17.228456690907478 11.986527323722838 46.04100825637579 45.236792549490929 28.111145205795765 24.88740798085928 36.036501616239548 22.24304885417223 19.837662987411022 30.78665467351675 154.95359309017658 11.515295863151549 13.630472831428049 20.807664826512337 38.883118748664856 7.0151941627264014 15.491468109190462 31.128321379423141 118.58493636548519 65.122839890420437 5.6277589648962012 43.672746859490871
leaf_count=3709 496 189 119 230 1011 2364 18759 557 218 59 430 271 278 162 479 141 102 235 744 50 99 185 484 38 96 148 1422 518 71 213
internal_value=0 -0.021617 0.0124527 -0.033343 -0.0365024 -0.0222716 -0.0397059 0.0146658 0.0404759 0.0615516 -0.0136505 0.00939863 0.0257114 -0.0455973 0.00294558 0.0642298 0.0172377 0.00236066 0.0451894 0.0301484 0.0513988 -0.00766574 -0.0210074 0.000367303 0.0662038 0.0277817 -0.0356038 -0.0118478 0.0535265 0.0501279
internal_weight=0 2619.94 670.801 1949.14 1850.88 299.765 1742.25 108.632 371.035 884.074 322.515 157.889 98.2576 1419.73 60.9239 851.28 111.996 92.1581 353.807 198.853 115.2 32.7942 69.6698 83.6533 829.037 46.6198 164.626 72.138 50.8646 70.1465
internal_count=33877 29539 5467 24072 23392 3304 22605 787 2163 4338 3205 1353 680 19400 641 4094 940 838 1945 1201 595 244 719 606 3953 244 1852 556 342 402
shrinkage=0.05


Tree=21
num_leaves=31
num_cat=0
split_feature=28 3 14 12 17 9 14 14 13 27 37 3 45 27 15 31 20 9 12 12 27 13 14 15 16 15 18 22 15 27
split_gain=1700.82 422.725 257.306 147.679 160.404 119.627 97.2118 92.9051 88.2386 85.2371 61.6362 59.67 48.5305 47.1438 46.1591 39.5462 37.7063 33.0209 29.2049 27.0251 40.5754 31.3318 26.0562 23.8487 51.4332 23.5363 24.7725 35.9094 30.2003 26.0641
threshold=1.0500000000000003 1897.5000000000002 406.00000000000006 5.5000000000000009 6.5000000000000009 126.00000000000001 379.00000000000006 231.00000000000003 9.5000000000000018 1.1118055555555559 6.5000000000000009 799.50000000000011 102.50000000000001 1.0004081632653063 71.500000000000014 0.37509721517562872 17.500000000000004 171.00000000000003 33.500000000000007 96.500000000000014 0.93405797101449284 31.500000000000004 168.00000000000003 22.500000000000004 30.500000000000004 78.500000000000014 4660.5000000000009 1797.0000000000002 76.000000000000014 1.1771241830065362
decision_type=8 2 8 10 10 10 10 8 10 2 2 2 2 2 8 2 10 10 10 8 2 8 10 10 10 10 8 10 10 2
left_child=10 2 19 6 -5 -4 9 14 11 -3 13 -7 15 23 -6 -9 25 -12 -14 20 -2 -22 -15 -1 -25 26 28 -28 -13 -29
right_child=1 3 5 4 7 8 -8 12 -10 -11 17 16 18 22 -16 -17 -18 -19 -20 -21 21 -23 -24 24 -26 -27 27 29 -30 -31
leaf_value=0.067790056867498505 0.049877161175711365 0.048338200270936743 0.053338407663278797 -0.049345912585948067 0.072345015910021723 0.049513619008396272 -0.041369389433972711 -0.013903757908837959 -0.047817101908137288 -0.037359191832638153 0.053792557628463078 -0.039058359261320133 0.024511293444820632 0.038735213916147981 -0.036272469154290159 0.085100493170770564 -0.050195704129813626 -0.044525313807830612 -0.043414760991496312 0.061640019475912071 0.025164931292088702 -0.044211407959277575 -0.035143327354521629 -0.047368902555991035 0.065168885597809437 -0.05084037916569685 -0.028163788519152973 0.037097216740056442 0.084409802374823151 -0.014749417457345669
leaf_weight=737.75414623320103 103.84497755020857 107.70660815387964 59.806353896856308 1197.6724682599306 45.375697709619999 41.859449476003647 82.549850396811962 23.614306040108204 184.91119749844074 37.782904379069805 11.834455221891401 50.357840999960899 16.754868797957897 34.977960050106049 11.00110464543104 15.024263776838778 53.381376340985298 20.388814702630043 125.75237108021975 129.05517203360796 42.906263209879398 23.524532161653042 15.802937321364878 13.818355463445185 27.210189111530781 22.588124841451645 43.091992594301701 92.266292959451675 3.5925148352980605 31.394948415458202
leaf_count=3589 536 622 316 17364 221 186 993 266 2492 402 59 548 168 183 121 75 680 185 1750 615 249 186 100 89 133 273 444 690 26 316
internal_value=0 -0.0211541 0.00680706 -0.0359818 -0.041913 -0.0125377 0.00138666 -0.00433438 -0.0202388 0.0258782 0.0600337 -0.00498274 -0.0218077 0.0626638 0.0506334 0.0268867 -0.012952 -0.00738323 -0.0351998 0.0443336 0.0306534 2.3199e-05 0.0152838 0.0657062 0.0268263 -0.00443765 0.00072541 0.0102783 -0.0281133 0.0239092
internal_weight=0 2545.82 882.581 1663.23 1435.2 583.25 228.039 237.523 523.444 145.49 861.787 338.533 181.146 829.564 56.3768 38.6386 296.673 32.2233 142.507 299.331 170.276 66.4308 50.7809 778.783 41.0285 243.292 220.704 166.753 53.9504 123.661
internal_count=33877 29539 7557 21982 19965 5971 2017 2601 5655 1024 4338 3163 2259 4094 342 341 2977 244 1918 1586 971 435 283 3811 222 2297 2024 1450 574 1006
shrinkage=0.05


Tree=22
num_leaves=31
num_cat=0
split_feature=28 3 0 0 0 0 0 19 0 0 17 17 44 12 17 25 15 15 27 0 27 36 3 27 0 26 27 27 13 36
split_gain=1580.45 398.435 207.983 371.68 149.836 350.455 119.862 113.335 76.1688 65.2718 64.734 60.9244 60.7884 59.6954 52.3219 48.8791 47.421 39.7984 39.1328 30.502 30.1208 29.009 26.9617 26.6415 25.8286 23.4208 30.7552 22.9695 21.8016 20.4618
threshold=1.0500000000000003 1897.5000000000002 48765.000000000007 53007.000000000007 50425.000000000007 49163.500000000007 49450.500000000007 365.00000000000006 50147.500000000007 48765.000000000007 15.500000000000002 58.000000000000007 57.936387519729408 10.500000000000002 8.5000000000000018 116.14482564679416 78.500000000000014 78.500000000000014 1.2673084503827881 49657.500000000007 1.2673084503827881 0.028788057155907158 726.50000000000011 1.1261363636363637 1429.5000000000002 8.3680681589030055 1.167670682730924 0.27798959793287153 220.00000000000003 0.2646444439888001
decision_type=8 2 2 2 2 2 2 8 2 2 10 8 2 10 10 2 10 10 2 2 2 2 2 2 2 2 2 2 10 2
left_child=9 2 -2 8 5 -3 16 15 17 24 25 20 21 23 -15 -5 -7 -4 27 -20 28 -12 -9 -8 -1 -6 -27 -11 29 -10
right_child=1 4 3 7 10 6 13 22 11 18 12 -13 -14 14 -16 -17 -18 -19 19 -21 -22 -23 -24 -25 -26 26 -28 -29 -30 -31
leaf_value=0.043961347889281119 -0.054028656726280155 -0.053132018404111664 0.065142005088831681 0.071575337109538908 -0.050752903265041983 0.069236671363140684 0.068947880983620133 0.041943050651851256 0.062703088478840777 -0.018415215277878268 0.076485088886529773 -0.011892191910426534 -0.048671010182145952 -0.036210203821468549 0.062782018347748617 -0.036669036213516408 -0.044048012441557031 -0.044768168882393489 0.061869876431550064 -0.049194152156739501 -0.03599243009279246 -0.02620140339206279 -0.044361048784942014 -0.022343662730263801 -0.050660150797768991 0.081538798396091419 -0.044666852674359471 0.06383870243766486 -0.038365952832107995 -0.042114716854037705
leaf_weight=9.5655810832977313 119.91403305158019 288.14435870945454 257.29172645509243 34.738545246422291 964.81378605216742 117.60785518586636 29.827519685029984 7.8969077467918387 91.075672924518585 7.7775765508413306 23.421492092311386 83.056372500956059 27.418593123555183 98.497126825153828 13.538324818015097 13.123703546822069 8.6824505478143674 7.1785757988691321 8.3792110309004801 13.306725561618803 9.2207827866077405 8.2801647484302503 236.68162144720554 9.5820589140057546 17.57064263522625 6.3583853244781485 9.4831129536032659 782.51979050785303 4.919938124716281 3.5696172118186942
leaf_count=41 1575 4297 1306 158 14299 744 175 34 500 34 137 712 387 1352 108 137 123 79 37 94 93 98 2850 93 209 26 143 3923 73 40
internal_value=0 -0.0207058 0.0065647 0.0163869 -0.0354491 -0.014674 0.0253199 -0.0275032 0.0445124 0.0586228 -0.0467057 0.0202263 0.00397868 -0.00474332 -0.0233567 0.0416147 0.0608831 0.0618451 0.0611706 -0.00467961 0.0445202 0.0497011 -0.0412569 0.0467441 -0.0165778 -0.0497631 0.0094509 0.0629848 0.0525384 0.0579601
internal_weight=0 2474.32 868.667 748.753 1605.66 565.88 277.735 292.441 456.313 839.12 1039.78 191.842 59.1202 151.445 112.035 47.8622 126.29 264.47 811.983 21.6859 108.786 31.7017 244.579 39.4096 27.1362 980.655 15.8415 790.297 99.5652 94.6453
internal_count=33877 29539 7557 5982 21982 6892 2595 3179 2803 4338 15090 1418 622 1728 1460 295 867 1385 4088 131 706 235 2884 268 250 14468 169 3957 613 540
shrinkage=0.05


Tree=23
num_leaves=31
num_cat=0
split_feature=7 14 12 27 0 3 0 0 0 24 0 0 3 16 44 27 12 22 7 38 13 12 27 0 5 4 19 29 0 3
split_gain=1298.99 488.901 455.552 276.006 151.431 128.278 121.774 123.678 92.0032 92.6201 68.3354 82.1012 67.1491 44.4574 46.3294 35.4933 34.6625 36.4432 45.5243 35.5516 33.975 60.6841 31.0729 29.1709 26.0104 25.9384 22.2816 21.4135 17.9805 17.7608
threshold=4722.5000000000009 406.00000000000006 157.50000000000003 1.0323627984918311 48765.000000000007 1825.5000000000002 49790.500000000007 48765.000000000007 52721.000000000007 557.05000000000007 53007.000000000007 48765.000000000007 726.50000000000011 16.500000000000004 36.138189424176815 1.2673084503827881 13.500000000000002 1797.0000000000002 8904.5000000000018 5.5000000000000009 22.500000000000004 17.500000000000004 0.88208556149732631 1429.5000000000002 10.500000000000002 17.500000000000004 365.00000000000006 0.060635879635810859 49690.500000000007 799.50000000000011
decision_type=10 10 10 2 2 2 2 2 2 2 2 2 2 10 2 2 10 10 10 2 10 10 2 2 2 2 8 2 2 2
left_child=20 2 3 4 -2 10 7 -5 -6 22 11 23 -3 -7 -15 24 17 -14 -19 26 21 25 -10 -4 27 -1 -20 -13 -26 -12
right_child=1 12 5 6 8 13 -8 -9 9 -11 29 15 16 14 -16 -17 -18 18 19 -21 -22 -23 -24 -25 28 -27 -28 -29 -30 -31
leaf_value=0.066951761510320715 -0.053612654033105403 0.050791252892205124 0.040809232850087362 -0.052525207302818157 0.066109048308385626 -0.044886623367937542 -0.050667553234830069 0.064937689213615021 0.061436454664046014 -0.034583899931773764 0.037008801918022659 0.065661851553598077 -0.043404734718019117 0.056294421224996671 -0.032967862968419546 -0.014903106685593468 -0.052083030601091429 0.073970628182508519 0.050600067207680656 0.068331496365592229 0.06761389733822154 -0.044849520108597697 -0.0039040621987880271 -0.052628053645154639 0.057911900219571814 -0.0055407991099533432 -0.047683568793287827 -0.036104590076487302 -0.032032730244934159 -0.03532238114052922
leaf_weight=62.559235915541649 34.123560234904289 16.381374374032021 8.77881061285734 32.942093849182129 374.15383936092257 482.20531543344259 128.92814799770713 61.096024438738823 79.221183821558952 50.699228540062904 7.6121764928102484 91.183272458612919 135.7511232867837 21.720243997871876 35.550187766551971 24.98504213988781 721.40908428654075 14.507371209561823 4.9356202147901058 7.7836554609239093 548.87972357869148 18.051790550351143 23.152103532105684 41.23554165288806 6.4680465608835247 14.895517513155935 44.030190873891115 4.2546732798218718 14.162532575428484 105.42154483124614
leaf_count=291 415 73 46 440 1950 7552 1666 332 433 492 34 487 1801 150 512 220 11197 68 30 56 2825 98 194 543 33 104 453 26 112 1244
internal_value=0 -0.0165057 0.000110422 0.0275053 0.0461519 -0.0253648 -0.0194333 0.0235528 0.0527872 0.019792 0.000617757 0.01879 -0.0450752 -0.0399593 0.00164277 0.0381904 -0.0468722 -0.0283884 0.000623171 -0.0200071 0.0627745 0.0341457 0.0468678 -0.0352889 0.0496782 0.053222 -0.03618 0.0604771 -0.00120763 -0.0298925
internal_weight=0 2572.69 1627.89 784.316 561.35 843.577 222.966 94.0381 527.226 153.073 304.102 191.068 944.798 539.476 57.2704 141.054 928.417 207.008 71.2568 56.7495 644.386 95.5065 102.373 50.0144 116.069 77.4548 48.9658 95.4379 20.6306 113.034
internal_count=33877 30559 16881 5922 3484 10959 2438 772 3069 1119 2745 1467 13678 8214 662 878 13605 2408 607 539 3318 493 627 589 658 395 483 513 145 1278
shrinkage=0.05


Tree=24
num_leaves=31
num_cat=0
split_feature=28 0 0 0 19 3 14 12 0 25 27 7 3 16 16 7 14 27 16 3 25 7 2 19 27 27 28 0 7 0
split_gain=1373.78 359.439 538.123 305.94 142.678 137.243 100.137 81.1185 55.9328 46.2207 44.15 41.8265 36.8781 36.4931 35.8614 34.9635 132.649 33.4369 32.4747 31.3084 30.9886 30.3087 31.1777 30.2986 28.7937 26.2543 25.4284 23.4202 21.9798 21.5063
threshold=1.0500000000000003 53007.000000000007 48765.000000000007 50185.500000000007 286.00000000000006 1743.5000000000002 406.00000000000006 55.500000000000007 48765.000000000007 113.88562091503269 1.911019883272332 87.000000000000014 2206.5000000000005 7.5000000000000009 82.500000000000014 8904.5000000000018 379.00000000000006 0.98761598036960363 4.5000000000000009 726.50000000000011 324.35625000000005 15417.500000000002 966.00000000000011 365.00000000000006 0.93788580246913589 1.2849025974025976 1.2500000000000002 1429.5000000000002 8904.5000000000018 49328.500000000007
decision_type=8 2 2 2 8 2 10 10 2 2 2 10 2 10 10 10 10 2 10 2 2 10 2 8 2 2 10 2 10 2
left_child=8 2 -2 6 9 18 10 12 27 -3 26 24 -8 23 -11 -10 21 20 28 -13 -15 -17 -23 -7 -6 -20 -4 -1 -5 -28
right_child=1 4 3 5 11 13 7 -9 15 14 -12 19 -14 17 -16 16 -18 -19 25 -21 -22 22 -24 -25 -26 -27 29 -29 -30 -31
leaf_value=0.042045441024699606 -0.053685286277359794 0.065770520340639335 0.063268777976319787 0.044635547412401694 0.058223781545441888 0.032317990405562595 0.057814173925731099 -0.046168677881110454 0.065354412016727037 -0.040838892108825159 -0.035298592913351703 0.040721334526689593 -0.0078885138802030959 0.013559050358638195 0.059375133591572607 -0.061492597085026662 -0.069454785871574581 -0.031195571160461399 0.051356307582682816 -0.049983105747802535 0.15174135302019642 -0.017960336268851178 0.06269558633996021 -0.047759031961104891 -0.052165504277632405 -0.043706893457775869 0.073267712810191829 -0.049715770334413392 -0.014976481387192379 -0.025853744141371121
leaf_weight=9.3879012018442172 368.84865364432335 33.687615923583508 340.86022229120135 18.342544160783291 14.376121357083322 11.156032871454952 56.898181453347206 45.897618938237429 552.73406981676817 28.793257504701614 11.340211376547812 8.2107954472303373 32.825626581907272 14.955143574625255 10.628373518586157 3.9549622982740393 22.633524842560291 24.508016966283321 78.672436945140362 912.843979049474 3.8176176846027365 12.007266111671923 175.72109346091747 213.3030748218298 7.3825449198484412 6.4739668555557719 6.045105982571843 16.21136249601841 62.469829831272364 15.183501143008469
leaf_count=41 5786 165 1963 92 68 89 327 672 2958 357 136 35 367 159 53 17 131 343 465 14186 24 68 914 3330 55 70 58 209 569 170
internal_value=0 -0.0199558 -0.00264924 0.0173899 -0.0422502 -0.0134419 0.0436076 0.00667816 0.0561774 0.0244902 0.0569126 -0.0474664 0.0341288 -0.0354851 -0.0122581 0.0586021 0.0407442 0.00631032 0.0221193 -0.049088 0.0535638 0.054339 0.0574018 -0.0435288 0.0195312 0.0432911 0.0599786 -0.0154563 -0.00069471 0.00625043
internal_weight=0 2327.52 1311.6 942.749 1015.92 433.699 509.05 135.621 792.65 73.1092 373.429 942.813 89.7238 267.74 39.4216 767.051 214.317 43.2808 165.959 921.055 18.7728 191.683 187.728 224.459 21.7587 85.1464 362.089 25.5993 80.8124 21.2286
internal_count=33877 29539 14620 8834 14919 5141 3693 1366 4338 575 2327 14344 694 3945 410 4088 1130 526 1196 14221 183 999 982 3419 123 535 2191 250 661 228
shrinkage=0.05


Tree=25
num_leaves=31
num_cat=0
split_feature=28 0 0 0 19 15 3 14 0 3 15 17 7 17 27 27 27 19 27 3 7 38 27 25 0 27 17 15 14 0
split_gain=1280.75 341.53 506.286 277.988 135.456 135.21 127.516 65.9536 52.2516 49.951 44.1866 41.3093 39.7939 38.0735 37.8472 36.5153 34.4867 31.8207 30.4174 29.8703 28.329 32.8452 26.925 26.2811 25.5797 25.3253 25.3092 46.0758 22.3251 22.0678
threshold=1.0500000000000003 53007.000000000007 48765.000000000007 50185.500000000007 286.00000000000006 77.500000000000014 1743.5000000000002 406.00000000000006 48765.000000000007 2206.5000000000005 1.0000000180025095e-35 58.000000000000007 87.000000000000014 6.5000000000000009 1.911019883272332 0.98761598036960363 1.2673084503827881 365.00000000000006 1.1237244897959184 726.50000000000011 8904.5000000000018 5.5000000000000009 0.93788580246913589 324.35625000000005 49657.500000000007 1.2849025974025976 37.500000000000007 62.500000000000007 2869.5000000000005 1429.5000000000002
decision_type=8 2 2 2 8 10 2 10 2 2 10 8 10 10 2 2 2 8 2 2 10 2 2 2 2 2 8 8 10 2
left_child=8 2 -2 5 10 7 11 14 29 20 18 25 22 17 26 23 28 -8 -3 -14 -9 -22 -6 -15 -18 -5 -4 -28 -10 -1
right_child=1 4 3 6 12 -7 13 9 16 -11 -12 -13 19 15 -16 -17 24 -19 -20 -21 21 -23 -24 -25 -26 -27 27 -29 -30 -31
leaf_value=0.040668950663440284 -0.053446941832116568 0.061073273759863225 0.077950716644748119 0.049622559515437446 0.056627986157823329 -0.051494606792459943 0.032615691264909097 0.072743290941950325 0.059983294554896885 -0.022225639122537715 -0.048158802688627877 -0.0076572143191698172 0.038973577920179588 0.019040243744318706 -0.032436720374974061 -0.032003770194879988 0.055831898442305565 -0.04745483605230541 -0.028818041552915133 -0.049603488167273474 -0.021083289160644187 0.088783970865543682 -0.051085592942199477 0.14874536929790563 -0.04772005939641806 -0.04347740780492175 0.0073648109332975446 0.063403903008488388 -0.040117909711731653 -0.049257801255197298
leaf_weight=9.2905466258525866 352.39357179403305 45.982066608965397 151.5073249861598 87.808032192289829 14.105445727705957 34.578072618693113 11.832219775766132 35.311135061085224 718.7191531509161 48.882102057337761 14.935205858200787 70.6987021304667 8.2389837354421598 13.682554196566345 9.7301091253757459 21.933171980082989 8.1223045364022273 207.80903924256563 10.433647461235521 874.81735096126795 24.313352748751644 7.1916926056146613 7.2083975523710242 3.9159541279077521 12.54922219365835 6.4373453371226779 49.762100838124752 143.91095874086022 4.324369177222251 15.578620854765175
leaf_count=41 5786 233 811 527 68 515 92 176 3921 631 220 597 35 139 115 298 37 3390 122 14186 218 38 55 26 94 72 395 794 36 209
internal_value=0 -0.0195705 -0.00258776 0.0167715 -0.0418279 0.0417579 -0.0130473 0.0487985 0.0550771 0.0156719 0.0239469 0.0211628 -0.0470586 -0.0348148 0.0594493 0.00993504 0.0574593 -0.042886 0.0440311 -0.0486909 0.0432375 0.00779891 0.0189416 0.0601357 -0.00569623 0.0424921 0.0622113 0.0492277 0.0592756 -0.0151367
internal_weight=0 2257.42 1281.7 929.304 975.721 505.187 424.117 470.609 768.584 115.698 71.3509 164.944 904.37 259.173 354.91 39.5317 743.715 219.641 56.4157 883.056 66.8162 31.505 21.3138 17.5985 20.6715 94.2454 345.18 193.673 723.044 24.8692
internal_count=33877 29539 14620 8834 14919 3693 5141 3178 4338 1063 575 1196 14344 3945 2115 463 4088 3482 355 14221 432 256 123 165 131 599 2000 1189 3957 250
shrinkage=0.05


Tree=26
num_leaves=31
num_cat=0
split_feature=28 0 0 0 3 19 1 15 19 7 10 10 14 14 7 17 24 3 27 7 3 7 16 15 27 7 27 1 27 13
split_gain=1193.21 324.462 477.063 272.112 163.036 128.129 90.1075 83.6467 54.9124 52.6377 161.787 42.7924 38.9117 37.9165 37.8572 35.4441 35.3513 34.8041 29.7708 32.2792 28.5126 26.7103 26.6785 39.265 25.1963 25.0435 23.9286 22.8106 18.2364 17.4428
threshold=1.0500000000000003 53007.000000000007 49163.500000000007 49755.500000000007 1825.5000000000002 286.00000000000006 1285.5000000000002 77.500000000000014 365.00000000000006 8904.5000000000018 2054.0000000000005 40.500000000000007 406.00000000000006 379.00000000000006 87.000000000000014 58.000000000000007 87.20416666666668 2206.5000000000005 1.0004081632653063 8904.5000000000018 726.50000000000011 8904.5000000000018 16.500000000000004 57.000000000000007 0.93788580246913589 15417.500000000002 2.379807692307693 856.50000000000011 2.0995773360749377 220.00000000000003
decision_type=8 2 2 2 2 8 2 10 8 10 8 8 10 10 10 8 2 2 2 10 2 10 10 8 2 10 2 2 2 10
left_child=9 2 -2 7 15 6 -3 12 27 28 -11 18 26 16 24 29 -12 -14 19 -10 -16 -17 -13 -24 -7 -23 -4 -6 -1 -5
right_child=1 5 3 4 8 14 -8 -9 11 10 13 22 17 -15 20 21 -18 -19 -20 -21 -22 25 23 -25 -26 -27 -28 -29 -30 -31
leaf_value=0.063503170595264488 -0.052209247876383473 0.064323861012061265 0.068717143824142499 0.045938006756006643 0.083057191726961979 0.055113487100515703 -0.051017332382021122 -0.048889034078817256 0.08968174921089947 -0.071316032114424596 -0.034174447173831467 -0.045112812647138165 0.051085159398461234 -0.05233949030701486 0.037324590790248323 0.045391203273038118 0.059384447606415251 -0.019034903546048074 -0.04057943460670263 -0.040908332332253217 -0.049226158409184345 -0.051004099366626948 0.10599152498236204 -0.043581639308980846 -0.050039452915233464 0.0073041547971000702 -0.029359197347497531 -0.022795896089405993 -0.037024393549822864 -0.038660794259726142
leaf_weight=517.25067632645369 346.7398268096149 45.057358808815479 249.58072002977133 129.26930051669478 12.984257876873018 13.830383017659189 24.644463025033474 18.159301038831472 14.636172525584703 30.144380904734135 9.4466407522559148 244.76904679462314 42.726682271808386 7.1794030070304862 8.2606023997068387 28.024435732513666 178.84897009283304 27.892238195985556 11.361266788095234 5.2557339966297141 838.38540767878294 23.559288140386343 5.7456663697957966 8.3474675826728344 7.0373208150267592 64.494506474584341 5.3381372615694991 6.6240087114274493 3.3412888944149008 4.9337371140718451
leaf_count=2950 5905 231 1390 764 57 68 344 280 75 261 71 4049 261 49 35 144 977 346 142 69 14186 294 46 125 55 457 65 78 30 73
internal_value=0 -0.0192072 -0.00252236 0.0166151 -0.00490109 -0.0414156 0.0232572 0.0514982 -0.0290691 0.0539311 0.0332818 -0.0346078 0.0573624 0.0499708 -0.0466533 0.0250002 0.0543808 0.0236285 0.0196357 0.0545928 -0.0482957 0.00461476 -0.0412572 0.0229921 0.0183772 -0.00908282 0.0664508 0.048498 0.0627187 0.0423059
internal_weight=0 2187.66 1250.44 903.702 560.005 937.216 69.7018 343.697 309.724 746.211 225.619 290.115 325.538 195.475 867.514 250.281 188.296 70.6189 31.2532 19.8919 846.646 116.078 258.862 14.0931 20.8677 88.0538 254.919 19.6083 520.592 134.203
internal_count=33877 29539 14620 8715 6373 14919 575 2342 4641 4338 1358 4506 2062 1097 14344 1732 1048 607 286 144 14221 895 4220 171 123 751 1455 135 2980 837
shrinkage=0.05


Tree=27
num_leaves=31
num_cat=0
split_feature=28 3 14 12 17 9 13 27 15 14 15 14 14 3 27 25 11 20 14 43 11 16 27 15 18 22 15 27 23 29
split_gain=1114.02 302.276 165.388 116.601 136.249 82.4537 72.6743 69.7709 67.506 57.6609 49.1173 84.1757 45.5122 40.281 39.9475 34.3354 33.1944 32.6303 31.6083 29.2316 26.7603 21.1941 37.8161 19.7196 19.8358 29.1741 25.2024 18.7974 19.0901 17.0958
threshold=1.0500000000000003 1897.5000000000002 406.00000000000006 5.5000000000000009 6.5000000000000009 126.00000000000001 9.5000000000000018 1.1118055555555559 71.500000000000014 379.00000000000006 6.5000000000000009 131.00000000000003 406.00000000000006 799.50000000000011 0.94146202170188475 324.35625000000005 776.00000000000011 17.500000000000004 613.50000000000011 41.875000000000007 8.5000000000000018 5.5000000000000009 0.93405797101449284 78.500000000000014 4660.5000000000009 1797.0000000000002 76.000000000000014 1.1771241830065362 2065.0000000000005 -0.14452417939901349
decision_type=8 2 8 10 10 10 10 2 8 10 10 8 8 2 2 2 8 10 10 2 10 10 2 10 8 10 10 2 10 2
left_child=10 2 21 7 20 -4 13 9 12 -3 16 -12 -6 -7 15 -14 18 23 -1 29 -5 22 -2 24 26 -26 -15 28 -27 -10
right_child=1 3 5 4 8 6 -8 -9 19 -11 11 -13 14 17 -16 -17 -18 -19 -20 -21 -22 -23 -24 -25 25 27 -28 -29 -30 -31
leaf_value=0.036670640646936772 0.043142266129193342 0.042277918202950515 0.047105630491760031 0.051076513850989935 0.060577613006696701 0.042208911903617863 -0.045723801353904255 -0.041832316452350839 -0.039188872540731466 -0.0282806979722947 0.059719521704801229 -0.037351107437092294 0.012358791300515017 -0.036986939715836935 -0.037442841026494887 0.15765516436776836 0.060764226007127678 -0.048706248167785487 -0.061322056778175496 -0.043871223064355647 -0.047916780937821216 0.054023109046245334 -0.0084758701211637699 -0.04918575030848249 -0.026069707121509439 0.051419928241571357 0.074229458691597097 -0.011966727187070394 0.0036417816497526182 0.059471327364595233
leaf_weight=32.000995226204395 98.496287204325199 97.751279905438423 53.195677191019058 5.338299397379159 47.75905729830265 39.72310097515583 151.23917550221086 59.954486176371574 4.9854799620807162 39.17765686288476 48.655758231878281 38.14012299105525 18.968381386250261 44.04108215495944 34.747631207108498 3.3224928975105277 594.68466790020466 44.476183857768774 8.9194740802049619 80.539631113409996 939.15157122164965 114.01596338674426 53.961889285594225 18.642281033098698 38.569378264248371 56.076330777257681 3.8548075482249251 28.055054247379303 33.172040350735188 10.899066258221863
leaf_count=172 555 622 316 54 298 186 2492 852 69 543 283 338 239 548 569 24 3493 680 52 1325 17310 652 379 273 444 391 26 316 299 77
internal_value=0 -0.0188582 0.00594349 -0.0332087 -0.0393071 -0.0107121 -0.0176054 0.00231816 -0.00192465 0.0219734 0.0529543 0.0171839 0.0256243 -0.00352918 -0.00470326 0.045213 0.0577698 -0.0106001 0.0134489 -0.0317782 -0.0472505 0.0377275 0.0249991 -0.00261372 0.00208369 0.0107496 -0.0254193 0.0230899 0.0341307 0.0275865
internal_weight=0 2120.11 777.519 1342.6 1145.71 511.045 457.849 196.883 201.222 136.929 722.401 86.7959 104.798 306.61 57.0385 22.2909 635.605 266.887 40.9205 96.4242 944.49 266.474 152.458 222.411 203.769 155.873 47.8959 117.303 89.2484 15.8845
internal_count=33877 29539 7557 21982 19965 5971 5655 2017 2601 1165 4338 621 1130 3163 832 263 3717 2977 224 1471 17364 1586 934 2297 2024 1450 574 1006 690 146
shrinkage=0.05


Tree=28
